/***
layer_defs = [];
layer_defs.push({type:'input', out_sx:32, out_sy:32, out_depth:3});
layer_defs.push({type:'conv', sx:10, filters:4, stride:3, pad:2, activation:'relu'});
layer_defs.push({type:'fc', filters:100, activation:'relu'});
layer_defs.push({type:'softmax', num_classes:2});

net = new convnetjs.Net();
net.makeLayers(layer_defs);

trainer = new convnetjs.SGDTrainer(net, {method:'adadelta', batch_size:32, l2_decay:0.001});
**/

window.trained_gender_l = {"layers":[{"out_depth":3,"out_sx":32,"out_sy":32,"layer_type":"input"},{"sx":10,"sy":10,"stride":3,"in_depth":3,"out_depth":4,"out_sx":9,"out_sy":9,"layer_type":"conv","l1_decay_mul":0,"l2_decay_mul":1,"pad":2,"filters":[{"sx":10,"sy":10,"depth":3,"w":{"0":0.24349952930050123,"1":0.11968034700339482,"2":0.06748106877526468,"3":-0.03286450866228997,"4":-0.008900002062608535,"5":0.11298039513165459,"6":0.03802724961188979,"7":-0.05159423237715481,"8":0.01865054295978448,"9":0.20648772402069326,"10":-0.03120731344744921,"11":0.002147360032538058,"12":-0.059376730156663754,"13":-0.058379749696381086,"14":-0.23007463713617687,"15":0.05009302376931523,"16":-0.19353278446048988,"17":-0.1600775360204282,"18":0.11233980518312887,"19":0.05586562936214851,"20":-0.025381300090902385,"21":0.045346124934030785,"22":-0.16058033463705915,"23":-0.07723049098688221,"24":-0.12415514424454938,"25":-0.07556499445452909,"26":-0.09265474976135073,"27":-0.12198512934680678,"28":-0.1770911725339901,"29":-0.05404859985363539,"30":-0.023941533973374497,"31":0.04841098574543337,"32":0.08543518235951696,"33":-0.32404206605464897,"34":-0.21115099674659205,"35":-0.06644889630686288,"36":-0.36600753379771056,"37":-0.32863587321980725,"38":-0.2565205674570809,"39":-0.06428385904391053,"40":-0.1057103688095791,"41":-0.12176167098935668,"42":0.1313618563893604,"43":0.10717513888553899,"44":0.2034329711666029,"45":0.25257355625739175,"46":0.11436304039405772,"47":0.23588417211250406,"48":0.5231787993186627,"49":0.4222781852598871,"50":0.2804523977902206,"51":0.15312762489706608,"52":0.15066487260010672,"53":0.09661757471439551,"54":0.17284477275179191,"55":0.19903467111818576,"56":0.2068930993162609,"57":-0.30566151913284945,"58":0.03164022810970601,"59":0.16794414296102886,"60":-0.27317611534374875,"61":-0.09940553719646328,"62":-0.08652064048313236,"63":-0.46963488948014037,"64":-0.25791855567922667,"65":-0.2643237433768502,"66":-0.7159156426070555,"67":-0.5923586440548314,"68":-0.602342866326952,"69":-0.2783034866805967,"70":-0.27765506732190387,"71":-0.10025900436423485,"72":-0.21380526586481255,"73":-0.1421483203441729,"74":-0.17472843087753817,"75":0.17018682100961563,"76":0.20420672476919596,"77":0.19261374145803098,"78":0.518052140017921,"79":0.38818245136833446,"80":0.3645094204071501,"81":0.2703724811011477,"82":0.15780415115627705,"83":0.2460107595810378,"84":0.12819630740975857,"85":0.355240502136159,"86":0.46699445040125553,"87":-0.13378089803305054,"88":0.14518783688489034,"89":0.3553733629622164,"90":-0.09308178377991691,"91":-0.014609764131311834,"92":0.1551678301116164,"93":-0.3983252370019141,"94":-0.11259088660544163,"95":-0.05637364583450429,"96":-0.649900095604433,"97":-0.5047835755069775,"98":-0.26138699994565795,"99":-0.3235035974304615,"100":-0.269939897906509,"101":-0.12770091707132755,"102":-0.08974267154810765,"103":-0.04121294976247985,"104":-0.004339966691717463,"105":0.4341197828544709,"106":0.2860777574549191,"107":0.41552951932502435,"108":0.4897797668692121,"109":0.317829440224206,"110":0.4220311088395691,"111":0.6076895756600594,"112":0.4739202851811257,"113":0.36210879599622653,"114":0.38744308170688657,"115":0.45995249723499065,"116":0.53471048727161,"117":0.07618748883420154,"118":0.5172599826689256,"119":0.47942947669635433,"120":-0.13469781128144392,"121":0.13897981107447485,"122":0.14331791957986234,"123":-0.3408607154199032,"124":-0.05165740079647037,"125":0.03290882124498577,"126":-0.49792771417895093,"127":-0.47327329319455236,"128":-0.24035742104780192,"129":-0.18111258772512864,"130":-0.17617265204692906,"131":0.08270081192864322,"132":0.19922574404118712,"133":-0.006648219081156213,"134":0.1512938977211913,"135":0.19679467841416662,"136":0.17347269521805345,"137":0.15727872721962904,"138":0.3738694332588269,"139":0.42482680465110484,"140":0.31337798360128155,"141":0.29681919938445417,"142":0.3486701474177413,"143":0.30093843379307983,"144":-0.05166183424792132,"145":0.27649633230757026,"146":0.2662219493079383,"147":0.11994134648143784,"148":0.34268156625838736,"149":0.49427198851710685,"150":-0.14198327340604755,"151":0.046501256016882646,"152":-0.03919770855185977,"153":-0.2608245066703253,"154":-0.04068871757997725,"155":0.060740532951587906,"156":-0.48640645110220837,"157":-0.32187525563477676,"158":-0.20556173296953653,"159":-0.09750569479797927,"160":0.11986709438903774,"161":0.09984374485614471,"162":-0.08165619780121874,"163":-0.008872983521295572,"164":0.0931491909320277,"165":0.07174722054787218,"166":0.1068272790228927,"167":0.2941335874516353,"168":0.33433349734960305,"169":0.44554244342897315,"170":0.44111035331874937,"171":0.0067657122992149255,"172":0.17465625402093266,"173":0.10247943556220929,"174":-0.11938234464192646,"175":0.04988784731727769,"176":-0.004410738451912505,"177":-0.3470861939451595,"178":-0.010277507540687193,"179":-0.02314704375948563,"180":-0.25730124904014084,"181":-0.16791668896133766,"182":-0.14172690867539495,"183":-0.23064215112701192,"184":-0.06655817899885695,"185":0.06330792594858421,"186":-0.4760133251040069,"187":-0.2767415165895319,"188":-0.28121835580365895,"189":-0.033232849254915604,"190":-0.029723812145178434,"191":0.01950174538601108,"192":-0.14513639525891714,"193":-0.243746184367464,"194":-0.24876644667475792,"195":-0.06352255070598134,"196":0.0801487293487956,"197":0.007492978340142261,"198":-0.18417538915451573,"199":0.08645564620237677,"200":0.053698982098693775,"201":-0.2930753039568096,"202":-0.13538598333797844,"203":-0.10042504207980675,"204":-0.7142898899944649,"205":-0.2989140581169898,"206":-0.35402763795843906,"207":-0.4345910746760604,"208":-0.29842195257034343,"209":-0.31603259431744457,"210":0.25669462535814463,"211":0.05231107450302618,"212":-0.032244888989872246,"213":0.1813482209608036,"214":0.03652415331413524,"215":0.020176683610082815,"216":-0.08190190042387746,"217":-0.3227430072577646,"218":-0.2546237924364131,"219":-0.0929501643927403,"220":-0.09310591550721695,"221":-0.24776988802580183,"222":-0.04670284202242251,"223":-0.2899206703352765,"224":-0.2597756655562257,"225":-0.09648787085461197,"226":-0.25027071899890013,"227":-0.2309355312978418,"228":-0.030309164672107067,"229":0.020187340035037114,"230":-0.15972977749695144,"231":-0.09436352322624363,"232":-0.14306312930531306,"233":-0.23578766589737418,"234":-0.28431498552684065,"235":-0.24371366629673988,"236":-0.2972250218687011,"237":-0.36899962012983245,"238":-0.13094605444556667,"239":-0.33377773242712316,"240":0.4003425918522132,"241":0.17288352496949727,"242":0.051485606642686116,"243":0.25628071696617194,"244":0.19165526667581484,"245":-0.015721330044937924,"246":0.3602330256423181,"247":0.06001176724276532,"248":-0.012365751153397506,"249":0.07680408516801056,"250":-0.2770274433771335,"251":-0.24117232238069183,"252":-0.09299464801047208,"253":-0.5231829152321519,"254":-0.41381834611785817,"255":-0.07157430533292083,"256":-0.22231581846351098,"257":-0.24143394344954636,"258":0.17961854474404126,"259":0.08712579556763439,"260":-0.04332843038751385,"261":0.36807107261635386,"262":0.09077618174361779,"263":0.030607993334711096,"264":0.13533632107467458,"265":0.04722454706708392,"266":-0.1173430792808395,"267":0.060383046557526264,"268":0.18264001828587031,"269":-0.2220295149083184,"270":0.010513029303164858,"271":-0.0547199317293799,"272":-0.09799036727306917,"273":0.014403157442977602,"274":-0.17887889097911264,"275":-0.08374508434885317,"276":0.24565399114093572,"277":-0.1609279095366201,"278":-0.20439588386188823,"279":0.26665399498883574,"280":-0.1864512661739534,"281":-0.290558870777618,"282":0.14264801685180492,"283":-0.3509445138630608,"284":-0.0983903618888452,"285":0.28350576868882477,"286":0.0051283686467101415,"287":0.029928499385385336,"288":0.23694497429471764,"289":0.1030298533192622,"290":-0.03798123971296751,"291":0.40328410482783966,"292":0.18724235043304793,"293":0.030878092315633734,"294":0.33455879277535167,"295":0.1919785436228674,"296":-0.00876101823674689,"297":0.4801080823000113,"298":0.31098727517777935,"299":0.16313144124728451}},{"sx":10,"sy":10,"depth":3,"w":{"0":0.1889283240837751,"1":0.16329356555932337,"2":-0.050555496583381675,"3":0.07582012119223218,"4":0.0247797107769391,"5":-0.12260762541248765,"6":0.16583285865536082,"7":0.305131453437978,"8":0.13432136058081653,"9":0.1559429276029989,"10":0.2052485618721077,"11":0.12615599831152838,"12":-0.041583865159517924,"13":0.04379710405822696,"14":-0.06949846586933339,"15":-0.06399320053025637,"16":0.1485764819346796,"17":0.14953099475523113,"18":0.08458929815356041,"19":0.16178321681778404,"20":0.01612686959448789,"21":0.04666796796880235,"22":0.11919823432670647,"23":0.050150025130722566,"24":-0.06845995290394948,"25":0.045483455757442504,"26":-0.09095642255812655,"27":-0.027459107485849912,"28":0.04507583621439888,"29":-0.06330130756895966,"30":0.16821701307379944,"31":-0.07275409964900974,"32":-0.1603083165747471,"33":0.13931487708829174,"34":-0.045489464241548226,"35":-0.30136947084419563,"36":0.1591196108156845,"37":-0.039085484192462966,"38":-0.042013900126678896,"39":0.22370528494220074,"40":0.1150519966650373,"41":0.10141804097292505,"42":0.06899514098001233,"43":0.073607599390373,"44":0.04012262697072415,"45":-0.16620133189997952,"46":-0.1005032396387128,"47":-0.0663529917714801,"48":-0.1190151724072993,"49":-0.02149127659729214,"50":-0.02851434674562797,"51":-0.18635060183683744,"52":0.07460402684208617,"53":0.00946675752168912,"54":-0.15773765936002596,"55":-0.13355245356281445,"56":-0.044334556354420206,"57":-0.10075553354357115,"58":0.02559833817850383,"59":-0.00988835021640503,"60":0.08186236539712001,"61":-0.06618635352079968,"62":-0.14809731036001436,"63":0.17325679757817347,"64":0.07745091623379945,"65":0.009790004410429314,"66":0.053489269430644935,"67":0.03917736446925754,"68":-0.09185811783299246,"69":-0.048112696458200835,"70":0.009494094777356259,"71":0.019469324480166,"72":-0.06292456576185745,"73":0.01267540929891989,"74":0.09484444445046815,"75":-0.2690244372292132,"76":-0.15343393544867037,"77":-0.11553804290980123,"78":-0.3361246121683118,"79":-0.17195730619287058,"80":-0.14712408049039571,"81":-0.41260276410974694,"82":-0.2559849991232038,"83":-0.2565566656108304,"84":-0.5741031561549256,"85":-0.41818184954013626,"86":-0.3342985072574397,"87":-0.29235484434862985,"88":-0.25691812173018075,"89":-0.284605794074876,"90":0.2677890748246722,"91":0.0537503937730013,"92":-0.03844620239277656,"93":0.2529146464163717,"94":-0.07073272468083978,"95":-0.16686717830176082,"96":0.17941866070799498,"97":-0.07922933378902627,"98":-0.14945396237822642,"99":-0.24102458133446447,"100":-0.2292393371395863,"101":-0.14948230919726577,"102":-0.21719861819897765,"103":-0.1697478401376769,"104":-0.17400869644684824,"105":-0.19995470653073383,"106":-0.13143705847130271,"107":-0.18786447588725616,"108":-0.020638461045119197,"109":-0.001320990807649676,"110":-0.08002302717065522,"111":-0.3087723710103269,"112":-0.12012767972851758,"113":-0.3027803759142704,"114":-0.3782243800032821,"115":-0.283541194593286,"116":-0.2382283955092481,"117":-0.087271582920881,"118":-0.09047407810941341,"119":0.031896267187447834,"120":0.43644645550685235,"121":-0.06046751745024141,"122":-0.062009929490522614,"123":0.3331962453637413,"124":-0.00865349214618106,"125":-0.014789918688854896,"126":0.11850830657926725,"127":-0.05612880771691651,"128":-0.14462519210878047,"129":-0.17079682900746318,"130":-0.23783668673469904,"131":-0.3055553768089868,"132":-0.22225191108932374,"133":-0.04874413406260572,"134":-0.2600001467582729,"135":0.02560133838038467,"136":0.011440089055762033,"137":0.014979446093893282,"138":0.022001229730050694,"139":0.04226271301600654,"140":-0.07685792459361732,"141":0.11865432618855681,"142":0.13155090194845265,"143":0.14244370623013933,"144":0.30579051428961473,"145":0.1442980669112332,"146":0.18774017367755003,"147":0.21160252998681847,"148":0.20982227601882728,"149":0.10770215655564463,"150":0.2821676418404155,"151":0.03787616121060227,"152":-0.0027080595971933426,"153":0.18517202616996775,"154":-0.06717352567223338,"155":-0.0948855036038025,"156":-0.06809853509883443,"157":-0.2426524369157128,"158":-0.29661064694662537,"159":-0.3438251004592027,"160":-0.44941539974444805,"161":-0.46402687353986205,"162":-0.09217307996739144,"163":-0.19824378740912188,"164":-0.06954203652187613,"165":0.2745890627095299,"166":0.06721183595797224,"167":0.08371508467571015,"168":0.3061019618566151,"169":0.04669223327888016,"170":0.11033626155344221,"171":0.14761346325315852,"172":0.027112812757463925,"173":-0.1428518266094494,"174":0.19727569934764297,"175":0.008860934448800959,"176":-0.10976425851865153,"177":0.4121209683639978,"178":0.12089991029818735,"179":-0.07876570004373937,"180":0.25825891734060885,"181":0.07908779177918106,"182":-0.07935235018460329,"183":0.08186993687092688,"184":-0.05559949669650839,"185":-0.15524806197821742,"186":-0.10860685782967525,"187":-0.35508954384107455,"188":-0.23777868644755168,"189":-0.22595804065828554,"190":-0.33567449068825667,"191":-0.2508082639492007,"192":-0.14216862990382764,"193":-0.13152911655783087,"194":-0.1890681191790796,"195":0.1108429245452717,"196":-0.05115798145138767,"197":-0.04069713728980945,"198":0.10136417439675671,"199":0.1475230512264289,"200":0.13329549438725494,"201":-0.052242324820718646,"202":-0.12737463977268898,"203":-0.018765646042928196,"204":0.1096866410645747,"205":0.0012154540795462946,"206":-0.08868269572566682,"207":0.230973706398182,"208":0.1869419391874189,"209":0.06377140297630673,"210":0.2106019572031268,"211":-0.01827876753109183,"212":0.12723215477209643,"213":-0.08303408906970285,"214":-0.25571216010759734,"215":-0.2234795252646363,"216":-0.10890252518118071,"217":0.11662951939880228,"218":0.1040094860222239,"219":-0.0595966321226735,"220":-0.050646598333374794,"221":0.04285681027452785,"222":0.060517503642830144,"223":0.06926024537385661,"224":0.11621493706864197,"225":-0.009299118924702659,"226":-0.03436336955772448,"227":-0.13696646450718938,"228":0.16085500355294144,"229":0.07436288699798008,"230":0.1846034578569374,"231":0.0631375595044348,"232":-0.035713328035453615,"233":0.08864404668549669,"234":0.1744835042167732,"235":0.005603060169494156,"236":-0.030573911942732627,"237":0.2718534080000872,"238":0.12270520515906738,"239":0.16600308313100065,"240":0.18307715173345063,"241":0.013464016739797562,"242":0.1225807548288374,"243":-0.0869244950694331,"244":-0.11807975080162567,"245":0.007562557976022974,"246":0.16802205203497203,"247":0.10815835762600177,"248":0.306525995389766,"249":-0.039961217208132845,"250":-0.030773296173271344,"251":0.2238836302018649,"252":0.11479582172276608,"253":0.1614890910353846,"254":0.25971863762714714,"255":-0.003623713922749757,"256":-0.013139896220632944,"257":0.06592104296193953,"258":-0.053256581268921764,"259":0.10413213064939156,"260":0.26762506596437174,"261":0.16922038584039495,"262":0.20715670839352832,"263":0.34819380860491816,"264":0.26992812553100576,"265":0.10654525659404479,"266":0.16881756687056446,"267":0.317465157748437,"268":-0.005669459391296846,"269":0.2694462004326816,"270":-0.034035746437968584,"271":-0.11801558051896052,"272":-0.1021676848525518,"273":-0.0467810631862691,"274":-0.1235007219315384,"275":-0.1047785277641762,"276":0.07980334358550503,"277":0.17592388902650027,"278":0.27347249730039447,"279":-0.30369100986369807,"280":0.06819708447528311,"281":0.2348870810031507,"282":0.007825018056912074,"283":0.1374927932932636,"284":0.328671419652119,"285":0.07608165832108763,"286":0.10669535604867053,"287":0.325536734118633,"288":-0.09840631483167082,"289":0.07389741650185894,"290":0.19280785391479263,"291":0.09717378137328012,"292":0.12351855262055964,"293":0.21494209376487386,"294":0.27794578010287274,"295":0.1169236945737356,"296":0.4532877204010077,"297":0.39732306575579146,"298":0.19022700090870245,"299":0.4221657515835933}},{"sx":10,"sy":10,"depth":3,"w":{"0":0.12636786846145648,"1":0.05331262521555536,"2":-0.049205981052247265,"3":0.18279608836293043,"4":-0.010372303203154933,"5":0.09404172470939877,"6":0.04040826094554094,"7":-0.04151210077199754,"8":0.08341150943745632,"9":-0.05072593573841655,"10":-0.1415464273427505,"11":-0.035766888813687135,"12":-0.008956383373525502,"13":-0.03838526498086384,"14":0.17291098375993258,"15":0.11402677722856974,"16":-0.16718146432592204,"17":0.1467133033622442,"18":0.13155057427388958,"19":-0.02482999116400189,"20":0.1599493891000149,"21":-0.09289733063708408,"22":-0.04394873037181318,"23":0.010298234475760214,"24":-0.05895360262811873,"25":-0.20434992426472243,"26":-0.17271928573101628,"27":0.04963346364146831,"28":-0.20342522964610055,"29":-0.21839161936413812,"30":0.05645183738887154,"31":-0.039420062368076964,"32":-0.04869613685599918,"33":-0.07153902295866947,"34":-0.07470665940137713,"35":-0.13924536602167503,"36":-0.2580142472475911,"37":-0.3493950759164638,"38":-0.2552528828619334,"39":0.005454816148075651,"40":-0.1264779593548161,"41":-0.16592980601274598,"42":0.014683386091344217,"43":-0.07064693186695904,"44":0.013406708665488473,"45":0.07229950318627507,"46":-0.15381250449061004,"47":0.15661776086054766,"48":0.37157500935983356,"49":0.18951125006229808,"50":0.11450983108733576,"51":0.14326988014847788,"52":-0.022109230785013638,"53":-0.04131247354777667,"54":0.18424909105198015,"55":-0.159610382724914,"56":-0.08847641672785425,"57":-0.03567015941677613,"58":-0.09097075847161588,"59":-0.16592959579953015,"60":-0.18947731076139201,"61":-0.07416061683543215,"62":-0.10014251091327814,"63":-0.03417967091902778,"64":0.0925245409269873,"65":0.1251668659601076,"66":0.1379525980651695,"67":0.07288310764781562,"68":0.15484977376703765,"69":0.1252216571836103,"70":0.10531410538469071,"71":-0.000021444981115804762,"72":0.03759167371762085,"73":0.0225321038799226,"74":0.18442275318047222,"75":0.26684765203562116,"76":0.15555283830605782,"77":0.15698667429241883,"78":0.31361991547716206,"79":0.1423165524187498,"80":0.2511704962261575,"81":0.25724937624405486,"82":0.003926761075434,"83":0.02755387386191775,"84":0.2546608695443971,"85":-0.09133125112729829,"86":-0.07709093935023781,"87":0.15597394150675623,"88":-0.12402285841054644,"89":-0.1741408948711757,"90":-0.11393390657035604,"91":0.039066023697204404,"92":-0.027644850463208578,"93":-0.08400808034855123,"94":-0.03892681414598062,"95":0.04534569008970859,"96":-0.06050400246469788,"97":0.04938606130249987,"98":0.1364502950810487,"99":-0.06418482157710811,"100":-0.11660514968683527,"101":-0.10267875769993703,"102":-0.0695461403839901,"103":-0.1143763853143544,"104":-0.11764897947356415,"105":0.2301634388590304,"106":-0.006170811832166859,"107":0.005778670758047408,"108":0.18566965188526893,"109":-0.03981017287221361,"110":0.08610786228879237,"111":0.32021999838216886,"112":0.11911428199844133,"113":0.1043791106760682,"114":0.27586072599799727,"115":0.2031809945365671,"116":-0.008614137933885239,"117":0.29189990695507434,"118":-0.0644969024680265,"119":-0.06741733017890233,"120":-0.05378941069265687,"121":0.006866976141840468,"122":-0.19435386229784937,"123":0.024878741643385723,"124":0.043743043506726594,"125":-0.17051951148764313,"126":0.12729206890936323,"127":0.0004917017961369648,"128":0.01662566003409442,"129":0.07100608912372174,"130":-0.08527029775300875,"131":0.045731565905534274,"132":-0.021180492737800937,"133":-0.0992828449731126,"134":-0.05085812269793381,"135":0.17145629209592536,"136":-0.07138080147750221,"137":-0.057934207698553813,"138":0.525380189412543,"139":0.0389840050969491,"140":0.11256592452693374,"141":0.3200000528580404,"142":-0.015282932180402687,"143":0.12978175157648394,"144":0.1763679335058128,"145":-0.1268696086561704,"146":-0.158862734834125,"147":0.153372599727027,"148":-0.07941937770676077,"149":-0.1387906847579182,"150":0.10326082100152749,"151":0.04400500747420869,"152":-0.123892858338646,"153":0.168467006035182,"154":0.05151531440674102,"155":0.04019372265425836,"156":0.1953243397079569,"157":0.30632496264680964,"158":0.11758158356236238,"159":0.2047568342644132,"160":0.06366345728120246,"161":0.020388997389710343,"162":0.18388038412266916,"163":-0.1099203474481484,"164":-0.10291543219205153,"165":0.35675644094311515,"166":0.008886740131385493,"167":0.08971249837075007,"168":0.3573776776375587,"169":0.12198651582709014,"170":0.11249209352599593,"171":0.21433751289003902,"172":0.05219735690728639,"173":-0.002269902975361797,"174":0.39909938962175123,"175":0.016020579698099717,"176":0.174564446351409,"177":0.38753453286998685,"178":0.25292703411418704,"179":0.19110781372149435,"180":0.2795684451524392,"181":0.21977098427442907,"182":0.01788861131124995,"183":0.6775613791731825,"184":0.5155576946713297,"185":0.39855844231381227,"186":0.43845684846930205,"187":0.5387459126351791,"188":0.30341402092534986,"189":0.20722345583333796,"190":0.09911091043019626,"191":0.04813059942659253,"192":-0.013468551656806396,"193":-0.10290144368681371,"194":-0.23763338377662627,"195":-0.3629070811623399,"196":-0.37897222508564293,"197":-0.2894279744596091,"198":-0.15565587046505594,"199":-0.37324710556661644,"200":-0.398956001217476,"201":-0.17726846956380765,"202":-0.2842731106913164,"203":-0.2268790689897988,"204":-0.12575173143629567,"205":-0.1008878337891437,"206":-0.14689248929633808,"207":-0.00010180239972012905,"208":0.011531895195026438,"209":-0.014260424286858739,"210":0.1539606007723304,"211":0.15515386035391393,"212":-0.07715857922398517,"213":0.2512528475153173,"214":0.20459165913551627,"215":0.20900052473746603,"216":0.2912400982022554,"217":0.2892156725290232,"218":0.2698808367835568,"219":-0.005491523376694193,"220":0.07251422320921223,"221":0.15231874166247583,"222":-0.4140266747200213,"223":-0.32431631114768616,"224":-0.3595587349683003,"225":-0.7023850052673485,"226":-0.6290489444893447,"227":-0.5677714705117188,"228":-0.7691387654985735,"229":-0.4993742705591669,"230":-0.43018013986076425,"231":-0.7360661650972172,"232":-0.5795054025515927,"233":-0.47693922271562583,"234":-0.6536593863438538,"235":-0.34115206009089855,"236":-0.22562236455315685,"237":-0.5278141654880272,"238":-0.2972095105048073,"239":-0.2569486641406272,"240":0.33482993829936447,"241":0.30895244219962326,"242":0.08113310379062418,"243":0.2607297279513283,"244":0.21269772482068383,"245":0.07524397063120504,"246":0.577301018003761,"247":0.3882939737943652,"248":0.4301950015138807,"249":-0.21537842783098876,"250":0.008359150718961138,"251":-0.02799495618833641,"252":-0.45388220353262704,"253":-0.10221866622464096,"254":-0.19077338076924744,"255":-0.6574979568756458,"256":-0.4994084866243223,"257":-0.34541856290425527,"258":-0.6071612009883773,"259":-0.3245728454947918,"260":-0.22861380631737824,"261":-0.5491831890670835,"262":-0.23489618184693165,"263":-0.4194959138130013,"264":-0.6406137346428937,"265":-0.09584449802248786,"266":-0.15797052777704973,"267":-0.48226078668440325,"268":-0.20584800946648105,"269":-0.1583106781398508,"270":0.2308835192852625,"271":0.297745716954823,"272":-0.0489898287655926,"273":0.14804405952194452,"274":0.23876589394163505,"275":0.07299015620549928,"276":0.5772274037212538,"277":0.6530560068806583,"278":0.5314837500236862,"279":0.06928935473474465,"280":0.11822981228675879,"281":0.1499410965528783,"282":-0.36531619942707844,"283":-0.17515365956116763,"284":-0.059142861946280934,"285":-0.40079122761054137,"286":-0.1796127672546198,"287":-0.02595394582275054,"288":-0.15386656558544481,"289":-0.03977368611694199,"290":0.1062188147653099,"291":-0.03145779401154142,"292":0.0640576109676471,"293":0.15578325395000336,"294":-0.22631161577070444,"295":0.043066304414646865,"296":0.044496747215448586,"297":-0.42784639797326596,"298":-0.0682197388170247,"299":-0.23368438060719343}},{"sx":10,"sy":10,"depth":3,"w":{"0":0.14841850920516625,"1":-0.051962851272817516,"2":-0.06139850033454686,"3":0.07458769707386345,"4":0.058363917075470555,"5":-0.08642020063688192,"6":0.12774826411326087,"7":0.14804362154437326,"8":0.041776056273779595,"9":0.23206576406904134,"10":0.12737027321011316,"11":0.15283464388218698,"12":0.181427172769003,"13":0.06263411698244797,"14":0.002317860614141393,"15":0.06094362994757202,"16":-0.17321835628805618,"17":-0.12232180661882437,"18":-0.10525844228099639,"19":-0.21215172046912864,"20":-0.07020857973225775,"21":0.07632225921279034,"22":0.012245488431533532,"23":0.008105276853405322,"24":-0.0025184158395531453,"25":-0.08646790411558371,"26":-0.11562921447766399,"27":0.08507833588766735,"28":-0.03537597534688295,"29":-0.0804553344130136,"30":-0.0032759401901758037,"31":-0.1256900934389429,"32":-0.239729948545218,"33":0.2260754582569234,"34":-0.15833538265328875,"35":-0.10557962478579652,"36":0.1098522767651756,"37":0.01163895864121695,"38":-0.0035086311871089263,"39":0.19520960569870072,"40":0.1511193896525061,"41":0.1239453331423663,"42":-0.04419333059820683,"43":0.0021328756462366556,"44":0.03210080448279705,"45":0.13885943669850834,"46":-0.01682630451770976,"47":0.04536498573704233,"48":0.12712537628791978,"49":-0.08507054299756153,"50":-0.029207574635748544,"51":0.032799745851499106,"52":-0.039743840571508454,"53":0.029254757086795685,"54":0.17085902980748036,"55":0.12754387595401762,"56":0.09964464925341518,"57":0.2679635561231858,"58":-0.01476339286787274,"59":-0.012369291132092569,"60":0.02502515685571864,"61":-0.04824616694877419,"62":-0.21807737596428456,"63":0.0017238721892293527,"64":-0.156803721736134,"65":-0.07505275234648451,"66":-0.10291348334711745,"67":-0.09280764990768253,"68":-0.10434121798293504,"69":0.0021845014997626264,"70":0.013704886233666193,"71":-0.038639679266648304,"72":-0.07270879312712522,"73":-0.13099709841598317,"74":-0.14995467446689453,"75":-0.12150836509072083,"76":-0.1680062870800594,"77":-0.17255555489485938,"78":0.020862455643649348,"79":-0.07729700087885262,"80":-0.1058530746714285,"81":-0.19132685365573449,"82":-0.2218507127848744,"83":-0.16927870186498314,"84":0.20562355574079832,"85":0.06599874014197572,"86":0.14445254258328136,"87":0.29098962579486315,"88":0.12889191504558276,"89":0.0784278146384788,"90":0.18683086310450364,"91":-0.03234228206587144,"92":-0.040158077241650575,"93":0.09654405874009789,"94":0.05579140986776047,"95":0.017263160804447404,"96":0.13477081454537296,"97":-0.04482995546145682,"98":0.006513505870265855,"99":-0.06803483420238099,"100":-0.11574762135558637,"101":0.007269733430601807,"102":-0.042014633859799054,"103":-0.12244125047048429,"104":-0.147028059619935,"105":-0.09655504637300398,"106":-0.12045144758436672,"107":-0.09961350413180257,"108":-0.3795411737184693,"109":-0.2943754489273601,"110":-0.23294978077750764,"111":-0.6816812293009608,"112":-0.4627184028047822,"113":-0.36005294461898474,"114":-0.21621537204409347,"115":-0.3358494117107085,"116":-0.0713728913019106,"117":-0.20787768313714677,"118":-0.09341928999737237,"119":-0.04685627009335026,"120":-0.035394641975852,"121":-0.13217951225107488,"122":-0.20465713704418037,"123":0.18249841694497929,"124":0.1260373142781249,"125":0.16695327241265517,"126":0.20201663440095557,"127":0.125583270259855,"128":0.21087238726456362,"129":-0.0662157205265363,"130":0.037693675678594336,"131":0.016858904923842476,"132":-0.12086199543080009,"133":0.06920936785898572,"134":0.006801541411189955,"135":-0.2944725365212508,"136":-0.23019564835863593,"137":-0.09080972579639493,"138":-0.6308517253580374,"139":-0.3568228646772781,"140":-0.15658349128066723,"141":-0.6250867503146329,"142":-0.3408530752947731,"143":-0.24980173115283325,"144":-0.2694422251760613,"145":-0.10161307401377606,"146":0.12070872803604919,"147":-0.4267238687854633,"148":-0.22701832282824522,"149":-0.0681822123654344,"150":0.03151383819892419,"151":-0.09814561328310453,"152":-0.025473200239861157,"153":0.025868514432317323,"154":-0.055920926298322585,"155":-0.031205645011245654,"156":0.009677962752053432,"157":0.02990328394187204,"158":0.016964520698419628,"159":0.020425930851765507,"160":0.16488114578076654,"161":0.07372069116175693,"162":0.12046953175762343,"163":0.22360297196301374,"164":0.2398088875387448,"165":-0.1236791823933161,"166":-0.1280860310053923,"167":-0.019738228571946806,"168":-0.21630739775634544,"169":-0.15472071700647325,"170":0.09775085574533396,"171":-0.2807276477813069,"172":-0.13275239980249398,"173":-0.07358167026827013,"174":-0.3484294921291445,"175":-0.06543313195216467,"176":0.11265479972031472,"177":-0.33331162388820895,"178":-0.14057194946925303,"179":-0.020209646646754592,"180":0.08100584386936056,"181":-0.11345208374830494,"182":-0.14379516889986615,"183":0.05618795026476198,"184":0.07767236445647806,"185":0.01801887533100922,"186":0.04190322983585213,"187":0.1557048929135175,"188":0.27735447763778,"189":0.19424244820938855,"190":0.3164647928785535,"191":0.15541805260428707,"192":0.17108440408085948,"193":0.2448402568369458,"194":0.2676295099240491,"195":-0.14577329760718913,"196":0.10261702801368515,"197":0.04627708405503618,"198":-0.19967839467346965,"199":-0.09951484114754304,"200":0.026646663833626197,"201":-0.1795559370342979,"202":-0.06481008501279029,"203":0.04130752038494744,"204":-0.2781504371005149,"205":-0.16106088356783738,"206":0.0570061588888914,"207":-0.2353635160493209,"208":-0.10357296394381901,"209":0.014707583748367453,"210":0.01917441912503524,"211":-0.11340544628368611,"212":-0.07984693093629666,"213":0.03454627740484911,"214":-0.1621559977081669,"215":-0.11220830148858398,"216":0.28070342630653117,"217":0.3569888817766086,"218":0.2898299276874256,"219":0.13515623529591453,"220":0.06574341973387586,"221":0.06487002669466496,"222":0.0851789735407323,"223":0.06330070089875968,"224":0.06436014080884037,"225":0.04896898362166328,"226":0.10782258734057466,"227":0.16850173289741613,"228":-0.025673954244354244,"229":-0.01520853712018416,"230":0.21102238339335228,"231":0.06587503068768108,"232":0.18846421641605052,"233":0.2045438952073145,"234":-0.07837590209236307,"235":0.2591612725118852,"236":0.2820062516788815,"237":-0.11759541533251065,"238":-0.007256282036752409,"239":0.19819093647633812,"240":-0.12368952188058428,"241":-0.04779021826533872,"242":0.056335507512471496,"243":-0.03174507396045794,"244":-0.008326651740329236,"245":-0.07462694773005947,"246":0.17018406667638727,"247":0.21716301996360957,"248":0.2679206917649512,"249":0.14143961243595496,"250":0.09531988047580199,"251":0.11379803732425688,"252":0.12288919745530326,"253":0.07823874619555153,"254":0.051584580154013605,"255":0.11731662568879664,"256":0.09899580349746394,"257":-0.004302896368076079,"258":-0.08552720020642514,"259":0.11053532900308621,"260":0.17840183563231632,"261":0.045749607962057265,"262":0.4026776196431837,"263":0.49613948237346556,"264":-0.023070792296218137,"265":0.09071456669291765,"266":0.3459603416091661,"267":-0.09811521868423631,"268":0.07656316415741295,"269":0.21128943148816226,"270":-0.004072818625685275,"271":0.043358782279387935,"272":0.10147711816052511,"273":0.04453723473989114,"274":-0.09540524802032058,"275":-0.06057728541074552,"276":0.2094047111804092,"277":0.23029995385144572,"278":0.13021806097793892,"279":0.20096142387968557,"280":0.30258270738504195,"281":0.26227362753644096,"282":0.04476278053100755,"283":0.2351199880445967,"284":0.12786531179533733,"285":-0.13017061061442123,"286":0.07419597949399503,"287":0.06338106778987977,"288":-0.15573028022043187,"289":0.13999130348711708,"290":0.12461416489582572,"291":0.14884887858185908,"292":0.2663730422745084,"293":0.3369548369808982,"294":0.046310371953980016,"295":0.2167118613485335,"296":0.2356631084126335,"297":-0.14183827993555972,"298":0.06188919373841284,"299":0.06240705012494887}}],"biases":{"sx":1,"sy":1,"depth":4,"w":{"0":0.2004546755576638,"1":0.3162358999952785,"2":-0.6010764612026125,"3":0.5677395431316179}}},{"out_depth":4,"out_sx":9,"out_sy":9,"layer_type":"relu"},{"out_depth":100,"out_sx":1,"out_sy":1,"layer_type":"fc","num_inputs":324,"l1_decay_mul":0,"l2_decay_mul":1,"filters":[{"sx":1,"sy":1,"depth":324,"w":{"0":-0.039874296567644414,"1":-0.04592611052467107,"2":0.010184810353919733,"3":-0.08492723652734392,"4":0.0004892924662714387,"5":-0.003027411260040335,"6":0.02676008861532765,"7":0.04947480752368366,"8":-0.05314568014124447,"9":-0.09393496260854658,"10":-0.004258907563268301,"11":-0.0920663144261526,"12":0.03636868827541535,"13":0.031601140350086564,"14":0.00875997143289044,"15":0.01699539876495117,"16":-0.06462310993110248,"17":-0.01016075324395713,"18":-0.0027709269629836238,"19":0.05146503211095914,"20":-0.07243624886638,"21":0.04979789441518877,"22":0.027585432167369278,"23":-0.004181068272680301,"24":-0.0682388148150195,"25":-0.04096991956484424,"26":0.004787304934251702,"27":-0.043631616201267466,"28":0.012923585363121578,"29":0.08667149894836378,"30":0.04842866238632877,"31":-0.06936765135326786,"32":-0.020869057501655797,"33":-0.05753338498549485,"34":0.06938161862651576,"35":-0.02231188413766304,"36":0.017931888871012804,"37":-0.026796938013348048,"38":-0.047437123576279945,"39":0.035077781205971714,"40":-0.0039071190431853526,"41":0.07495665771193052,"42":-0.04157956492516251,"43":0.02244723129554448,"44":0.15700982892023696,"45":-0.05450158597854985,"46":0.004395573504262432,"47":0.0052284680158479575,"48":-0.01428520773064274,"49":0.027469969579539052,"50":-0.010314400248443227,"51":-0.03650315226275787,"52":-0.034096035475344226,"53":0.07094762491896034,"54":-0.030922225955278035,"55":-0.07448812417134093,"56":0.009046602260924621,"57":0.05698645497791021,"58":-0.028106960741639164,"59":-0.04697006136928828,"60":0.0026984838115928283,"61":0.04302055360868916,"62":-0.04924582671106452,"63":0.006689825637124473,"64":-0.05588350007593869,"65":0.01641522248218106,"66":0.007784550476616172,"67":-0.021119203479415743,"68":-0.04157739464335189,"69":0.06325154475126843,"70":-0.04310255402738109,"71":-0.004771226430812102,"72":-0.10020872067677923,"73":-0.00013541652420908854,"74":-0.0495140296698787,"75":-0.016636345255748343,"76":-0.008908882042465118,"77":0.02091198723239123,"78":0.056048468283034204,"79":-0.0351408450641195,"80":-0.023076928081294985,"81":-0.04739213759748062,"82":-0.020584949270295354,"83":0.06818872850087852,"84":-0.058611246583224745,"85":0.0580480866059037,"86":-0.05641681899821111,"87":0.06855852702141495,"88":-0.08033153497191739,"89":0.020197454304588188,"90":0.06438630299675178,"91":-0.007167988492841499,"92":-0.012523462999411738,"93":-0.04249460872334919,"94":-0.074098623033891,"95":0.011658054385330277,"96":0.11210148525709021,"97":-0.06541472349313324,"98":-0.04307557755106738,"99":-0.055582455983473535,"100":0.022284584391895755,"101":0.025794992980661083,"102":-0.01227724785754581,"103":0.0019434133731450081,"104":-0.08172721625526728,"105":0.0830837255469808,"106":-0.028952683246531136,"107":-0.06313079994906183,"108":0.08298017373011364,"109":0.05046892158202667,"110":-0.15403024672560092,"111":0.08657351125313054,"112":-0.0076263689292810554,"113":0.014541343536983406,"114":-0.04328252776459134,"115":-0.03831864003276085,"116":0.00475645742451967,"117":0.15969404996650086,"118":-0.0800635477040284,"119":0.030711095844368905,"120":0.02067044775002495,"121":0.04526479377630384,"122":0.038947592683902,"123":-0.07179273499641387,"124":-0.10444599603420911,"125":-0.10609437997673848,"126":-0.003501323187143371,"127":0.009913004381268511,"128":-0.016322898201345838,"129":0.12562784687337614,"130":-0.060739584060349065,"131":-0.011278814140980399,"132":-0.0062119267025361755,"133":-0.15182686064406462,"134":0.0035620095404895876,"135":-0.06421431858305929,"136":0.06828352573023587,"137":0.06896485531476171,"138":-0.07019155800908117,"139":0.036521340972964965,"140":0.013083532547343561,"141":0.01333011128504299,"142":0.0030783756206993126,"143":-0.064815353817657,"144":0.0010112119740816358,"145":0.022392599499493272,"146":-0.04726635888454055,"147":0.04157401546875584,"148":-0.006321119837069294,"149":0.06689459708949506,"150":-0.04436505625430185,"151":0.12945996982085275,"152":-0.04792405096436415,"153":-0.17768973764828588,"154":-0.04272670425081983,"155":0.005489839927674191,"156":-0.10277952342603607,"157":-0.05545495794919754,"158":-0.03585090625957483,"159":0.03330105105329427,"160":-0.0027810898344229917,"161":0.04638944927749512,"162":0.033411496250945916,"163":-0.010702364122893238,"164":0.03153761669608819,"165":-0.004900530248798457,"166":0.07030080493569799,"167":-0.01597013596772584,"168":0.06162149511841113,"169":0.05933096531569786,"170":-0.02992116035011945,"171":-0.017084551770821712,"172":0.10374695380633045,"173":-0.032639349303432326,"174":-0.008387315511877744,"175":-0.09955658183434087,"176":0.014453012984244788,"177":-0.0033231576732088873,"178":-0.002741349479573198,"179":-0.04782047902577324,"180":-0.02124532724906374,"181":0.0011055540731125884,"182":0.05571964426908358,"183":-0.025887382493049924,"184":-0.060478202411302556,"185":0.029633914401252986,"186":0.012937200375902062,"187":-0.08696848212577159,"188":0.020131865819143734,"189":0.009187493288231272,"190":0.05732004776500222,"191":0.0027523186816944046,"192":-0.10884332387839851,"193":0.030778887116794416,"194":-0.03301749911160254,"195":0.06405169191303871,"196":-0.11917042637501511,"197":-0.1318616225628147,"198":-0.0540725806658848,"199":-0.024989063714466613,"200":-0.004011645573891546,"201":-0.08954425204336212,"202":0.09247734853400233,"203":0.015320078882789662,"204":0.043654198127744445,"205":0.042112213152106615,"206":-0.003899887872035418,"207":0.09069860790252872,"208":0.00292635121733385,"209":-0.03511036417485241,"210":0.05418498681252643,"211":-0.10279544084297675,"212":-0.025186774056370875,"213":0.017733414586144684,"214":-0.10349825347842666,"215":0.01552056827368764,"216":-0.007402362628140977,"217":-0.001746405759261326,"218":-0.022425867262817402,"219":-0.006376036441513968,"220":-0.022962509928606736,"221":-0.02201688731380338,"222":-0.07760553389768797,"223":-0.012100586768070964,"224":-0.00569439674810325,"225":-0.08270227519021571,"226":-0.008267456652897673,"227":-0.018891392197253415,"228":0.10821151025028215,"229":-0.005019662955616505,"230":0.041967618676484346,"231":-0.009326277299272143,"232":-0.037501386161281035,"233":-0.0274503663769551,"234":0.011395871810911744,"235":-0.0237524446672736,"236":0.03605686436093564,"237":-0.08376344294875321,"238":0.05230741370961913,"239":-0.008783685882637064,"240":0.06121162521338513,"241":-0.05656120482582701,"242":0.10906896812436798,"243":0.002081569090271502,"244":0.011884919882660504,"245":-0.07250070070154098,"246":-0.08838028544605889,"247":0.011274712873260009,"248":0.04490218813719858,"249":-0.041525346971282934,"250":-0.025810902613472568,"251":-0.024424221087239142,"252":-0.010323948258523728,"253":-0.013486349192386409,"254":0.028893703979511888,"255":0.025587501186571743,"256":-0.049188802662124345,"257":0.03233648205506487,"258":0.0013329755551881486,"259":0.04784926974413974,"260":0.03745038039899822,"261":-0.07102387481526141,"262":0.010435255734204977,"263":0.06254673847715184,"264":0.07468609213586908,"265":-0.06333546936161587,"266":0.04951068949014676,"267":-0.020849057484503154,"268":0.011183417295007901,"269":0.02278485912279146,"270":0.04555577679838639,"271":-0.05963334820772681,"272":0.03884626709197737,"273":0.07582069487787416,"274":-0.08926659522377221,"275":0.043145846675259704,"276":0.025449095379528885,"277":-0.02230746186756659,"278":-0.025948440840644803,"279":-0.056706135428805,"280":0.02253128671972833,"281":-0.01938493449700826,"282":-0.09582939283031236,"283":-0.013167337166828063,"284":0.061278592138334996,"285":-0.0052537945332598625,"286":-0.0010546606976036153,"287":-0.044035564167999475,"288":0.04027887710207519,"289":0.0019092688671438944,"290":-0.09655349112888757,"291":0.018595720621879027,"292":0.04230582196011851,"293":0.0009117629636963627,"294":-0.018311152310453216,"295":-0.02823876896075312,"296":0.06535253122141561,"297":0.03911994943110195,"298":-0.06870666686657101,"299":-0.028373071108385727,"300":-0.030529937820438023,"301":-0.07919297914817498,"302":0.019918070096709435,"303":-0.048459779782129946,"304":-0.034008696569304435,"305":0.07566951964740787,"306":-0.028007888394475215,"307":-0.07009030802625157,"308":0.01972769242457042,"309":-0.04323069393459173,"310":0.07945817179827964,"311":0.020708096527950054,"312":-0.0343715362101896,"313":-0.03753921161593419,"314":0.04865089152012592,"315":0.04840366831353384,"316":-0.019679046245383393,"317":-0.02693562153422124,"318":-0.09354484820803911,"319":0.04280538894318565,"320":0.11294339445432812,"321":0.10138601820751571,"322":-0.019527881379185544,"323":-0.07548717127197574}},{"sx":1,"sy":1,"depth":324,"w":{"0":-0.16465405541174846,"1":0.10689414798924544,"2":-0.05615108213523121,"3":-0.02790253348531028,"4":0.03827283667342376,"5":0.03743916600886745,"6":0.10607857751614463,"7":0.01612920185788912,"8":0.016832473348672022,"9":-0.052844074538206595,"10":-0.013140951251721478,"11":0.030371278271662576,"12":-0.10173022993938244,"13":0.02839248781345645,"14":0.07386782401698928,"15":0.07656208057313442,"16":-0.2575011137478694,"17":-0.059545366590721654,"18":-0.018466854927672232,"19":0.176257009753001,"20":-0.04291827138303189,"21":0.08853239093289415,"22":-0.012886095675090555,"23":0.11318306242351256,"24":-0.10190320269060232,"25":-0.03411714337978477,"26":0.01239525374315978,"27":-0.04694754192749406,"28":-0.06690600587048061,"29":0.04791003363710568,"30":0.019928522853297496,"31":0.06091155975104407,"32":0.08309731564533959,"33":-0.03767762430164558,"34":-0.0198468377309427,"35":-0.0346094549838703,"36":0.023231328885399034,"37":0.1085849373309839,"38":-0.11409033254739458,"39":-0.01353797172806687,"40":0.14866560620687075,"41":0.05160387979752287,"42":-0.04581915218674584,"43":-0.001869087883443444,"44":0.01638882469505039,"45":-0.09226311979839062,"46":-0.03458160703318124,"47":0.047894621400448104,"48":0.024239936914224217,"49":0.0033512843557140575,"50":-0.038776429186391584,"51":-0.07816370520348725,"52":-0.055048423088565744,"53":-0.004497036586068719,"54":0.02065174879371649,"55":-0.030043539136151175,"56":-0.12480270040843167,"57":0.04449127584685599,"58":0.04822881032323944,"59":0.059367012975458724,"60":0.15943683254161617,"61":-0.13577016530726993,"62":0.0035917685930178856,"63":0.045804803129903635,"64":0.14273579234970132,"65":0.036964117344993386,"66":0.00341314158590592,"67":-0.020849976646673627,"68":0.07172644841366702,"69":0.05407599937052372,"70":0.03455212962502791,"71":0.04446677601779234,"72":-0.012848065411314984,"73":-0.06656277185461569,"74":-0.0006330168529184593,"75":0.039131685162659226,"76":0.17715222830175764,"77":-0.0045396413997717275,"78":0.01849006491972447,"79":0.0358238113739375,"80":-0.004170608501500673,"81":-0.053907262046085654,"82":-0.06857574146908983,"83":0.055144290340288386,"84":-0.10060450133241251,"85":0.006800905563520801,"86":-0.05389144412010898,"87":-0.047363227706642606,"88":-0.05989976945446476,"89":0.0533601433534474,"90":0.012185688014335014,"91":-0.05293620210962632,"92":-0.090036628674117,"93":0.06791187488641644,"94":-0.052989734816012504,"95":0.044842821273431366,"96":-0.017775905744677543,"97":0.05131777078652809,"98":0.1611503448130114,"99":0.049017189266791786,"100":0.06670523746590426,"101":-0.07211498199185995,"102":-0.020879672264694185,"103":0.09716421031692027,"104":-0.10340876398878454,"105":-0.03944915772024533,"106":0.044125275832593173,"107":0.0332416000727766,"108":0.08724209987408059,"109":-0.16996468472033707,"110":-0.04148624323325322,"111":0.011229242761515516,"112":0.13692810444952747,"113":-0.07281877306744222,"114":0.11827637876325046,"115":0.04459424728998162,"116":-0.04994510204159506,"117":0.008278896641621574,"118":-0.06537948569617971,"119":-0.02348519373686886,"120":-0.14445992406756344,"121":-0.0971155266317164,"122":-0.007823006589207279,"123":-0.06490233753280236,"124":0.030553929969268166,"125":0.028192901726173527,"126":-0.088359061316441,"127":0.09663730008452716,"128":-0.1139042194361193,"129":0.037615080844808774,"130":-0.0033698259584867573,"131":-0.11658459361711318,"132":0.05667026236453329,"133":-0.09366267089423551,"134":0.13013535202804444,"135":0.07633774258505985,"136":0.06347213382374302,"137":0.009657551212187379,"138":-0.20223268252588159,"139":-0.05605627420136945,"140":0.12824707966875895,"141":-0.04258409291429094,"142":0.04791812004218159,"143":0.04509866733893521,"144":0.1462764302949157,"145":-0.08313006082509727,"146":0.028372675428061576,"147":-0.02926364421941446,"148":0.1060152994445038,"149":0.01610787522406686,"150":0.04055713390567873,"151":0.10456080968166825,"152":0.04033787892429075,"153":0.011604261913945138,"154":0.048404066883989634,"155":0.08612263703525806,"156":0.030827658027532876,"157":0.12764069560983538,"158":-0.004697440441441387,"159":-0.016259311964866286,"160":-0.023358433843168543,"161":-0.01606622839060499,"162":0.08275695379287842,"163":0.01976410195290846,"164":-0.025090703170867756,"165":-0.009444136326653859,"166":-0.025961625967608856,"167":-0.023941529540775025,"168":-0.009782971010427712,"169":0.01137014441010308,"170":-0.06526099713003475,"171":-0.0707528688333055,"172":0.14699025844804323,"173":0.0696238107245759,"174":-0.05825367392529354,"175":0.06648493501721985,"176":0.19053389675857005,"177":0.0772696133102375,"178":0.12081621070929666,"179":0.1696227378165481,"180":-0.12893289217235776,"181":0.04987633223624852,"182":-0.0005153406720853252,"183":0.0485463135795995,"184":0.029613812617928982,"185":0.01317432093676494,"186":-0.11563915085698245,"187":0.038936566934299414,"188":-0.04323718710280279,"189":0.06455947792665265,"190":0.027139734428619288,"191":0.028680233824612038,"192":0.07698480528931775,"193":-0.066709309347417,"194":-0.06123459102871514,"195":-0.007900082482465499,"196":0.053903151163847536,"197":-0.08261679018354132,"198":-0.14869871186747574,"199":-0.05004670973199622,"200":0.04362341240191621,"201":0.006838942515362678,"202":0.12331979290743712,"203":0.036545927873512025,"204":-0.030214573752624405,"205":-0.09561624051999743,"206":0.1530254593517679,"207":-0.0370081336281349,"208":0.023181018022401287,"209":-0.12405506950575863,"210":-0.00128101974124884,"211":-0.11987070104019946,"212":0.03322331890215114,"213":-0.04195795510455274,"214":-0.019854753564713,"215":-0.06568195441951394,"216":-0.05096835061409019,"217":0.001846858737176717,"218":0.03663302017076467,"219":-0.0091584716309408,"220":0.012778148893394813,"221":0.021111919855716463,"222":-0.043569302711778515,"223":0.09359282344055499,"224":0.003401721623867691,"225":-0.07116424056428997,"226":0.08730031661857089,"227":0.0036904786317259303,"228":0.028794948840174042,"229":-0.004796451783796866,"230":0.11096862004534336,"231":-0.08173877887142816,"232":-0.0010265358660150185,"233":0.049553248486439105,"234":-0.040989579249370404,"235":0.055182725486214404,"236":-0.1060413328429105,"237":-0.04704022870960743,"238":0.12888724162716603,"239":0.007048979016054042,"240":-0.04430714157300724,"241":-0.15255437087264304,"242":0.08831791037154146,"243":-0.03386821976754109,"244":0.08008214967931737,"245":0.04563776135034053,"246":-0.15745214759792142,"247":-0.14425095628304765,"248":-0.06509057977012896,"249":-0.09852615988622501,"250":0.02438484214695904,"251":-0.005098016230210867,"252":-0.14871062039625263,"253":0.06535406023615713,"254":0.016119901185330843,"255":0.05692816622271525,"256":0.047809720841663204,"257":0.06614882524327377,"258":-0.01967947871896868,"259":0.04237008853744828,"260":-0.1251496002765775,"261":-0.06537774233375752,"262":-0.002044842607827504,"263":0.002015158931392244,"264":-0.04323951568699974,"265":0.02678855768602904,"266":-0.06116987380013378,"267":0.016025235075252164,"268":-0.15262810255705875,"269":-0.06588546874530928,"270":0.05104403460319844,"271":-0.10527386255898369,"272":-0.12756054967601183,"273":-0.01947262349088999,"274":-0.0572739577461142,"275":0.03927114463334226,"276":-0.052148876977315864,"277":0.0021264185406873037,"278":0.009603186677945522,"279":-0.06611500734648161,"280":0.08629774164800143,"281":0.04835390713218728,"282":-0.10450704558346857,"283":0.007673712587127106,"284":-0.0023394569049033477,"285":-0.0009004818947407867,"286":0.09641055262478243,"287":0.02544735352795736,"288":-0.06342593664874999,"289":-0.011739211626769793,"290":-0.1446235501199341,"291":-0.025652994971458173,"292":-0.049100651766132625,"293":-0.03582766844960415,"294":0.0844401847000144,"295":0.0689249689860101,"296":-0.02229184931093114,"297":-0.11693061827426754,"298":-0.02106770003330694,"299":-0.016108827590551555,"300":0.015716533484161865,"301":-0.0846815666015432,"302":0.022621982016278953,"303":-0.12289924890954454,"304":-0.0330761400075225,"305":-0.0373826873798215,"306":0.009444620242605343,"307":-0.08943191171848729,"308":0.1160506987128648,"309":0.008104132987107542,"310":-0.009432885461007056,"311":-0.03368534144086843,"312":-0.09121879647649571,"313":0.09267105590691291,"314":-0.02226228587098172,"315":0.022484536707252454,"316":-0.026976926043929417,"317":0.03402202983055743,"318":0.08438865364062954,"319":-0.07114002681595678,"320":0.0010985417541683688,"321":-0.006654115413388665,"322":0.04152341674572434,"323":-0.17677874267984536}},{"sx":1,"sy":1,"depth":324,"w":{"0":-0.003903411114123574,"1":-0.02822515964895365,"2":-0.10934981470590392,"3":0.07629035161996575,"4":0.2157738050645721,"5":0.015211400625940856,"6":-0.029739146637966715,"7":-0.04414677084722616,"8":0.12271726285055454,"9":-0.045846688383495295,"10":0.13239013614553824,"11":0.1148839088507542,"12":0.03249266409087097,"13":-0.03826396827047244,"14":-0.028695106243770918,"15":-0.044658718764149084,"16":-0.013102158314773753,"17":-0.007249427465672136,"18":0.010113212860588356,"19":-0.10449552845931954,"20":0.08678434261592596,"21":0.036701339467901176,"22":0.04899420755578887,"23":-0.1596131292109017,"24":0.10937745395812153,"25":-0.008166905551614995,"26":-0.07705679776667212,"27":0.013654735443378824,"28":-0.16324330022960148,"29":-0.04001613349487376,"30":-0.1126278667410833,"31":-0.2641315736341742,"32":-0.14165902719094045,"33":-0.02742308770040266,"34":0.006738171317482964,"35":-0.09331799467031954,"36":0.04594599959446008,"37":-0.04887619899110105,"38":-0.05302986045687929,"39":-0.03762612467375925,"40":-0.11076223478495091,"41":0.134659755249346,"42":-0.07503483834108139,"43":0.0229102070802724,"44":-0.053173863973576346,"45":0.12208349269435663,"46":-0.06255064449423227,"47":0.06722394110176606,"48":0.030112065627341332,"49":0.19080224371226434,"50":-0.06868898537717733,"51":-0.004023869153072601,"52":-0.09316608039789889,"53":0.06196586776991823,"54":-0.07572545509641902,"55":-0.036161580398118974,"56":-0.021247583643977982,"57":0.050030056895564036,"58":-0.26711853682868847,"59":0.02973120564885623,"60":0.15938742635416678,"61":0.07050392279890563,"62":-0.17966825176850054,"63":0.05175835410621614,"64":-0.026850476505851217,"65":-0.04420914378479916,"66":-0.016903602384350815,"67":0.007852894167064682,"68":-0.057146062811870096,"69":0.012020508853960525,"70":0.03708193312062239,"71":-0.1220862858591055,"72":0.007280900373687815,"73":0.03615845636405078,"74":0.09607514457582521,"75":-0.05610259583821345,"76":-0.1195801590337703,"77":-0.0783557838288551,"78":0.29626669204252326,"79":-0.14677053249706826,"80":0.1766541495360315,"81":-0.12312514428319069,"82":0.18933701731088137,"83":-0.030877641028034374,"84":0.03208472949848673,"85":-0.08142622557893636,"86":0.034432002164293714,"87":-0.03615703339288703,"88":-0.13600484989681688,"89":-0.004882672123105061,"90":0.05835772261223552,"91":-0.13446295419780568,"92":0.05661450529943636,"93":-0.10068793157046646,"94":-0.1667280689806158,"95":0.014070010206781254,"96":0.14197088310725248,"97":-0.008470854682446474,"98":0.09686233742261031,"99":-0.09923452433667194,"100":0.006440140107585385,"101":0.050985469431897204,"102":0.08740903141219276,"103":0.10342605038099642,"104":0.007726415676826608,"105":0.046332436430811634,"106":-0.07700701914796468,"107":-0.04269276290143402,"108":0.03701082349125286,"109":0.02215911648607235,"110":0.014231716693944971,"111":0.030739494561594704,"112":-0.044858387026955396,"113":0.04428275272650486,"114":-0.021305007268871388,"115":-0.008044532916039128,"116":-0.014028100949270607,"117":-0.018552290820217254,"118":-0.017950964153218795,"119":0.024521994328213115,"120":-0.10305095525967983,"121":0.011524582927957648,"122":-0.13202679151639674,"123":0.025296282576013067,"124":0.06073566526169527,"125":0.051639344220512605,"126":0.003750196236879695,"127":0.01861231605751793,"128":0.11457936625036999,"129":0.14222201748947602,"130":-0.043071732082377016,"131":-0.03074227293433574,"132":-0.0028308795674182744,"133":0.13545194472514724,"134":-0.021695368789322853,"135":0.17282377694654077,"136":0.15298101309847678,"137":-0.03262257574419703,"138":0.06857959313490694,"139":0.06002366178191846,"140":0.12381409559326335,"141":-0.02044191610514744,"142":0.18565005853442634,"143":0.003355101912932767,"144":0.09110400397833425,"145":-0.052572989365331564,"146":-0.13281161484027218,"147":-0.019336360939598826,"148":0.010580659517670373,"149":0.06758916263766258,"150":-0.00824325023187998,"151":-0.04907158655254937,"152":-0.09517147399638616,"153":0.11047857717641274,"154":0.029317592459661583,"155":-0.0834060714207083,"156":-0.11037431467646674,"157":-0.0208528908830011,"158":0.019578717110949186,"159":0.08410920268665,"160":0.09761571133106467,"161":0.1088378842582927,"162":-0.12528404504778784,"163":-0.029985202772673313,"164":-0.05174705223269696,"165":-0.15489339927029672,"166":-0.0812662109432985,"167":-0.1779507386210477,"168":-0.047358744035016456,"169":-0.16259592571592862,"170":0.1523942869429668,"171":0.06880653126343272,"172":-0.1336461712548735,"173":-0.0149493800295572,"174":-0.06472076187333729,"175":-0.011952852798805633,"176":-0.02903938685090109,"177":-0.1388088929945357,"178":0.03975900859270725,"179":-0.13825451601298544,"180":0.16258555571572816,"181":0.048174470303922495,"182":-0.18303647231236306,"183":0.03434626744053205,"184":0.053321294827043134,"185":0.09873161885073674,"186":0.020960207786535286,"187":0.0743344697385032,"188":-0.02609374537165684,"189":-0.10655778719391246,"190":-0.09571598479431445,"191":-0.02448992576240846,"192":0.01772882057331665,"193":-0.029235612322617406,"194":0.04775425682168321,"195":0.08096579139160383,"196":-0.11123165948674572,"197":-0.050276778446571614,"198":0.11865253796297967,"199":0.049154258797189467,"200":0.012505017424180415,"201":-0.08468511044770323,"202":0.005344381988734293,"203":-0.00996354603799518,"204":0.07583723837176284,"205":-0.12972174879141027,"206":-0.0157872902411939,"207":0.028810559094000213,"208":0.08633603313366461,"209":-0.05570221894018363,"210":0.022019917367061905,"211":0.08143819561874029,"212":0.03250320433957117,"213":0.036080071658901036,"214":-0.10628044829043447,"215":0.045671359340132694,"216":0.03854849982729657,"217":-0.012536463661101626,"218":-0.0850918245289123,"219":0.038958521047718415,"220":0.001165916408240305,"221":-0.06410136373053636,"222":0.016991427873373002,"223":-0.028776142596036336,"224":0.015664626513984464,"225":-0.03609921794118832,"226":-0.08361492563150554,"227":-0.04445463914618403,"228":-0.10289447476667267,"229":0.07968719322267288,"230":-0.05589111334100522,"231":0.0675403570491834,"232":0.14162964371050668,"233":0.03275680686527006,"234":-0.028585054144740652,"235":0.03658145333434832,"236":-0.07299573319580852,"237":-0.032323011883856875,"238":0.06072105589879176,"239":-0.06601450526910349,"240":-0.1066176738317217,"241":-0.04098650698931575,"242":0.11780601582999176,"243":-0.08619318908503,"244":0.13516734087116697,"245":0.05299732203926623,"246":-0.08709087710778016,"247":0.06247262136464385,"248":0.009080451080561667,"249":0.04124294760352374,"250":-0.15790958506941033,"251":0.10082551033862842,"252":-0.055030726019698994,"253":-0.13820967700073433,"254":-0.11696182882386565,"255":-0.005679975608600523,"256":0.14604410015172611,"257":0.11268363945618942,"258":-0.11224106367141905,"259":0.009338942167483122,"260":-0.05759780000414513,"261":-0.08760401644909756,"262":-0.15225141970353834,"263":-0.013092711635934564,"264":-0.03627089012022637,"265":-0.0976213533700232,"266":-0.02550701263249991,"267":0.10147660218087273,"268":0.0808256269411544,"269":0.04813191079985405,"270":-0.07540170653708224,"271":0.04025131473922822,"272":0.032424616742527314,"273":-0.050492478235420295,"274":0.014526949822497002,"275":-0.02286424610324991,"276":-0.054170137480783156,"277":-0.053560622957221124,"278":0.11552363637735817,"279":0.028229576209244173,"280":-0.0030977539263549983,"281":-0.16373297571641118,"282":0.20342727299454458,"283":-0.12876228498005537,"284":0.09193269422516956,"285":-0.06267838745068827,"286":0.18723351533012222,"287":-0.08612922541529722,"288":-0.13639125607313457,"289":0.0962444347624277,"290":0.13267763575977273,"291":0.1002486333238704,"292":0.0026055383211675866,"293":-0.015317871090290302,"294":0.02914111796875251,"295":0.0923808851462034,"296":-0.16609201925194184,"297":-0.024508348340632966,"298":0.0027419000788118804,"299":0.03406790757255717,"300":-0.09174440879534582,"301":-0.037376045797571554,"302":0.0622879399151001,"303":-0.0751440906663444,"304":-0.12708155426535675,"305":-0.11397160888672449,"306":0.09705021156646877,"307":0.04357089009177135,"308":-0.024771467635696934,"309":0.09962128589034552,"310":0.016830255106032085,"311":0.0730959726272202,"312":-0.062157554153767273,"313":0.018044664778974928,"314":-0.0690174667754362,"315":0.17248240810611343,"316":-0.19775622929378192,"317":0.014450137200872532,"318":-0.10467100969199855,"319":-0.03233973885176032,"320":-0.08520982103986002,"321":-0.11971446089108562,"322":0.12818760912101265,"323":0.21599472282272228}},{"sx":1,"sy":1,"depth":324,"w":{"0":-0.0213608825386731,"1":-0.01180542934072489,"2":0.00973735873586061,"3":-0.020538515971568735,"4":-0.019696655138496767,"5":-0.0436981058027236,"6":-0.012434851561776128,"7":0.007698758519225919,"8":-0.03457916188480552,"9":0.13883682850044082,"10":-0.03781429052775101,"11":0.04562548695521284,"12":-0.0005011742576341361,"13":0.035834221291954405,"14":-0.05434338120912143,"15":0.05002634860908648,"16":0.06844920323615207,"17":0.10202412545979414,"18":0.04483646993111611,"19":-0.001442680376094211,"20":0.03333504009163265,"21":-0.07942951924956088,"22":-0.03160907524381924,"23":-0.03348187665001226,"24":0.05713500167555138,"25":0.09149231284646145,"26":0.0065587862941749705,"27":-0.054376500666323255,"28":0.03366039848896928,"29":0.11569285901821923,"30":-0.09048375934089525,"31":0.03185148920576801,"32":0.04198435280232624,"33":0.043552668257828275,"34":0.01023270464641895,"35":0.0009339744107663752,"36":-0.025802712847202935,"37":-0.061133064917969625,"38":0.16876445206160173,"39":-0.01535115301258181,"40":0.06592699986664144,"41":0.03848048098985119,"42":0.02328774420878579,"43":-0.04627241698957006,"44":-0.047191656709879994,"45":-0.0357414372718298,"46":-0.009378238419109501,"47":0.08536269804780901,"48":-0.10127940625728107,"49":-0.008082486488103481,"50":0.06820340140076588,"51":-0.006508377366107077,"52":-0.13394831159335283,"53":-0.010145301902866987,"54":-0.04911012079977311,"55":0.07090272926842212,"56":0.040631692711742134,"57":0.006137670237813488,"58":-0.03711506720048252,"59":0.03265933783732771,"60":-0.0839368429217336,"61":0.0610508295408367,"62":-0.014449367134191824,"63":-0.027823364955294517,"64":0.07514142163781445,"65":-0.0010469401304964918,"66":-0.08205965050432215,"67":0.012418366936016235,"68":0.05802444285794099,"69":-0.13743724119170123,"70":0.016747769568447275,"71":0.03875323814568932,"72":-0.023384902379982843,"73":-0.025086483379639993,"74":-0.17116674839254278,"75":-0.1496909363458921,"76":0.017364234752966078,"77":0.012954012942547149,"78":-0.1903383773831299,"79":-0.025422970816368358,"80":0.11112102115610667,"81":0.029665313826099157,"82":-0.030145896374140523,"83":0.07244294784789981,"84":0.0007525723724098492,"85":-0.034801042423323415,"86":0.0505881754170516,"87":-0.08646553851898127,"88":0.025952671399768923,"89":-0.043208685136157325,"90":-0.014955112815274554,"91":-0.08967975150002684,"92":-0.04546838355195773,"93":0.07161891849783439,"94":0.09223087433083667,"95":0.02657257047163794,"96":0.0961699525017653,"97":0.061989056755940984,"98":0.09094733771068048,"99":0.00347305356409434,"100":0.1832660186546305,"101":-0.09607397939438159,"102":-0.12432132462343816,"103":-0.0012157311522842933,"104":0.06352209545080016,"105":0.11023906700768518,"106":-0.21348930987695083,"107":0.09084266674453487,"108":-0.08608422131511384,"109":0.08599747140777951,"110":-0.13557050146021535,"111":-0.05901205140558986,"112":0.14766180076122823,"113":-0.003793341671925434,"114":-0.07278855320638541,"115":-0.004134657212366885,"116":-0.10147978751324445,"117":0.023687734905086178,"118":0.13478630103968503,"119":0.03438390871073156,"120":0.02741765413444172,"121":-0.0579982413499296,"122":-0.0140629652119674,"123":0.026979668172639963,"124":0.08075275284763313,"125":-0.045826915061521416,"126":0.12411777961879104,"127":-0.11229892980374118,"128":-0.009782989497568948,"129":-0.17328778713325999,"130":0.01915875756241432,"131":-0.08968850522249215,"132":-0.06822028007973781,"133":0.12186007803688344,"134":-0.11456914847029717,"135":-0.09196014285122493,"136":-0.03429650760586249,"137":-0.020237872044209897,"138":-0.10982729209739378,"139":-0.03912960106333328,"140":0.019974614415558898,"141":0.13466063988874696,"142":-0.014812780594402601,"143":0.06369015939192772,"144":-0.11757882324045321,"145":0.015369089208860761,"146":-0.13415081362343478,"147":0.036408286683022935,"148":0.0897704250229745,"149":-0.017614172574073703,"150":-0.07103951652937623,"151":0.011457973356843886,"152":0.11170173136108238,"153":-0.030091394200721797,"154":0.03374124931644045,"155":0.023299704008805586,"156":-0.17766223748096405,"157":-0.05239865405158156,"158":0.10656799375751207,"159":0.08987340902266824,"160":-0.09453305766173398,"161":-0.04886963843405646,"162":0.12858532901938638,"163":-0.0970224929396768,"164":-0.14646885074425742,"165":-0.061802534411697,"166":-0.048854091338505545,"167":0.030590995383854867,"168":-0.0165494346304321,"169":-0.0111184013230402,"170":-0.10156646037136519,"171":0.02568729550673496,"172":0.09441969914027665,"173":-0.054355742938255354,"174":0.01021709410050713,"175":-0.04684202819108515,"176":0.0410919797045954,"177":0.0015552177671066814,"178":-0.05811971431849644,"179":0.061734193465475554,"180":-0.013864756099639027,"181":0.02540867500167722,"182":0.11811337602094456,"183":-0.043405565087565476,"184":0.1090285677815166,"185":-0.04919140605764574,"186":-0.09966478409492427,"187":0.004003030598183602,"188":-0.0866175928573712,"189":-0.04264158307902719,"190":0.08151875258630949,"191":-0.059061522462980055,"192":-0.13661881233621362,"193":-0.10465597521082953,"194":0.2124187209729587,"195":0.011083215393544102,"196":-0.08087999758185303,"197":0.09582509500039016,"198":0.07053538747346963,"199":-0.003955127426983668,"200":0.15611051605844112,"201":0.010431007433893195,"202":-0.11381760823935057,"203":0.04364168006316588,"204":0.0877584733479368,"205":-0.006472447427057911,"206":-0.02247337513133646,"207":-0.03561108845559963,"208":-0.010510225844553281,"209":-0.03960147228584999,"210":-0.007591434706188889,"211":-0.06850368623697452,"212":0.04923185400919322,"213":-0.04822519929498467,"214":-0.14760216271916754,"215":-0.043017698537670075,"216":-0.14441805502814836,"217":-0.08461670074282276,"218":0.12097080466436506,"219":0.03729504944832336,"220":-0.052414416282800025,"221":-0.0023886347081529453,"222":-0.065985946826584,"223":-0.024755494836503675,"224":-0.01355490371756283,"225":0.01999165681012861,"226":0.0879306991030485,"227":-0.056884671216041204,"228":-0.13425471188824764,"229":-0.04071472908688467,"230":0.09288878672382338,"231":0.08366204553556161,"232":0.12472789410727458,"233":-0.0029112417661867553,"234":0.1479692394370246,"235":-0.007984827550941744,"236":0.19167560390281949,"237":-0.12071978731796473,"238":-0.09387713241321512,"239":0.016451369645428024,"240":-0.022154798310775145,"241":-0.16455008839908797,"242":0.04247962462650855,"243":-0.06520952613008725,"244":-0.08899962912882875,"245":-0.13592890892303966,"246":-0.03760436551110931,"247":0.017189123196464148,"248":0.06442637234704768,"249":-0.060947726661754915,"250":0.13555662604464302,"251":-0.006771751790653533,"252":0.04249364607295771,"253":-0.04199165299953857,"254":-0.007704700422385959,"255":0.008889926817362856,"256":0.04440355038006567,"257":0.008835978673538612,"258":0.09874185655638963,"259":-0.10845789213120287,"260":0.028372701829786327,"261":0.0343581075982238,"262":0.01539288395914536,"263":-0.025914039065689697,"264":0.015448066379462583,"265":-0.11833804880903605,"266":-0.021466404238640976,"267":-0.047162493327866074,"268":-0.017772603685315982,"269":-0.02007882524437683,"270":-0.04924235242759291,"271":0.0751346575779102,"272":-0.007980997210654824,"273":-0.10796034397542227,"274":-0.044251007841066906,"275":0.014864492164428355,"276":0.18499485270667612,"277":0.13975923155358005,"278":-0.02171122019432181,"279":-0.07341769896808933,"280":-0.09304338717843104,"281":-0.01706767177082133,"282":0.03622284374522763,"283":-0.028428048993901982,"284":0.0468689815549084,"285":0.04315443462449176,"286":-0.045597721734728314,"287":-0.0669869099332838,"288":-0.06207031390844331,"289":0.006839588132375837,"290":-0.02412139841511119,"291":-0.10203756129364823,"292":-0.10964257820059624,"293":0.0032519621328287868,"294":-0.10956610200069986,"295":-0.08664146190667599,"296":0.04811546490507348,"297":-0.09417871888997857,"298":-0.0622205472005717,"299":-0.10349596095896889,"300":-0.02929675322551233,"301":0.08622997766241898,"302":0.009706856557028902,"303":0.05246426306263085,"304":0.08940361259952578,"305":-0.06757337696145077,"306":-0.014053194461501684,"307":0.010076184403059225,"308":0.14100516367869267,"309":-0.10864639257936544,"310":-0.04407819651060238,"311":-0.09392926588905118,"312":0.03890645965572314,"313":-0.02650331892573399,"314":-0.15939958190973022,"315":-0.0639401383709011,"316":-0.028505778654248495,"317":-0.0658664249671319,"318":-0.005473680878698115,"319":0.11561115525605052,"320":-0.02753067459858786,"321":0.07714022503456587,"322":-0.048874515988995774,"323":0.11679478372870877}},{"sx":1,"sy":1,"depth":324,"w":{"0":0.11681210323114168,"1":0.09587137716455979,"2":-0.03908116015428529,"3":0.03495174414081503,"4":0.08830681959372613,"5":-0.06887781074488807,"6":-0.15749043328877022,"7":-0.06915512444674894,"8":-0.002304748601700096,"9":-0.031004553460951885,"10":-0.0647302309142775,"11":-0.0011023727596207328,"12":-0.032200358766653794,"13":0.11735863019857905,"14":-0.058197927179482585,"15":0.0015803118782459441,"16":-0.11352972831313049,"17":0.0709336027388233,"18":-0.004391575423616176,"19":-0.11141029088826335,"20":-0.006359599886120937,"21":-0.014678545950235242,"22":-0.15222066628537956,"23":0.03617159220193544,"24":0.034444078068697696,"25":0.09075335420177394,"26":-0.021755901923983138,"27":-0.04079065595458888,"28":0.05003773940635869,"29":-0.16725844725795147,"30":-0.06058549946733832,"31":-0.08664500009668062,"32":-0.04438640949388919,"33":-0.051861529938261014,"34":0.02060915051102853,"35":0.1678393942645082,"36":0.07005355030309883,"37":-0.06519300651158938,"38":-0.10102383505999406,"39":0.02002535061267809,"40":-0.0873067352457715,"41":-0.04240281654501701,"42":0.030591537857429737,"43":-0.09081645115319764,"44":0.021048774762577806,"45":0.032871880493388426,"46":-0.08461875660435973,"47":0.07005015767885471,"48":-0.24680619576858123,"49":0.14815505287738928,"50":-0.13316643694049105,"51":0.15227954359864176,"52":-0.04448079540668722,"53":0.15952616462843833,"54":-0.15586944211536077,"55":-0.07554307564336941,"56":-0.07128717285356115,"57":-0.10640909800254811,"58":0.09332969218761672,"59":0.016666330609209898,"60":-0.05420837860792714,"61":-0.025956758537365836,"62":0.20613516994738287,"63":-0.01381982192217741,"64":-0.09161137216802773,"65":-0.1481817271476088,"66":0.10914946929481094,"67":-0.11755985607194241,"68":0.03826099743886658,"69":-0.04284837843834214,"70":0.07394864451866517,"71":0.07529956961352322,"72":0.04438231259425466,"73":-0.022310527379464682,"74":0.00010460626150150584,"75":0.037187105811235334,"76":-0.04489087995403291,"77":0.03347279721997311,"78":-0.1279081369856465,"79":0.011221414686170177,"80":-0.07485749779033174,"81":-0.053735695978034355,"82":-0.1472875977263094,"83":0.12262025480427007,"84":0.043292732075987383,"85":-0.11463232282932403,"86":-0.23647959800784688,"87":-0.091767242985386,"88":0.05131815264585375,"89":-0.09827001272521553,"90":-0.056971135420003316,"91":-0.09448226799900034,"92":-0.08892395629870954,"93":-0.012938220177708999,"94":0.12996885346236825,"95":0.04139460712263442,"96":-0.06121997633372594,"97":-0.02475254702233875,"98":-0.018785775082797076,"99":-0.06162971686230473,"100":-0.14080057433534024,"101":-0.020995431316578397,"102":-0.1473774619786515,"103":0.026442476897019947,"104":-0.20512819307255897,"105":0.0033915859003631962,"106":0.0731484190192217,"107":0.1022959678069299,"108":0.03599729441434452,"109":0.07218425058331031,"110":-0.012807483219772826,"111":0.01977412902189731,"112":-0.018140026333071796,"113":0.05808527746384293,"114":-0.07989327941767027,"115":-0.14766363096496968,"116":0.036949149722601535,"117":-0.17150923290740155,"118":-0.017332744847571885,"119":-0.06018691026533669,"120":-0.15070162108268567,"121":0.18857949792033402,"122":0.02981885358738537,"123":-0.0678804204663336,"124":-0.09595046344984859,"125":0.05392619485138491,"126":-0.0717746626720231,"127":-0.04282709058672365,"128":-0.10670992153938465,"129":0.09598306340789642,"130":0.1150137166850986,"131":-0.02806600160184693,"132":-0.1024977994304048,"133":0.153415135416987,"134":-0.12098268611817198,"135":-0.009260909642304147,"136":-0.052387796105936364,"137":0.036373901815479295,"138":0.04772577345986064,"139":-0.09494424435903595,"140":-0.01278330133411572,"141":-0.02059026257303384,"142":0.08162835390953296,"143":-0.060061117537498085,"144":0.05897025144971966,"145":0.03880719559611662,"146":0.15015434532379549,"147":0.10695480190307917,"148":0.1894367961115856,"149":0.005600400696548892,"150":-0.027122280837014213,"151":-0.02242613457856681,"152":-0.08326201663604348,"153":0.04241813782874158,"154":-0.13406334211991552,"155":0.1074455124331348,"156":-0.13120767984328813,"157":-0.03220788337903678,"158":-0.0143567868511134,"159":0.015664639764009846,"160":-0.004681960160843428,"161":0.11203936790938056,"162":-0.0344589250639068,"163":-0.05465955110015352,"164":-0.19353996596940737,"165":-0.10966451242841636,"166":0.024404427590483727,"167":-0.03054081076966466,"168":0.04564638851052216,"169":0.06915986957850126,"170":0.11217726740795993,"171":-0.014510299855371745,"172":-0.22425878106362998,"173":-0.11014663099686187,"174":-0.13040733202862895,"175":0.07573647390518133,"176":-0.15353130904619866,"177":-0.0002237407732662441,"178":-0.06189103061622781,"179":0.11359958677789021,"180":0.1785872712194762,"181":0.013529719782823725,"182":-0.040651110318540164,"183":0.09813653330699956,"184":0.16517317948048513,"185":0.059728615956481323,"186":-0.015753296779374253,"187":0.02177921656041103,"188":-0.2510595582122078,"189":0.09335456374787007,"190":-0.03475317362626667,"191":-0.004695430820227904,"192":-0.06038027406988132,"193":-0.003667589730458416,"194":0.018408899505636924,"195":0.08294710508515861,"196":-0.000548616667829564,"197":-0.09453263247946854,"198":0.12840989869210906,"199":-0.10935009844885459,"200":0.028372728223119526,"201":-0.08251097481968636,"202":0.026945393498067696,"203":0.06857981358087678,"204":0.01949794491278401,"205":-0.03134343413902903,"206":-0.07003508101895356,"207":-0.045674288842340864,"208":-0.015182854679040644,"209":0.286608414259872,"210":-0.25302496912280337,"211":0.08843633651135469,"212":-0.08813077727552575,"213":-0.03657691389193181,"214":-0.03206527721504898,"215":0.18367861161592033,"216":0.02635493601541938,"217":0.04751288439497312,"218":0.013690021643996922,"219":-0.006836514628281843,"220":-0.002178173978896671,"221":-0.08288244954628804,"222":0.12481886517358033,"223":0.0055291354205729065,"224":0.009760167730889285,"225":0.06122948249508895,"226":-0.05611902904877262,"227":-0.033455331517428494,"228":0.2284358381594031,"229":-0.08191438880449282,"230":-0.015410839163797855,"231":0.03289881397640662,"232":0.17373464436075906,"233":0.05103112345501412,"234":0.04611608654600621,"235":0.06062688119060626,"236":-0.009686809784207537,"237":0.09021969731506228,"238":-0.028347600721002283,"239":-0.0032868919494665042,"240":0.12308992725932465,"241":0.011827289294081252,"242":-0.04021100636066977,"243":-0.018242724319689513,"244":0.02849057394326643,"245":0.08452163402201686,"246":-0.09993132304462346,"247":0.005387434893477648,"248":-0.05771840227320404,"249":-0.0018053050518963376,"250":0.05158171979567694,"251":0.07758063954557014,"252":0.01968700073165971,"253":-0.0302049930049065,"254":-0.16416975149388,"255":0.04569232187315776,"256":0.04844071428011047,"257":-0.13497994174258776,"258":-0.1125397275670273,"259":0.08619500082068253,"260":-0.031074859211592136,"261":-0.03122396492547372,"262":-0.026926017023384777,"263":0.07606127302608195,"264":-0.08858066378421565,"265":0.14478911406545275,"266":-0.12693692128825054,"267":-0.009399355864035881,"268":-0.167405061644016,"269":0.15958858371437334,"270":-0.06648828052701874,"271":0.14812732779309695,"272":0.0520189521017779,"273":-0.04282475453318934,"274":-0.07228118098863794,"275":0.1028795945545551,"276":0.15742291684747495,"277":0.015214534192772071,"278":-0.05712242073440902,"279":0.05351335803520621,"280":-0.10876381888381953,"281":-0.15208617648608114,"282":0.08450049855395571,"283":-0.024585256491125234,"284":0.15588598609671162,"285":0.013006813431744509,"286":-0.17558905662495986,"287":-0.0031459165613256343,"288":0.1080794106102373,"289":-0.007397664627518373,"290":0.08036123460592196,"291":0.032582696062818856,"292":-0.28830201275848794,"293":0.029717630489484753,"294":0.01968243502662696,"295":-0.05077291047187959,"296":-0.23158966881586282,"297":0.056884136731931524,"298":-0.2656843015193034,"299":0.048403509461550386,"300":-0.023479954185252255,"301":0.0035249899072941626,"302":-0.0964129647469759,"303":-0.06688623504271284,"304":-0.06836660153217394,"305":-0.14395976188356502,"306":-0.0685061822966582,"307":0.11876019591932192,"308":-0.10813597039676255,"309":-0.024100872936088914,"310":-0.07137979103727649,"311":-0.017056831167586585,"312":0.0413994198484066,"313":-0.04340192214472085,"314":0.17533684494514515,"315":-0.005015207719397092,"316":0.09832333146559169,"317":-0.05499955188777229,"318":0.20548108099485388,"319":0.002419751270901223,"320":-0.06141220312290632,"321":-0.07161637433677176,"322":-0.02118539404697772,"323":0.05927070123522599}},{"sx":1,"sy":1,"depth":324,"w":{"0":-0.06594277435922047,"1":0.031110237371126535,"2":0.042516382289769186,"3":-0.049347262770326486,"4":-0.05740446840961633,"5":0.025229604600043087,"6":-0.03157760436737529,"7":0.026330970540714493,"8":0.03189851068024585,"9":0.07534979628624272,"10":-0.021155565097408215,"11":0.002068633626619809,"12":-0.03768942076938067,"13":0.02719890677249236,"14":-0.03486695833010795,"15":0.041947336807533125,"16":0.02431492264373993,"17":-0.02350529710501881,"18":0.05609874875091125,"19":0.00378202087760124,"20":-0.0963267137712682,"21":-0.07142367559015657,"22":-0.032117067069094694,"23":0.06581558786533125,"24":-0.03296374447215451,"25":0.03759903954007762,"26":-0.01087262691199878,"27":0.0782490852143198,"28":-0.012735797103018148,"29":-0.014986575974211457,"30":0.06592531162580013,"31":-0.031303184501243614,"32":0.08165980490833345,"33":0.02968601099068248,"34":-0.07481839991998152,"35":-0.030798849671971454,"36":-0.0008360006602711182,"37":0.013816022395574269,"38":0.058589452533709806,"39":-0.034576803512198745,"40":-0.013080791228795465,"41":-0.05498230318239739,"42":-0.008857277238235331,"43":-0.04033020428819422,"44":-0.07154117368925607,"45":0.007647527544482197,"46":-0.026008147182496253,"47":0.08377131462960487,"48":-0.052156589979693864,"49":0.00730752029453828,"50":-0.06542552407334074,"51":-0.012693640202437411,"52":-0.13327605536773815,"53":0.03131585781618133,"54":0.09114138485794679,"55":-0.047674131277510745,"56":-0.025443522661911393,"57":-0.055975022388458244,"58":-0.006169008314625628,"59":0.04233671103413863,"60":-0.02208413528861831,"61":0.006870975081433211,"62":-0.072636153040496,"63":0.06319903680467603,"64":0.07888506622289201,"65":0.018605576677329625,"66":0.008556532887370134,"67":-0.07711378968643189,"68":0.07202409533767418,"69":0.09367434397936591,"70":0.020792394152814232,"71":-0.07526033169190935,"72":0.0012344277727406696,"73":0.029389119990083083,"74":0.0013164754888756233,"75":0.09886672408197786,"76":0.0012041231098862141,"77":0.037360248908533365,"78":0.04374302972571601,"79":-0.023746898779609397,"80":0.08983069207978524,"81":0.011851118700307724,"82":-0.013192193955922547,"83":-0.07454457417769839,"84":0.107553278624417,"85":0.1516332734397492,"86":0.1340343204386931,"87":-0.020844917247489332,"88":-0.06897908587713313,"89":-0.07648732190658301,"90":-0.11325125365596157,"91":-0.05552858601523649,"92":-0.03213921198926032,"93":0.11791508504670929,"94":-0.020805914399041624,"95":-0.12383383643825177,"96":0.013058868967259487,"97":0.009301820315382845,"98":-0.02197176238914642,"99":-0.024199073345772523,"100":0.03923569606576809,"101":0.10257732343341597,"102":0.11634233807314001,"103":-0.014709382502086992,"104":-0.027311637138972385,"105":-0.03802269508720368,"106":-0.00047671441354458626,"107":-0.04624276445925548,"108":-0.06367070628987254,"109":-0.04900451051980346,"110":0.021080685379404464,"111":-0.1455080630388969,"112":-0.015387031208370627,"113":-0.12384689779284958,"114":0.041641288102799136,"115":-0.007976310489151244,"116":0.052389709870282464,"117":0.06955388841022131,"118":0.0320888908117943,"119":0.011383390672734082,"120":-0.027645153957139568,"121":-0.04303106816107057,"122":0.018487213493832,"123":0.02232465414804478,"124":-0.060137481797025376,"125":0.024844175261059014,"126":0.09030838606137646,"127":-0.025943284709093437,"128":0.04279374863363549,"129":-0.016083925462137504,"130":0.09640219691831987,"131":-0.02028553406633729,"132":0.01624175813403853,"133":-0.11051815145476877,"134":0.045244051009720725,"135":0.027530608050633825,"136":0.05286465113069786,"137":0.05562757907697255,"138":-0.05391812622107708,"139":0.02171108046577346,"140":0.05163201523552184,"141":0.04384583244666337,"142":0.015296413290600644,"143":-0.0515919163464964,"144":-0.12021313912698857,"145":-0.047676295700195444,"146":0.02344742792411124,"147":-0.1212804512629788,"148":-0.027267188389951173,"149":0.02519838070649247,"150":0.13619138122455576,"151":0.018731203700030504,"152":0.02005504886884511,"153":-0.03801345088908655,"154":-0.08427610206393307,"155":0.018968974928967392,"156":0.012470810632020013,"157":-0.07267327116612117,"158":-0.04990665681833867,"159":-0.13906238617346448,"160":0.005498561300146336,"161":-0.0374824371268857,"162":0.0626740168252456,"163":-0.0011600148904129806,"164":-0.0035655259854546054,"165":-0.044523168194667714,"166":-0.052514249055131045,"167":0.024678751031833496,"168":-0.055699886598900454,"169":0.06612412288640906,"170":0.04448554475116334,"171":0.024413926190873937,"172":0.024794181625535282,"173":0.06166562612598044,"174":-0.032874496125518994,"175":-0.023934852920791064,"176":0.04175122779482832,"177":0.013008562000055759,"178":-0.09259189821156867,"179":-0.0419275526851295,"180":-0.031013420623016548,"181":0.03419930879610432,"182":-0.04517633483607672,"183":-0.16728822141739613,"184":-0.008957524331301623,"185":0.011986747550133106,"186":-0.012605048822465832,"187":0.015349658371761549,"188":-0.026504597987916483,"189":0.023347989101749372,"190":-0.007119052592149026,"191":0.05253549724963737,"192":-0.07606884679167933,"193":-0.01405908194815338,"194":-0.030670353153259812,"195":0.0412326115675549,"196":-0.06660894466860628,"197":-0.0019817492068144736,"198":0.03759228598057687,"199":0.02584392306257447,"200":-0.03949311966765023,"201":-0.00445712918746017,"202":0.0507129490346588,"203":0.003868662719480935,"204":0.08379831869883066,"205":0.062452721365955095,"206":-0.02166578359607593,"207":-0.0868230759624135,"208":-0.04514079498426885,"209":0.0028519463957124747,"210":0.11553569393486737,"211":0.0996103006731656,"212":0.02088238747399702,"213":-0.08465842999040285,"214":0.014139102953310811,"215":0.028429640591969542,"216":-0.00445122768905843,"217":0.013914253097325262,"218":0.0314829842508715,"219":0.13934983895136707,"220":-0.10162273973709177,"221":0.004936380653645395,"222":0.06112013219364059,"223":-0.14600105019217163,"224":0.005362624912149037,"225":0.07303399228511165,"226":0.07635343998258912,"227":0.00999604601790945,"228":-0.04620286472137476,"229":0.053338019429983986,"230":-0.011124143965665806,"231":0.022043678128014853,"232":0.018516922331331242,"233":-0.014860143055059878,"234":0.022944694143590932,"235":0.05463831417315405,"236":-0.01909598417271255,"237":-0.0961348442162442,"238":0.014849950221989787,"239":0.038583413175768015,"240":-0.049993167076773,"241":-0.021258039811380986,"242":0.023072044717334535,"243":0.025281278808347116,"244":0.08888072556364544,"245":0.08160137320581387,"246":-0.06352394255853659,"247":0.03474490782507393,"248":0.03224574237959048,"249":0.014253809458551854,"250":0.05425863910897463,"251":0.021978717575781865,"252":-0.06465634556873855,"253":0.008032129223098103,"254":-0.02124679600920577,"255":0.012523398950862562,"256":0.01959183225410064,"257":-0.0878735882252699,"258":-0.011901482706995682,"259":0.0025391288754669505,"260":-0.04793907453862319,"261":0.021605065406954373,"262":0.021629607835073283,"263":0.03118566020565851,"264":-0.05833823628631181,"265":0.05492890715832854,"266":-0.007228568684725174,"267":-0.11180611642658429,"268":0.03434463713657608,"269":0.10427384676664181,"270":0.045720170988381346,"271":-0.04180290694829313,"272":0.06276458352329839,"273":-0.016316278559098663,"274":0.021114255975032345,"275":-0.0516679918054712,"276":-0.0172380065867128,"277":0.007137024580343102,"278":-0.017192507254153912,"279":0.025712095469463302,"280":0.024589905835240122,"281":0.05517212308550805,"282":-0.09022671525770949,"283":0.11702611120675237,"284":0.02108362893727037,"285":-0.1278231406615957,"286":0.05171508592971429,"287":0.01041561287783605,"288":-0.0011700604164512295,"289":-0.011336620149110332,"290":-0.0021630526169962943,"291":0.07551899017139518,"292":-0.037833023085396114,"293":-0.013935351970643918,"294":0.011705966071754564,"295":-0.062307034133457936,"296":0.013166007863637617,"297":-0.05317410527041566,"298":-0.031764474990868125,"299":-0.06055652355366125,"300":-0.011162328323298824,"301":-0.13723508242529028,"302":-0.010935296549826777,"303":0.0639826482193336,"304":0.017814101524170903,"305":0.005989442069879306,"306":-0.01669392776136543,"307":0.07727096639080734,"308":0.009190543922026038,"309":0.08187895482289786,"310":0.012631344545754344,"311":0.013362136633359917,"312":-0.07848761869458154,"313":-0.09276865422072848,"314":0.06550080979433166,"315":0.06410546355963252,"316":0.05654111586793505,"317":0.008674511526730126,"318":-0.0020888398854410663,"319":0.07539663159298106,"320":0.13620501120720024,"321":0.13207590549546297,"322":0.01374322824959451,"323":0.04665724896186302}},{"sx":1,"sy":1,"depth":324,"w":{"0":-0.05389775240401918,"1":0.06572982956184283,"2":-0.1906920625084735,"3":0.06401857190282612,"4":-0.13959553682888132,"5":0.04457352918880936,"6":-0.0597028312761483,"7":0.10368679710183731,"8":0.04834778791180367,"9":-0.09674734948620817,"10":0.012183962804054751,"11":-0.026678682360248857,"12":-0.010596229121437501,"13":0.016032928996697338,"14":0.07628074800280031,"15":0.042983985904360415,"16":-0.22556258076153332,"17":0.0016927781175956995,"18":-0.06879224136315774,"19":0.0033177039523479483,"20":-0.025165004833309496,"21":-0.09635046916859975,"22":0.13739999448504217,"23":-0.046755414929648756,"24":0.21320699661464942,"25":0.00034371899044759337,"26":-0.02837807805848745,"27":-0.09195769959587471,"28":-0.0024222850473842785,"29":0.050183862470072255,"30":0.040518208795568104,"31":-0.2255888836925687,"32":-0.07478606254563637,"33":-0.1306594540082425,"34":-0.006264634895450944,"35":0.013960236234433368,"36":0.18121258739753954,"37":0.06531549857604872,"38":-0.08948263751954419,"39":-0.12471190213699625,"40":0.025821868982064317,"41":0.05730564213978077,"42":-0.052560908917291246,"43":-0.12651532988136874,"44":-0.1429010376083826,"45":-0.059616675599815504,"46":-0.04529866798659577,"47":0.06543657651278649,"48":-0.1284424739721931,"49":0.00870265581268447,"50":-0.10201100861933077,"51":0.09372947081955568,"52":0.005575404630753373,"53":-0.07653936041371084,"54":0.10918195573934049,"55":-0.026019964583881963,"56":-0.12418315568155243,"57":0.062152192442407224,"58":0.006029944006624762,"59":0.004665415178126844,"60":0.059798914397089536,"61":0.018684237389756064,"62":0.04442938773738152,"63":-0.08456057004604918,"64":0.19958559446165036,"65":-0.12146535265972007,"66":-0.002638534689570564,"67":0.01380740571290962,"68":0.11112621670450662,"69":-0.0659731590114132,"70":0.11039636522652808,"71":0.04285934878535901,"72":0.03546548721632644,"73":-0.052233276563156204,"74":0.1510776778586669,"75":0.03146433392081628,"76":-0.1513944570172665,"77":0.04020431207023075,"78":-0.042650344885610564,"79":-0.1787554837695368,"80":-0.005556919095753393,"81":0.0689542646364421,"82":-0.18498409159955162,"83":-0.033729251791783925,"84":0.15135458369523652,"85":0.1360919932944229,"86":-0.07063574796458215,"87":0.0922775110452179,"88":0.033255470651184,"89":-0.0917625971069888,"90":0.07466044848250823,"91":0.028138650922565237,"92":0.10982572344402965,"93":-0.04733515243367428,"94":0.09715472038460031,"95":-0.10079566918951263,"96":-0.05361944223911198,"97":-0.04964848199615041,"98":0.025939595792612805,"99":-0.11092251250996685,"100":0.14114926088606836,"101":-0.03398412027032588,"102":-0.009745549701682715,"103":-0.014955351116166766,"104":-0.100956265745396,"105":0.02181227582560388,"106":0.06458873218209099,"107":0.02717128243030876,"108":-0.0427972169595059,"109":-0.033149020343067284,"110":0.2378389103087831,"111":0.09918694162625591,"112":-0.04841725952590012,"113":0.1301529887455193,"114":-0.045622272598381385,"115":0.039776156368039085,"116":-0.02141617374530719,"117":0.23596111216081914,"118":-0.16381717561274786,"119":0.07373035864957081,"120":-0.054802258743208584,"121":-0.012670110576467403,"122":-0.052683242793587236,"123":0.0714347334679146,"124":-0.07323746459084446,"125":0.002798351224005599,"126":0.1401831203659571,"127":-0.05065449665719384,"128":0.06723647269698002,"129":0.055963825342085695,"130":0.11851189794423685,"131":-0.03525663265515034,"132":-0.14044619724835034,"133":-0.06607332685578321,"134":0.044183723435861355,"135":-0.05513741170558248,"136":0.10726076557215085,"137":-0.013780527647356398,"138":0.2022239500435791,"139":-0.01343085372661582,"140":0.1172587079906013,"141":-0.051880633115867755,"142":0.0011350249993176441,"143":-0.07222195962632244,"144":-0.12338699328832595,"145":-0.010229537441753141,"146":0.1128359511642906,"147":0.03867084162406959,"148":-0.1592739165973582,"149":0.20571498389972784,"150":0.12896874285305196,"151":0.02811311072280962,"152":0.15708465584925393,"153":-0.07806600373150532,"154":-0.08583333518042364,"155":0.0035257933777218253,"156":-0.051468252426064315,"157":0.1323626836621659,"158":-0.10678300825267735,"159":0.03861669911308177,"160":-0.15374593253459776,"161":0.03505208570547216,"162":-0.038632486484303945,"163":0.11703174749811533,"164":0.00023758026076407476,"165":0.09582159450005684,"166":0.050985681867848014,"167":0.010247125896722583,"168":-0.0458415074844881,"169":-0.0912288053060248,"170":0.03946582015796496,"171":0.08512260901734517,"172":-0.16267893935256234,"173":0.06937858876510561,"174":0.1750592609446503,"175":0.015140026557413713,"176":0.26082804319384945,"177":-0.06892902368996603,"178":-0.11648756682599443,"179":-0.017876128782606367,"180":-0.15832000781069278,"181":0.011308808527593814,"182":-0.06860026295461229,"183":-0.004404375962108409,"184":0.03530968364131786,"185":0.12729080615407465,"186":0.02714348864608373,"187":-0.005169983511775647,"188":0.16170991687327546,"189":0.018957626495905943,"190":-0.19578209055629736,"191":-0.021042248644791116,"192":-0.10826495214328834,"193":0.021053511801243468,"194":-0.23624262790336129,"195":0.16058905965696454,"196":-0.13747977063431263,"197":-0.16405491655545995,"198":0.18914615550936806,"199":-0.07518052810593905,"200":0.07593370791562491,"201":-0.1039854702345065,"202":-0.05123969873072168,"203":-0.025229420813023058,"204":-0.13714636674369957,"205":0.04969004548994171,"206":-0.13209140424137344,"207":-0.06304225751095749,"208":-0.03757993357533324,"209":0.11115335664064559,"210":0.04576672806579802,"211":0.09061184684716073,"212":0.23241660277102544,"213":-0.06250113234946889,"214":-0.040043870227976154,"215":0.01461789966373034,"216":-0.1593380965518104,"217":-0.013115509449836953,"218":-0.004103137724240166,"219":0.07687679451475245,"220":-0.008043976853022676,"221":-0.022155288289981964,"222":-0.31962239322381086,"223":-0.01039941505832079,"224":0.03465714015760408,"225":-0.20743189243131638,"226":-0.10588897916812261,"227":0.0022174286778559368,"228":0.3080673656374355,"229":-0.2094311906600303,"230":0.09832921324350004,"231":0.0015318272775645095,"232":-0.010409299139989458,"233":-0.07409880096620215,"234":0.02970718288989163,"235":0.02846350669044325,"236":0.04016904429423095,"237":0.15984431171091892,"238":-0.16442501806290455,"239":-0.1010633233401823,"240":0.060232183619607256,"241":-0.003202710565269123,"242":-0.024135650140079155,"243":0.09845677096395675,"244":-0.11254170264162149,"245":-0.113406456230234,"246":0.05626356043792656,"247":0.06457194516138659,"248":0.04113849003706263,"249":-0.048842303078835046,"250":-0.08347241062058768,"251":-0.03097879566928375,"252":0.193029443679298,"253":-0.07780223708619348,"254":-0.054295823477110323,"255":0.05639746148684717,"256":0.12567063054591252,"257":-0.0074048357810525935,"258":-0.03232621246196873,"259":0.028046913125459087,"260":0.04165045257731897,"261":-0.10292169774823169,"262":0.03838048589166195,"263":0.10063770734993416,"264":-0.12669472068920565,"265":0.0038166617730824265,"266":0.056555977302795706,"267":0.07290572929040535,"268":-0.12302369492761989,"269":0.0816912256176966,"270":-0.06116619193604189,"271":0.05314812778327431,"272":-0.038038585253285524,"273":0.13665398477566193,"274":0.07381330661138771,"275":0.13739908541319587,"276":0.1685762117884615,"277":-0.05332833425119473,"278":0.10326936835294943,"279":0.09577438346410506,"280":-0.2064049819268763,"281":-0.08841336308659362,"282":-0.008533376017743892,"283":0.001616177169731726,"284":-0.2784169163129113,"285":0.029549105154873873,"286":-0.03436968431043021,"287":-0.06739730439462836,"288":0.06523113505633107,"289":0.000355530327865688,"290":-0.17201372310485138,"291":-0.03340142365724506,"292":0.17013586773742578,"293":0.03991957676876104,"294":0.16117420163818177,"295":-0.0467464002025727,"296":0.06468848040835966,"297":0.008514802172786896,"298":0.2056146139566091,"299":-0.024620820753757988,"300":0.15889843021104025,"301":0.03509582596767502,"302":0.06898067298562646,"303":-0.04201597252827057,"304":0.01264546448766149,"305":-0.13879937514034746,"306":0.11536086950511001,"307":0.0534107384412771,"308":0.08218255643326403,"309":0.04134238704360939,"310":0.23641903871881995,"311":-0.08593927235726496,"312":-0.16239732858668315,"313":0.13964195572615,"314":-0.22450576352290633,"315":-0.09639178375284313,"316":-0.040704187328767016,"317":0.16500957075172726,"318":-0.18354038181997165,"319":0.06730991880211823,"320":0.047327739206533624,"321":0.010732317410266947,"322":-0.012309992654625733,"323":-0.09531383421384429}},{"sx":1,"sy":1,"depth":324,"w":{"0":0.002125204112600901,"1":-0.0436281219170268,"2":0.014709432399301375,"3":-0.04836850293727832,"4":0.047714918715888135,"5":0.027984371317589133,"6":-0.0840925491681836,"7":-0.07711689524092698,"8":0.1364678720423099,"9":-0.04208853797224235,"10":0.057725938128083305,"11":-0.04394170872766859,"12":0.06442739110773399,"13":0.16057844123853507,"14":-0.05106345499535088,"15":0.07089031280561378,"16":0.030197758736380306,"17":-0.03484460679359297,"18":0.015190448290544271,"19":0.0003588884686804258,"20":-0.010112275745454783,"21":-0.005537370060954174,"22":0.060668935391845924,"23":-0.004098311853137747,"24":-0.03924389801711374,"25":0.023142112773057773,"26":0.11475471178863603,"27":0.04452718820677085,"28":-0.05513167509720372,"29":0.05614699338762184,"30":0.01453464843904039,"31":-0.09451681170001801,"32":-0.020675661183716765,"33":-0.07916620328530513,"34":0.033819292170277834,"35":0.05340964973505741,"36":-0.03931966907845903,"37":-0.006220175895017228,"38":-0.0006659399842734798,"39":0.14108445820234394,"40":0.03333568466216324,"41":0.14525987604388968,"42":-0.023907765926145283,"43":-0.04928550435711337,"44":-0.013531940466160821,"45":-0.05666819761980588,"46":-0.05579110531176186,"47":0.03646611683392547,"48":0.06219120767920764,"49":-0.004036791135273034,"50":0.04748806020041143,"51":0.03953520420467282,"52":0.029481381465728113,"53":0.013741466116799297,"54":-0.0496161799443776,"55":-0.007188802520891612,"56":-0.019577497138757158,"57":0.10379315453149898,"58":0.011490579216582373,"59":0.01459892323801614,"60":0.021336525999688646,"61":-0.004477908557498996,"62":-0.056931685930059435,"63":0.10580254348158233,"64":0.0275634915790513,"65":0.0046404338791342,"66":-0.049304943769115976,"67":0.0004565851690291458,"68":-0.016715234989101727,"69":-0.05262179975756548,"70":0.08801461097318274,"71":0.008979898313310034,"72":0.07131238082743287,"73":0.004266765644875993,"74":0.06352798403008891,"75":-0.015819813849750015,"76":0.1411543525558997,"77":-0.011914597860637024,"78":-0.002866370890960918,"79":-0.08330530958081249,"80":-0.010640853415270957,"81":-0.06847198905383316,"82":-0.044809504937341295,"83":-0.002918345205915773,"84":-0.08294294394357615,"85":0.069993438780098,"86":0.07888694594338568,"87":-0.08773510970236813,"88":0.006416992401205536,"89":-0.10549768074454291,"90":0.03807731367905889,"91":-0.07982658811466346,"92":-0.020508846561710193,"93":0.028214063529448295,"94":0.024829771305531795,"95":0.019421793068618087,"96":0.017140326802683067,"97":-0.020396093801246934,"98":0.05623489566590548,"99":-0.11376308221936299,"100":0.044393176003634946,"101":0.04318632526351817,"102":0.04951596394100502,"103":0.02102605931947595,"104":-0.011597308541637746,"105":0.02224241205060141,"106":-0.07087001503263811,"107":0.08604529589683492,"108":0.009103921806840911,"109":0.0298817137043208,"110":-0.052701224196934536,"111":-0.013038429627563719,"112":0.08516838112504596,"113":0.04005064592263306,"114":-0.08155531173053257,"115":0.0818511367367592,"116":-0.03370207918945887,"117":0.04735531271198422,"118":-0.06355276657398376,"119":0.06210519085365956,"120":0.039954872416008654,"121":0.006620399303424255,"122":0.08793399263300938,"123":-0.08048623026432788,"124":0.0038666942828388395,"125":-0.008267690398342412,"126":0.003301307819276581,"127":0.04036767915777077,"128":0.04792606122897599,"129":0.013453687816144349,"130":-0.009089629841704692,"131":0.1375326478634872,"132":0.08620961009273394,"133":-0.045921741830024995,"134":0.027847547859836,"135":0.008179675629623507,"136":0.09814614198691791,"137":-0.04300723813131442,"138":-0.02381102735155695,"139":0.036710104829772626,"140":-0.07302407869838318,"141":-0.06321986436835333,"142":0.05671117532016979,"143":-0.02004618121177866,"144":0.0014241556302528305,"145":0.022560802020370446,"146":0.007305993050193052,"147":-0.014614151389133431,"148":-0.016854463496266237,"149":0.07812915224190599,"150":-0.04861739499699163,"151":0.03343631404591502,"152":0.008350781035102074,"153":0.005339928910368508,"154":-0.05130675196857726,"155":0.04103194369698823,"156":-0.014602602589372814,"157":0.024514368839094552,"158":-0.017921142981134022,"159":-0.005027553619739249,"160":-0.060812309507715503,"161":0.029825199853746216,"162":-0.04189787332997279,"163":0.009193965416108524,"164":0.046012583564693996,"165":0.019897094111170213,"166":-0.08935678536675172,"167":-0.01989422554061934,"168":0.05825420785367837,"169":0.0563661383965776,"170":-0.02864784032833946,"171":0.07495094595858097,"172":-0.05986181616252983,"173":-0.0275948392336615,"174":0.00975459154716639,"175":0.012847196793190536,"176":-0.0245408188082737,"177":-0.023195083907861402,"178":-0.09418969193326615,"179":-0.050751888412234034,"180":-0.06771245137199547,"181":0.03243310980876195,"182":-0.06508721811188692,"183":0.07845248697713136,"184":-0.049019739080542114,"185":-0.0025748209102096735,"186":0.007546871075675972,"187":-0.01469765817202272,"188":0.055076879909073374,"189":0.039544445034344115,"190":-0.015951553805192663,"191":0.06880652348426361,"192":-0.018355137368247728,"193":0.020396999530737463,"194":0.04006855037309369,"195":0.0037148454093525133,"196":-0.05421203419612423,"197":0.037270356808914835,"198":-0.0668842417180882,"199":-0.04585814118326465,"200":-0.01164521862320805,"201":0.04232625896792051,"202":-0.012658111597973637,"203":-0.00030971904387416875,"204":-0.04761793682442843,"205":0.012927825162597108,"206":0.04257130539618205,"207":0.028320437476447587,"208":0.03334345939650899,"209":-0.049930305956928184,"210":-0.10786701256426844,"211":-0.054019582103691385,"212":-0.07850829983633605,"213":0.018140022796784266,"214":0.06056170076537659,"215":0.12274721001688368,"216":-0.046014779836107834,"217":-0.002338924008407691,"218":-0.051696481664178076,"219":-0.026781338301012907,"220":0.000359778507816095,"221":0.062242048525758126,"222":-0.012345539449320684,"223":0.019848845505215346,"224":-0.06446639232039675,"225":-0.046552733924133255,"226":-0.05296702063115255,"227":-0.1388573020662382,"228":-0.02327140930075891,"229":0.052660459658936905,"230":0.006131807056552887,"231":0.02691058304659413,"232":0.06361742535130674,"233":0.026744431895580543,"234":-0.05572205409663368,"235":-0.003395850511714525,"236":-0.020846727754867154,"237":-0.05474680441976878,"238":-0.02782677605669909,"239":-0.00882561060806228,"240":0.04349370840041979,"241":0.03989042239059219,"242":-0.0805349722043863,"243":-0.015247503129551311,"244":-0.08923988094144664,"245":-0.10857973302126656,"246":0.03687701543907711,"247":0.04424784613401343,"248":0.021873986420758353,"249":-0.07980032149953689,"250":-0.01460572332685457,"251":0.023936497329043068,"252":-0.08691338814246112,"253":-0.040440447926074985,"254":-0.1014463079809425,"255":-0.04235162264977694,"256":-0.03835058386753655,"257":0.08412342182348527,"258":-0.013699306554423814,"259":-0.08995312562416555,"260":-0.09699722404713164,"261":0.06629675655969328,"262":0.052146786181991145,"263":0.05108797097887353,"264":-0.02362859332562853,"265":-0.008148212069768446,"266":0.05493713627695538,"267":0.06237093871865405,"268":0.06523866854015466,"269":-0.012264060392669671,"270":0.00986567810305274,"271":0.024295771949321823,"272":-0.026318273114435273,"273":0.042503223071664036,"274":0.07835575184375243,"275":0.034759861997807597,"276":-0.002398591158872137,"277":-0.05387605644813729,"278":0.06270156664205957,"279":0.02951876313878297,