/**
layer_defs = [];
layer_defs.push({type:'input', out_sx:32, out_sy:32, out_depth:3});
layer_defs.push({type:'conv', sx:10, filters:4, stride:3, pad:2, activation:'relu'});
layer_defs.push({type:'fc', filters:100, activation:'relu'});
layer_defs.push({type:'fc', filters:500, activation:'relu'});
layer_defs.push({type:'softmax', num_classes:2});

net = new convnetjs.Net();
net.makeLayers(layer_defs);

trainer = new convnetjs.SGDTrainer(net, {method:'adadelta', batch_size:32, l2_decay:0.001});
**/
window.trained_gender_l = {"layers":[{"out_depth":3,"out_sx":32,"out_sy":32,"layer_type":"input"},{"sx":10,"sy":10,"stride":3,"in_depth":3,"out_depth":4,"out_sx":9,"out_sy":9,"layer_type":"conv","l1_decay_mul":0,"l2_decay_mul":1,"pad":2,"filters":[{"sx":10,"sy":10,"depth":3,"w":{"0":0.03799266909876912,"1":0.028714605105044342,"2":0.08371578628851423,"3":-0.020486973378289357,"4":0.1754995805463006,"5":0.301197166439671,"6":-0.10800812929779449,"7":-0.12078869766811283,"8":0.04240773138608011,"9":-0.15992646152091697,"10":-0.05790509977706546,"11":-0.04671284242098965,"12":-0.06768373609476565,"13":-0.13096809321588732,"14":-0.06813812497845681,"15":0.007357512014542182,"16":-0.09481909168531032,"17":0.07741454607073292,"18":-0.05918873140864991,"19":-0.036586533297394495,"20":0.0019619234434385944,"21":-0.03405551081316356,"22":-0.05128763045329528,"23":-0.031272876624847894,"24":0.14256000498897015,"25":0.08841524179782906,"26":0.05961941814634997,"27":0.04836600357656135,"28":0.05321997184354869,"29":-0.07654029205246549,"30":-0.1235128814130184,"31":-0.23512175140111027,"32":-0.16326642897411273,"33":-0.17421810539104127,"34":0.03719590781606251,"35":-0.10521954759686053,"36":-0.2804384923924781,"37":-0.21780538679693454,"38":-0.10501895622967837,"39":-0.2116761601289446,"40":-0.17376430207182966,"41":-0.07431194089530621,"42":0.13596791864056756,"43":-0.09281912256771695,"44":0.14456393550506969,"45":0.07832921048200693,"46":0.00922148030859012,"47":0.15789202623203177,"48":0.027744181928729135,"49":-0.17358649172056187,"50":-0.003407896942743827,"51":0.21211843935565686,"52":0.1795078815234152,"53":0.12102458593543776,"54":0.1835727716804961,"55":0.029012670310975142,"56":-0.09788881708920288,"57":0.1558238523731333,"58":-0.01390274567138599,"59":-0.13742310137644012,"60":-0.033070783534072286,"61":-0.18717528554943297,"62":-0.2057106747971616,"63":0.04399893027540499,"64":0.03819895128402771,"65":-0.1567970043611619,"66":0.07575699208421528,"67":0.06077415616365879,"68":-0.05372913959524026,"69":0.19059657820704615,"70":0.11744551634000823,"71":0.057017036604657054,"72":0.5229686098938403,"73":0.37868690648369685,"74":0.42333588748091655,"75":0.3680335948542013,"76":0.15662371780106818,"77":0.15833146599414294,"78":0.14280439943700537,"79":-0.02105894705856214,"80":0.017512916641580865,"81":0.16685853513937515,"82":-0.09406427402347897,"83":-0.15297722381437187,"84":0.19652649773396344,"85":-0.18996192179681634,"86":-0.2171571559052651,"87":0.031311880302898214,"88":-0.18602417432374566,"89":-0.14579944744385986,"90":-0.022542457579298597,"91":-0.27142762407378923,"92":-0.29562137268134825,"93":0.006607509980127214,"94":-0.04095876770674297,"95":-0.1497065759696593,"96":0.10379584869077552,"97":-0.09347173862961591,"98":-0.20105198846558933,"99":0.25459106854473423,"100":-0.05472852557116947,"101":0.06846632329095655,"102":0.5221415862130607,"103":0.3519267765912599,"104":0.2325552323582643,"105":0.35402163292176736,"106":0.16395224269087086,"107":0.05568467361719997,"108":0.1241897756355397,"109":-0.01794403308611354,"110":-0.1764211502750442,"111":0.10585144643703094,"112":-0.12261282420747528,"113":-0.1209803026638323,"114":0.20830347067996163,"115":-0.059776299035453236,"116":-0.1401541405656371,"117":-0.16944835009579953,"118":-0.272419060697493,"119":-0.3570414416149013,"120":-0.095450910207872,"121":-0.19180777512202482,"122":-0.45155802899524716,"123":-0.057224411149741305,"124":-0.193960128316158,"125":-0.361805989622553,"126":0.15500534585016604,"127":-0.1916289268068768,"128":-0.031587951332796786,"129":0.23598090865605945,"130":0.0939610147601276,"131":0.009508273741110669,"132":0.302857581327743,"133":0.030254183486111603,"134":0.06390555165543706,"135":0.23858872883273569,"136":-0.08347792471757963,"137":0.06744373888340519,"138":0.1396484535284561,"139":-0.05484515992995461,"140":-0.06879118132292866,"141":0.19350870868072662,"142":0.09058078712776811,"143":0.05589648639870504,"144":-0.042603983800331084,"145":-0.14351345296580337,"146":-0.20877138223795763,"147":-0.3565515893798489,"148":-0.384882862770032,"149":-0.4740453662080484,"150":0.02343609550671458,"151":-0.16605081488747805,"152":-0.270691352199223,"153":0.01838121346802293,"154":-0.027360017958488646,"155":-0.15608358036466113,"156":0.2716547687002884,"157":0.12719061392225148,"158":0.08195772447584947,"159":0.23411013895177546,"160":0.1612576213618051,"161":0.10053356197229582,"162":0.2946101932209173,"163":0.11358436202754049,"164":0.14043510231241865,"165":0.2097076628903836,"166":0.01971515200601851,"167":0.046960043056096745,"168":0.24475492795524906,"169":0.21930279692666133,"170":0.18309401999457126,"171":0.28336452787154914,"172":-0.02071382143268877,"173":0.04864064185658842,"174":-0.0369124909523373,"175":0.028610384497163077,"176":-0.05557842527106576,"177":-0.2810692967726695,"178":-0.5154318146526549,"179":-0.24866235770532555,"180":0.2146261191487978,"181":0.2772000533716962,"182":0.07752795505779182,"183":0.2234743511472997,"184":0.203182925932002,"185":0.1294627981419642,"186":0.3062664306853369,"187":0.3325298736537841,"188":0.28954535873305687,"189":0.28016588608198273,"190":0.10970549262960451,"191":0.22852060301691793,"192":0.1638812310151638,"193":0.09338905410128441,"194":0.1281076819518131,"195":0.0772800458045604,"196":0.0648614529256404,"197":0.24209037798992197,"198":0.06303375718021083,"199":-0.01612699089620012,"200":0.29786278209184003,"201":0.07578813534971296,"202":0.07338286706158925,"203":0.2984827321355326,"204":0.02277855703234455,"205":-0.08369818365450876,"206":-0.1001602472379484,"207":-0.1688577287354473,"208":-0.25678378944825414,"209":-0.29646917629213304,"210":0.0710394020733573,"211":0.07159028735848898,"212":0.06306784764831055,"213":0.13724940146124803,"214":0.3010603910592748,"215":0.19476673274332315,"216":0.08221734625037529,"217":0.283680602718815,"218":0.32561602989558464,"219":-0.053088454784333716,"220":0.18131482453607933,"221":0.2597749054180777,"222":-0.43156189646338877,"223":-0.21294362485842044,"224":-0.014945199884785227,"225":-0.4236613031106942,"226":-0.014777140627420936,"227":0.19935407802043745,"228":-0.24297499953455753,"229":-0.07983142579645909,"230":0.08168629813768918,"231":-0.4321644520821987,"232":-0.15559795030462326,"233":-0.02811130476158644,"234":-0.2027376499431233,"235":0.07943785323988517,"236":0.17758859775450547,"237":-0.2685985286840592,"238":-0.08154464257267695,"239":0.006575329323467075,"240":-0.02508372241017252,"241":0.01485736013017966,"242":0.1855285651312767,"243":-0.0010722797070654823,"244":0.27169249347774493,"245":0.2528825434371727,"246":-0.1909474543814298,"247":0.10326545249097757,"248":0.1671029273537431,"249":-0.4255219633483096,"250":-0.15673482804436648,"251":-0.05656472185728112,"252":-0.45935147931618714,"253":-0.08079753312640932,"254":0.12203437834788924,"255":-0.5461211425834912,"256":-0.24642445633813356,"257":0.07615758234505408,"258":-0.4207073714878148,"259":-0.0811599675126016,"260":0.0906128056249482,"261":-0.4621410351064843,"262":-0.13807486712310577,"263":-0.026586006182733664,"264":-0.3382345427886636,"265":-0.10531471846498876,"266":-0.060085316867511944,"267":0.135953658164252,"268":0.21697924207437844,"269":0.23481550090455713,"270":0.0421039708247446,"271":0.04886655739147467,"272":0.06324022089886265,"273":0.12051092597206445,"274":0.2838586258453478,"275":0.19055320572442336,"276":-0.150327730496539,"277":0.13076713036066095,"278":0.0363414987828479,"279":-0.4585490645912153,"280":-0.05666037525652812,"281":-0.14666657160583943,"282":-0.7065750718127932,"283":-0.2656743541432099,"284":-0.058856883145256576,"285":-0.35669732031602897,"286":-0.00410536565466722,"287":-0.030356915867154187,"288":-0.24648034665203908,"289":-0.036388759232781794,"290":0.2251909660072138,"291":-0.402478979189551,"292":-0.0842176620708108,"293":-0.0736645780860501,"294":-0.2056865359521152,"295":-0.0024615664740607166,"296":0.00568245584631287,"297":-0.005026843987246736,"298":0.16423571307390217,"299":-0.03141054442066426}},{"sx":10,"sy":10,"depth":3,"w":{"0":0.37746663258850355,"1":0.19252925029856596,"2":0.28313792483595546,"3":0.19014431158256784,"4":0.1078319767722962,"5":0.0667029360653944,"6":0.254021563347607,"7":-0.14087912322122392,"8":0.10464735623646229,"9":-0.08667047848836848,"10":-0.06973305277430365,"11":-0.09292740820673202,"12":0.14876289281948693,"13":-0.004762818440431169,"14":-0.013542386169300426,"15":0.01778707615917264,"16":-0.1030700175995923,"17":-0.004458725340709098,"18":0.0717376319877359,"19":-0.15146784680526312,"20":-0.14138390526929584,"21":0.06180649435099224,"22":-0.08374199997443146,"23":-0.28940294898550195,"24":0.0063510577612976545,"25":-0.32454673540186935,"26":-0.41364566687905346,"27":-0.06609077112435102,"28":-0.23768228074178915,"29":-0.3025471828007256,"30":0.2749310846401646,"31":0.1953457861053516,"32":0.27997970378927917,"33":0.2563136297262942,"34":0.044735617721069224,"35":0.26273299336773054,"36":0.1317900196468736,"37":-0.20376769400987435,"38":-0.11484335450513067,"39":0.08284109760529683,"40":-0.08578734600108516,"41":-0.04921130696982678,"42":0.06632235691433178,"43":-0.06881893546924156,"44":-0.13567696386210618,"45":0.10016335525686312,"46":-0.14594054047069094,"47":-0.007984901195419909,"48":0.3592312635119264,"49":0.18587230880584804,"50":-0.09354629917065709,"51":0.18020257105215415,"52":0.0699945103427914,"53":-0.12158758950108224,"54":0.23189714493178,"55":0.07810198079429946,"56":-0.10348197114278947,"57":-0.007156394003357247,"58":-0.003995725636016489,"59":-0.12734314204133435,"60":0.05964573986629132,"61":-0.12056860727059517,"62":0.061782349614298536,"63":0.13484322661988307,"64":-0.10017128956320406,"65":0.06155544567494671,"66":-0.11270706710831023,"67":-0.3177260502146868,"68":-0.24118254495967706,"69":-0.04769495235871647,"70":-0.24978448499571332,"71":-0.18023535711764424,"72":0.12727818258205498,"73":-0.03514181376282687,"74":-0.06668537800106494,"75":0.08147454404499929,"76":-0.04403585712178259,"77":0.0024284330643913037,"78":0.3903570413353938,"79":0.1257746504375925,"80":0.12948493463086644,"81":0.2683039241148385,"82":0.12665713276386195,"83":0.04582818353467055,"84":0.20425034867908012,"85":0.21624091748493646,"86":0.03106838934677178,"87":0.0009206504375493549,"88":0.06352191845991514,"89":-0.1157571682518479,"90":0.1576550316880824,"91":0.19134199700816154,"92":0.20913366662391944,"93":0.020031457621290293,"94":-0.07502680731892845,"95":0.07586055204877482,"96":-0.05924652221525491,"97":-0.21781131344964122,"98":-0.0735983940916044,"99":0.029111191719861245,"100":-0.06759194920054086,"101":0.12915338921621952,"102":0.2524953479058371,"103":0.1947515741747704,"104":0.20916730354483323,"105":0.21823098322342074,"106":0.14955876175704233,"107":0.06532609084320665,"108":0.45217337196877344,"109":0.2909838836969225,"110":0.23345428783540842,"111":0.38022810280259844,"112":0.15297189174769138,"113":0.05063621998362262,"114":0.15266784954827686,"115":0.17479399999258982,"116":0.011561520869803821,"117":0.07641776027440213,"118":0.060516991484505595,"119":0.08986685944523451,"120":-0.1016496030379989,"121":-0.08241388914201034,"122":0.11003035017396247,"123":-0.24430648573377522,"124":-0.24254733502874928,"125":-0.015663958113943062,"126":-0.31748776207228285,"127":-0.36898931317721095,"128":-0.07103279077426351,"129":0.04226000894725101,"130":0.03214202623732644,"131":0.21128468103747539,"132":0.321906909896695,"133":0.2894252228322618,"134":0.36617064142186334,"135":0.439914381762982,"136":0.31619223280584635,"137":0.27918390400061666,"138":0.3987901692533424,"139":0.31390613176398896,"140":0.1622616455120192,"141":0.3028430863687013,"142":0.19282016127060492,"143":0.06975534743211079,"144":0.2078144826267266,"145":0.1632338470846577,"146":-0.05333216038855108,"147":0.06225755136755448,"148":0.0957529428492471,"149":0.1718938685524753,"150":-0.3046548991247352,"151":-0.11870909902305138,"152":-0.04891812590293072,"153":-0.22496129511178328,"154":-0.1814099039633558,"155":-0.019785644304129716,"156":-0.5232641185730621,"157":-0.43812320552644873,"158":-0.233883595518188,"159":-0.04188952348610322,"160":0.004381157973578326,"161":0.2446585660595452,"162":0.03576369793526184,"163":-0.009738933928936757,"164":0.1972766362200541,"165":0.1773496044941291,"166":0.1543562244829764,"167":0.24809083362916623,"168":0.1785823591203343,"169":0.1662625531538349,"170":0.2556791829154268,"171":0.09133581289619495,"172":0.022868707577494148,"173":-0.04076424680373504,"174":0.09157019988995266,"175":0.17974959966427728,"176":-0.007225149200817569,"177":-0.1035727059787636,"178":0.07466437494896058,"179":-0.07897293023349532,"180":-0.25548022500432016,"181":-0.02648774586007513,"182":-0.09133018322417588,"183":-0.48309692104466084,"184":-0.21943577104073936,"185":-0.1338545473498387,"186":-0.8131245228065713,"187":-0.5537127372311137,"188":-0.4623276220094837,"189":-0.4772874468098904,"190":-0.2343377859821862,"191":-0.01863750521120254,"192":-0.17875978336975137,"193":-0.09109853790926,"194":-0.021112030843262894,"195":-0.19246443608976932,"196":-0.013884031817955706,"197":0.09255473719242197,"198":0.07107783094655563,"199":0.060005627356491315,"200":0.0794745502025422,"201":-0.09799606360108155,"202":0.050265819316497956,"203":-0.0436488744369656,"204":-0.1484794361326754,"205":0.01479881138324409,"206":-0.03738424739908141,"207":-0.08244311987508617,"208":0.015597503563975034,"209":0.0747634196728402,"210":-0.07233209450821558,"211":-0.020869876807920074,"212":0.0388348213546569,"213":-0.45627455631525055,"214":-0.29861081893894825,"215":-0.2933099768812904,"216":-0.44879433954688447,"217":-0.3645871657784332,"218":-0.23926596015614138,"219":-0.6195689730706276,"220":-0.3782085366529826,"221":-0.20824698862121643,"222":-0.6475445915538192,"223":-0.3642974937782732,"224":-0.4274304922793772,"225":-0.35210032662135354,"226":-0.16390397758632402,"227":-0.11016341158838898,"228":-0.3156828014053009,"229":-0.003787047690129376,"230":-0.15151750098424469,"231":-0.12440868875490828,"232":-0.059573993330742994,"233":0.09477941091694345,"234":0.03819358008101698,"235":0.007719314781671723,"236":0.09814419361856792,"237":-0.2518059096973193,"238":-0.13570232932995796,"239":-0.0692139539200548,"240":0.022809297471084417,"241":0.2271699650822744,"242":0.14658293717516707,"243":-0.09159110098915063,"244":0.05221388130820754,"245":-0.0323941370823375,"246":-0.020937560160179277,"247":0.1649990098341027,"248":0.07431161900159405,"249":-0.17847126514350256,"250":-0.05452560215631881,"251":0.01189289903578426,"252":-0.28776161808407247,"253":-0.12712405096424348,"254":-0.16254136863081314,"255":-0.33822386403211036,"256":-0.12638381335849888,"257":-0.16585740795868087,"258":-0.33084347161468736,"259":-0.09732231393801744,"260":-0.054120134919918406,"261":0.058554337540968185,"262":0.10489326411397445,"263":0.07188205849877854,"264":-0.18551506781571972,"265":-0.15642638980234735,"266":-0.11224660297746435,"267":-0.18499688097082065,"268":-0.014470538194503191,"269":-0.17183916367983385,"270":0.07643936849511668,"271":0.026474123384313156,"272":-0.009139190944956306,"273":-0.03284143218069242,"274":-0.026007875071047102,"275":0.04572997056502798,"276":0.11486838371007246,"277":0.17959753201411247,"278":0.2570019801964139,"279":0.005998435665463326,"280":-0.0015825688362076417,"281":0.05579999699913853,"282":0.05790190264366741,"283":0.05764132833924477,"284":0.08303387045975652,"285":0.04182043916623667,"286":0.34674769711608566,"287":0.22039881698952313,"288":0.0852573368976522,"289":0.22940057874695952,"290":0.05682537456822469,"291":0.02394664336945109,"292":0.08282496014121772,"293":0.09021120411569374,"294":0.11220315224472652,"295":0.10289991031637394,"296":-0.015617188422385742,"297":0.16302277653797975,"298":0.1742141572617101,"299":0.15939509394240797}},{"sx":10,"sy":10,"depth":3,"w":{"0":-0.24619913385386116,"1":0.1861025172518982,"2":0.13701850218364084,"3":-0.24802750359374565,"4":0.12493030925053067,"5":0.06319560117783514,"6":0.007139508858973774,"7":0.23622813115348443,"8":0.2470334038986723,"9":-0.09266813340436804,"10":0.21276891050416744,"11":0.1693699030186335,"12":-0.07060090143247379,"13":-0.009269312255601425,"14":0.05423185374082666,"15":-0.013898677584759328,"16":0.001356101846029116,"17":0.20166978886026193,"18":-0.3373490660827288,"19":-0.15610021405163213,"20":-0.15149973931129104,"21":-0.14271803039015782,"22":-0.20180547356454684,"23":-0.07933993814987483,"24":-0.19101814129531555,"25":-0.20830160525727576,"26":0.0025676643762215547,"27":-0.007583349569819107,"28":-0.025643607911778707,"29":0.08413913420272562,"30":-0.09309639294464446,"31":0.11919187343182293,"32":0.03424742387513223,"33":0.02989865519723482,"34":0.2247637826706713,"35":0.2487195961889785,"36":0.024270031874427795,"37":0.2830800769178701,"38":0.22160557476563025,"39":0.01671996293560566,"40":0.19459822159070897,"41":0.16590944135212565,"42":0.11314885234875895,"43":0.14762043591603277,"44":0.1902977482843186,"45":-0.017239392872428226,"46":-0.17254298611030253,"47":-0.05941399030137973,"48":-0.4497742726083972,"49":-0.20637239494389562,"50":-0.206341989054245,"51":-0.32874095867455183,"52":-0.2420003700380869,"53":-0.1947552524907741,"54":-0.4110956131593626,"55":-0.30831713358669105,"56":-0.18591803439902774,"57":-0.2638375898596196,"58":-0.19305425676332047,"59":-0.1223121655508673,"60":-0.1581654865644752,"61":0.2724236791481845,"62":0.2732584747073708,"63":-0.07748107789977307,"64":0.20330732204234103,"65":0.11861110519694835,"66":-0.10884098965931265,"67":0.1969370525954883,"68":0.18754045811596792,"69":-0.030522533459807374,"70":0.26346077376317356,"71":0.16645640695173416,"72":0.04169015760401381,"73":0.10363402107300947,"74":0.17606404750670201,"75":-0.13743626459462085,"76":-0.19597085125042868,"77":0.009103788249262397,"78":0.018264022984574656,"79":0.10159316189465446,"80":0.1079793402420762,"81":-0.05856041970798307,"82":-0.002287919473997917,"83":-0.09427153583089062,"84":-0.20435059708287945,"85":-0.08134592138662798,"86":-0.07061519276258567,"87":-0.1756509484063479,"88":-0.18467543824029023,"89":-0.28604485567030796,"90":-0.27381507527492677,"91":-0.1643414840760958,"92":-0.003968990535117442,"93":-0.05920385237565027,"94":-0.013671024199585121,"95":-0.11913832749418313,"96":0.10946567874442975,"97":0.0916454386647816,"98":0.18155320855303378,"99":0.2333880725123083,"100":0.21447971249246953,"101":0.16584715958027646,"102":0.2777562283584944,"103":0.25886345608352307,"104":0.3772602375089884,"105":0.16673038566993925,"106":0.3027224035146803,"107":0.1759521085217672,"108":0.3626051709775391,"109":0.23741855103078244,"110":0.23974764639863366,"111":0.3347883115904131,"112":0.24549399492973456,"113":0.21827533336896127,"114":0.008735199715322793,"115":-0.058139266315231294,"116":-0.04683443432892263,"117":-0.23863517335779302,"118":-0.16393086997426512,"119":-0.2913393919931747,"120":-0.005410894694510705,"121":0.18134827418773128,"122":0.09347930840799783,"123":0.02652066855060121,"124":0.13252307221757004,"125":0.09601542034159681,"126":0.2612595392451355,"127":0.3180377848102102,"128":0.2033720701052998,"129":0.1851106439497827,"130":0.09915157451276287,"131":0.08679011188979369,"132":0.09536482207320969,"133":0.17143457710746113,"134":0.17069636539506103,"135":0.12892397858440838,"136":0.17118599978443635,"137":0.1359336531548238,"138":0.08391964056537268,"139":0.07675128211187052,"140":0.09278838920885892,"141":0.20898947279832908,"142":0.3335373024645781,"143":0.20874141058919732,"144":-0.09272086159053639,"145":0.04808243415369099,"146":0.06700806783406658,"147":-0.18454930437552877,"148":-0.16397640139275246,"149":-0.1394720661081784,"150":0.06425754036138692,"151":0.05601866783167675,"152":0.08113026347162919,"153":0.14209611332878594,"154":0.09699707601388229,"155":0.1643561537179517,"156":0.3335551761713951,"157":0.4213677628593543,"158":0.5174370869995946,"159":0.056202442922909844,"160":0.07893741424172789,"161":0.10308508775525972,"162":-0.0640555876854825,"163":-0.06379817483794906,"164":-0.03489924328329626,"165":-0.0644503417453927,"166":-0.20059911317228785,"167":-0.09959857962108329,"168":0.1288556956797915,"169":-0.12950209253623832,"170":-0.03453052787528535,"171":0.08915559180550282,"172":-0.0016206303088434305,"173":0.15433837707939885,"174":0.023268952770016102,"175":-0.032882229137208,"176":0.02018668719763169,"177":-0.10986151627054438,"178":-0.14727550458213076,"179":-0.22602822073475382,"180":-0.09019909561019074,"181":-0.03669925288272057,"182":0.03169110979105097,"183":0.048812223584167806,"184":-0.03987129923777365,"185":0.012838614116364364,"186":0.11761275921952556,"187":0.02054584467467996,"188":-0.051522757321956526,"189":-0.04564189553672138,"190":-0.14850750158607287,"191":-0.13946785487164792,"192":-0.26102115239855694,"193":-0.25200875176716603,"194":-0.1741960747026425,"195":0.021626928709702935,"196":-0.09905107782645112,"197":-0.12895626867427207,"198":0.16626042352905712,"199":0.00431071133102289,"200":-0.08398266158137219,"201":0.09923873280648682,"202":-0.05341534550304576,"203":-0.007286041689849426,"204":-0.016552208802020803,"205":0.1268888294266587,"206":0.017849917142291827,"207":-0.05752861703359661,"208":-0.19627232614905052,"209":-0.09099875137254547,"210":0.007136469708687707,"211":-0.031991213471213184,"212":-0.04732307926147131,"213":0.019723792981156316,"214":0.031211683053573608,"215":-0.019199645953456055,"216":-0.08135552610105364,"217":-0.3544266063356957,"218":-0.28073091461417754,"219":-0.14901111103672718,"220":-0.3799046139918716,"221":-0.3584634642395323,"222":0.0444281451676836,"223":-0.2590965347994765,"224":-0.33119620392412447,"225":0.08416100913338713,"226":0.03251693111568529,"227":-0.17337193249687244,"228":0.20431849033908972,"229":0.03307375000084961,"230":-0.11345405706226602,"231":0.2290803326733716,"232":0.00991255519965476,"233":-0.10455797018637245,"234":-0.03650759217044523,"235":-0.1360434705822712,"236":-0.09860434890659009,"237":-0.003095899387779125,"238":-0.21259954704709935,"239":-0.19749337327088992,"240":0.08208257608908871,"241":-0.06447696241924718,"242":-0.00640415590577098,"243":0.10334389759020854,"244":-0.0773569384995346,"245":-0.11612046151318568,"246":-0.1524198926951166,"247":-0.33063176804956795,"248":-0.2703893891941742,"249":-0.1815903683613043,"250":-0.40398333660727825,"251":-0.4670398670986085,"252":0.10003522236902614,"253":-0.320549274694867,"254":-0.3440017645054656,"255":0.19620869883199993,"256":-0.09577279346557767,"257":-0.18334192085099843,"258":0.3999265483501615,"259":0.1270015031120083,"260":-0.005191900167851244,"261":0.11785051177009642,"262":-0.1372420757712163,"263":-0.09209576415211398,"264":0.29042569136155133,"265":-0.05902122237685356,"266":-0.21472647045868673,"267":0.007218639926316341,"268":-0.06886524575255043,"269":-0.27685304452576837,"270":0.04255334893809796,"271":-0.06533942364324402,"272":0.08197496323768089,"273":0.10471275811725471,"274":-0.20695275737038554,"275":-0.04047630978496947,"276":0.11137901999639775,"277":-0.16072314099145418,"278":-0.20191709985115405,"279":0.2068877200413609,"280":-0.01045305959363077,"281":-0.07778113469500608,"282":0.13432854945433273,"283":-0.11515545868489788,"284":-0.2349084807077126,"285":0.22645910045963416,"286":-0.005525940605356201,"287":-0.15893191500648984,"288":0.5627691186380117,"289":0.22422789795576334,"290":0.0588661402331515,"291":0.11893629701017083,"292":-0.15977870832762442,"293":-0.0958824188979509,"294":0.18225123589809908,"295":-0.16041767560070572,"296":-0.25193064892723105,"297":0.202069501277499,"298":-0.0271837600618929,"299":-0.2354811934586222}},{"sx":10,"sy":10,"depth":3,"w":{"0":-0.16152249328768667,"1":0.13188142648277754,"2":0.08926978170854785,"3":-0.0843279247723058,"4":0.07665242242361543,"5":-0.019893277694277012,"6":-0.20566884380371392,"7":-0.07042821306034523,"8":-0.4107855653163751,"9":-0.23663694143025682,"10":-0.06631149281724334,"11":-0.21359049449466044,"12":-0.008173298666652671,"13":-0.022947300944427783,"14":-0.051621267765727195,"15":-0.05700465059435373,"16":-0.025665944591849513,"17":-0.0649793435218989,"18":0.15320438302818734,"19":0.13775955158363345,"20":0.03685919868694094,"21":0.04677321995185014,"22":0.1155792912657618,"23":0.05554452484747658,"24":0.1975872331454563,"25":0.17977248586720954,"26":0.05985528947942979,"27":0.10304705452971322,"28":0.2890834040823666,"29":0.02172173599786077,"30":-0.05142748633125471,"31":0.16011866116665316,"32":0.07985831290063046,"33":-0.028301622803495494,"34":0.0012895557460872024,"35":0.07066136626078427,"36":0.1433377957735166,"37":0.17344204009802153,"38":0.13586380274040472,"39":-0.03756044647002546,"40":0.053920095824964015,"41":-0.029120801117073984,"42":-0.3463654476133918,"43":-0.20262654079132314,"44":-0.32947423985060414,"45":-0.14962331622048833,"46":-0.23311083823188675,"47":-0.08061267458976493,"48":-0.07815726418149249,"49":-0.09659458509790007,"50":-0.06594758935119445,"51":0.24317257712354323,"52":0.09828493772545109,"53":0.02397874307030775,"54":0.12673610576320682,"55":-0.00998808743694122,"56":-0.15347742522540114,"57":-0.05235502435349441,"58":0.010612191749548715,"59":-0.11809395518985792,"60":-0.15741844987685916,"61":-0.17668532596425196,"62":-0.10740827841104701,"63":-0.1010444546492443,"64":0.06315669207875213,"65":0.03677528134080631,"66":0.2839115156741437,"67":0.2776218231643755,"68":0.14748976872475483,"69":0.11934932823824738,"70":0.23732425225636758,"71":0.27098729424037826,"72":-0.004324054756001542,"73":0.043299717353881266,"74":-0.0685018176657697,"75":-0.22201637967853696,"76":-0.45933638154816586,"77":-0.27884504123018156,"78":-0.13243468291650082,"79":-0.2570919522134049,"80":-0.19349845550506198,"81":0.2925847086044158,"82":0.06828912017986054,"83":-0.015206474681369923,"84":0.11103851922023329,"85":0.0009398630886465532,"86":-0.05319998283718421,"87":0.06402074449357097,"88":-0.040633714647154255,"89":-0.0734796427012288,"90":-0.048493474687766026,"91":-0.1989979127286727,"92":-0.2841645808098515,"93":0.05205681545568621,"94":-0.02925918899356031,"95":-0.09694405879286112,"96":0.12221112283860365,"97":0.14025583073724165,"98":0.10869988375035529,"99":0.19982381929671858,"100":-0.0023578598957659904,"101":0.003075768662476331,"102":-0.012743064719723094,"103":-0.16590844226178106,"104":-0.21468352738513433,"105":-0.3913300040316318,"106":-0.41200406387447597,"107":-0.34834449098697234,"108":-0.3949408037070223,"109":-0.3732441361186457,"110":-0.2528231723490186,"111":-0.06634173568031675,"112":-0.16216815303848836,"113":-0.23189644336996246,"114":0.038261503075257275,"115":0.02854103027433285,"116":-0.005825513023502368,"117":0.1920010011570998,"118":0.06867680919167855,"119":0.07426646175223317,"120":0.0715565946986431,"121":-0.09169771447534222,"122":-0.24969365014223638,"123":-0.019729209664389548,"124":-0.13086420608959226,"125":-0.05034516349806219,"126":-0.02539020271955035,"127":0.05858559545007888,"128":0.005820912305756785,"129":-0.09788299283682336,"130":-0.1778638890575945,"131":-0.09525825087107748,"132":-0.28445136556751427,"133":-0.3145304952679761,"134":-0.15761899532471738,"135":-0.64852255492215,"136":-0.5101802321546304,"137":-0.31191351689876456,"138":-0.3615844367213016,"139":-0.3377638924191172,"140":-0.2977635671366252,"141":-0.0623371840127993,"142":-0.07305975166954226,"143":-0.017161537479366863,"144":0.23444908391487018,"145":0.049587652742056156,"146":0.10613936049083483,"147":0.08149952422706716,"148":0.008936574438284271,"149":0.027868362694534524,"150":0.2718860881721061,"151":-0.07432944539183509,"152":-0.07102760993952753,"153":-0.03163836219530162,"154":-0.130100591084049,"155":-0.10384986744568893,"156":0.10314664455551863,"157":0.07911864037396489,"158":0.009980052965275907,"159":-0.00495356602348984,"160":-0.06033574974384852,"161":-0.02173540277603664,"162":-0.07621063235511874,"163":-0.19795364654642156,"164":-0.14652200341461014,"165":-0.1965421083152578,"166":-0.30169274337372753,"167":-0.16010095332923976,"168":0.14477954780611293,"169":0.1944915427798109,"170":0.06103314591651862,"171":-0.047745139062598974,"172":-0.0022974317599282934,"173":-0.18117408390425485,"174":-0.0314230658989343,"175":-0.01066611006796183,"176":0.06304899370236022,"177":0.09476945847067983,"178":0.20055017816872575,"179":0.16635929286503548,"180":0.007655589222848648,"181":-0.06507539864514596,"182":-0.05998136599056369,"183":0.04626024660427851,"184":0.027200424467620724,"185":0.04225086045796695,"186":0.3108282457570674,"187":0.20772814288285998,"188":0.20330712447504934,"189":0.5214206068241655,"190":0.09373242749007663,"191":0.10956354894297528,"192":0.11780458229450701,"193":-0.013948053951067957,"194":0.08312935421777341,"195":0.05750809188420397,"196":-0.1630452280057207,"197":0.03942689171305387,"198":0.1501490869802003,"199":0.12056201019969605,"200":0.09779156035086849,"201":0.1681352850019118,"202":0.05378834633764241,"203":0.03566768247505763,"204":0.1449986364588211,"205":0.0991155477334172,"206":0.119304869865952,"207":0.09794405774024571,"208":0.13127221457068416,"209":0.2200790307580852,"210":-0.11538285447768655,"211":-0.2713175787241589,"212":-0.16241800241052823,"213":-0.14733511126849408,"214":-0.11675828139149012,"215":0.01849680386448904,"216":0.3164529726020607,"217":0.16049752537716666,"218":0.05553504587279684,"219":0.5612692001111165,"220":0.1761616495741767,"221":0.13583453843185572,"222":0.2599649076459244,"223":0.08849672268204496,"224":0.05737102859866628,"225":0.11035590893527124,"226":0.02368863581470733,"227":-0.062391038562465286,"228":0.24501231032553306,"229":0.015605051361127241,"230":-0.021683987757368253,"231":0.05642385522019016,"232":-0.028988568004966103,"233":-0.1355329641167365,"234":0.03560201979419282,"235":-0.10601378831305276,"236":-0.13799349471998912,"237":-0.02375879988847807,"238":0.03564455785675892,"239":0.09582381050626185,"240":-0.12887306949095756,"241":-0.11574009461118043,"242":-0.06348334464423089,"243":-0.18806863543762875,"244":-0.13802625492706916,"245":-0.05190490561566533,"246":0.039542360629769624,"247":-0.053616245798783393,"248":-0.1392917753119155,"249":0.158875192506492,"250":0.06965187792253162,"251":-0.038292723093995396,"252":0.09680937174585272,"253":0.21041117576834117,"254":0.3198867710191485,"255":0.13363976465672284,"256":0.0642869154048499,"257":0.1894666903163175,"258":0.11171415254852414,"259":0.08996615217872399,"260":0.09824815124382733,"261":-0.02759032149504701,"262":-0.2466702079517996,"263":-0.06130102553257818,"264":-0.03931115073167982,"265":0.07875967918408239,"266":-0.048645216093759686,"267":0.24372133713423544,"268":0.1702139431340108,"269":0.16213672703929838,"270":0.1126238150215701,"271":-0.03100928788493694,"272":0.06889100484663505,"273":-0.035544950388800005,"274":-0.13737259259661783,"275":-0.03489505552967149,"276":0.07873797927255186,"277":-0.005339714948702308,"278":-0.05331095778241125,"279":0.10018672398053159,"280":-0.17302923344632204,"281":-0.24919328212894584,"282":0.09151799242060323,"283":-0.004116514731054974,"284":0.07038310346747968,"285":0.265315123506463,"286":0.14449794204864916,"287":0.16414109943784624,"288":0.14208106627363098,"289":0.06128377642741358,"290":0.12831098402317986,"291":-0.014775222748709942,"292":0.14965276074923586,"293":0.09072522205883801,"294":0.2148534285793737,"295":0.1843060138904131,"296":0.1634369450792017,"297":0.17349833379967322,"298":0.19505668752714217,"299":0.14606023018343395}}],"biases":{"sx":1,"sy":1,"depth":4,"w":{"0":0.003049080644406183,"1":-0.5450846140581543,"2":-0.27520216314607976,"3":-0.33666243321962064}}},{"out_depth":4,"out_sx":9,"out_sy":9,"layer_type":"relu"},{"out_depth":100,"out_sx":1,"out_sy":1,"layer_type":"fc","num_inputs":324,"l1_decay_mul":0,"l2_decay_mul":1,"filters":[{"sx":1,"sy":1,"depth":324,"w":{"0":-0.03935666350041251,"1":-0.21090301026620567,"2":-0.06802521488774427,"3":0.03050540091770258,"4":-0.08641273426373629,"5":0.12690554063008,"6":0.01646007499035659,"7":0.053547988942703205,"8":0.04057174031431989,"9":0.06507308039997181,"10":-0.08168106321297672,"11":0.03504587023162889,"12":0.0705791997557307,"13":-0.045625684534506286,"14":0.007464015053146868,"15":0.032178475349993636,"16":0.10709532453191158,"17":0.024305211662773628,"18":-0.01951584040362149,"19":-0.19431415794866244,"20":0.018198727407807872,"21":0.03369375962894474,"22":0.14885370872051723,"23":-0.15788950775058816,"24":0.029219318962367704,"25":-0.05862081217020696,"26":0.09561229985790791,"27":-0.08240117963937062,"28":-0.1716251353231358,"29":0.029639777706660056,"30":-0.046955769577375565,"31":-0.10621258443969868,"32":-0.02480086076895863,"33":0.1905076901105338,"34":0.030870180032446185,"35":-0.021516672717797353,"36":-0.06457041566789051,"37":0.10397121042818137,"38":0.07253554809684458,"39":0.16110717534175367,"40":0.008373822411494513,"41":0.2483416936992486,"42":-0.0039112062865749005,"43":-0.09086740152608311,"44":-0.06822250412418786,"45":-0.004468725038132559,"46":-0.0661070546128698,"47":0.0012315051967531489,"48":0.011399748312411256,"49":0.0636119429800487,"50":-0.045849729776392234,"51":-0.04077380280707639,"52":-0.06897880039001664,"53":0.014589129921191093,"54":-0.023102427185204177,"55":-0.0007716926332133882,"56":-0.09650388324312661,"57":-0.07040027665998806,"58":-0.041211010700537294,"59":0.034418770490098054,"60":0.055341801850258665,"61":-0.12075843284308338,"62":0.07859132886289572,"63":0.027025135617311843,"64":0.0776775949241419,"65":-0.025822370096577903,"66":-0.09957958142989674,"67":0.02833499421357369,"68":0.05447621167610459,"69":-0.036452155096566886,"70":-0.007315357183557366,"71":0.03257319907127994,"72":-0.07755576322441922,"73":0.1286687742442215,"74":-0.1538420080708827,"75":-0.047735794781993586,"76":0.2168855014729919,"77":0.1783230770351034,"78":-0.08242353899048915,"79":0.015388480116638176,"80":0.18840290153905956,"81":0.03500833647929185,"82":0.0625573058860714,"83":-0.05516853024720903,"84":0.0272041800207093,"85":-0.07700483892296314,"86":0.001084199415612712,"87":-0.04550586678082736,"88":0.07750014504953796,"89":0.0014315410327469876,"90":0.01304470134548162,"91":0.019204769277157467,"92":0.09819491078163073,"93":-0.04113060938657186,"94":-0.1288825751213255,"95":0.07068557865707482,"96":0.1723647220908029,"97":0.04480702503812897,"98":-0.10868896849612383,"99":-0.06911985034215834,"100":0.10413843157170002,"101":-0.0449415652178105,"102":-0.19990597009211153,"103":-0.12166663256748325,"104":0.056015003004796934,"105":0.019632226373951536,"106":0.0634938425080753,"107":0.03715235759528617,"108":-0.0663755308674162,"109":0.2557199921249124,"110":0.02996389650841399,"111":-0.07260846089888136,"112":-0.058802606551940965,"113":0.08746189264464775,"114":-0.05185196211438119,"115":-0.09587696116239627,"116":-0.05321904598946309,"117":-0.033823229408808365,"118":-0.0028757649581105105,"119":0.04746403124417995,"120":0.06713403968651639,"121":0.12552431628148444,"122":0.04905774297362505,"123":-0.12979972719817273,"124":-0.0851223921165438,"125":0.04043595192474829,"126":-0.08616428066513333,"127":-0.025984819219470413,"128":-0.07520549442574591,"129":-0.11105238674793627,"130":0.015692361104056213,"131":-0.056525392930115374,"132":0.03461602291444094,"133":-0.04800864027749197,"134":-0.14665244493812332,"135":0.0826865823787436,"136":-0.14906585628879504,"137":0.2146962222530272,"138":-0.06562178885857475,"139":-0.05820534594643828,"140":-0.13051227049518932,"141":0.10384817646664747,"142":-0.052163887505471074,"143":0.04132305998323345,"144":0.020903183988809415,"145":0.12096938671289681,"146":-0.06263213653140291,"147":0.009721329705100751,"148":0.010464344308351558,"149":-0.1139360929958607,"150":-0.024525181305215905,"151":0.03498014827396573,"152":-0.03446921590225672,"153":0.024020712823817368,"154":-0.037331746397148265,"155":0.05708191116963425,"156":0.005430748516871296,"157":0.004969280689276513,"158":0.05447719047406872,"159":0.05846325312040913,"160":-0.05564812629699952,"161":-0.06505520277320419,"162":0.1297155065935998,"163":-0.12448588255383139,"164":0.017889591780039783,"165":-0.0029270920029617446,"166":-0.16220635027302455,"167":-0.0809852918687248,"168":-0.05034309565351353,"169":0.0012337556461738247,"170":-0.021163857753266808,"171":-0.1002985566316342,"172":-0.015899745175270007,"173":-0.06713624795272602,"174":-0.11924847538996784,"175":0.02245741373280361,"176":0.018481626700207556,"177":0.016988928372196878,"178":0.04469480012488542,"179":-0.026949858347169064,"180":-0.0699574205011726,"181":0.1509416941437373,"182":-0.0032714659254170003,"183":0.00564993549984364,"184":-0.18557177915133266,"185":0.1533763495994897,"186":0.025540460246221974,"187":-0.061630612481157344,"188":0.028683894217129396,"189":-0.0883100620259814,"190":0.02381776696431032,"191":0.01401598757503507,"192":0.026798587896811707,"193":-0.11988878047743702,"194":-0.03779944380137163,"195":-0.01580133275815297,"196":0.059563092175370876,"197":-0.009277948625906236,"198":0.057374353494868545,"199":-0.019808519605345083,"200":-0.026873265611708937,"201":-0.21715892366091155,"202":0.041102471154486016,"203":-0.07363023935144578,"204":0.10974647950984247,"205":0.05688829489782058,"206":0.23641400406377397,"207":-0.028053515736426317,"208":0.0319221579948696,"209":-0.09421181367445015,"210":-0.09228269194008099,"211":0.00023381656571611263,"212":0.22783938004487392,"213":0.06635089245924936,"214":-0.03283440200204994,"215":-0.132571039344279,"216":-0.13120305790687478,"217":0.040057624285998406,"218":-0.05621476447048491,"219":0.052005368441233164,"220":-0.16760460493380416,"221":-0.06273461210767425,"222":-0.06761088459463394,"223":0.0441749138060731,"224":-0.004737978961435829,"225":-0.29851354258508817,"226":0.015263531345890893,"227":0.09344986709289868,"228":-0.13896256142109997,"229":-0.09207611797652683,"230":-0.014380461188234916,"231":0.09488078210202741,"232":-0.11742967928534477,"233":0.1571093280193691,"234":0.11053271478723674,"235":0.05690005195584559,"236":-0.05087127540854039,"237":-0.055580652571304186,"238":0.08083790029294065,"239":-0.025659545672104656,"240":0.027126949559177386,"241":-0.2377478695584298,"242":0.11911373455835744,"243":-0.05434561418088103,"244":0.13322817166951503,"245":-0.04226364731149156,"246":-0.07459118830330308,"247":-0.1102281123496788,"248":-0.03149963001731724,"249":-0.025245445620564643,"250":-0.04226179682767173,"251":-0.2032354495882279,"252":-0.10781565512024828,"253":0.026277630969406145,"254":0.06372962726348891,"255":-0.04688309045890914,"256":-0.0013125193389510856,"257":-0.002830947342760957,"258":0.029870792472166032,"259":0.05069289066440794,"260":-0.050058318900966584,"261":0.018127624610391583,"262":-0.058708717682161994,"263":-0.010050877297048821,"264":0.07173198294686155,"265":-0.014472235111903167,"266":-0.042042623125042936,"267":0.07190911337424179,"268":-0.109470497386769,"269":-0.046178988163662116,"270":-0.08238935123507464,"271":0.13558153278619278,"272":0.053531304728460904,"273":0.003957990673534548,"274":0.13687579715713233,"275":-0.03184907413635048,"276":-0.02112490465529445,"277":-0.1389014602783039,"278":0.01259969913413743,"279":-0.02406824118829212,"280":0.011157186026174421,"281":-0.06569489224877897,"282":0.1143564285369411,"283":0.05516128854950138,"284":-0.0741847424074651,"285":-0.10878519213499022,"286":0.021076538175669728,"287":-0.0235282036813436,"288":-0.031868765126025426,"289":0.1436875633284641,"290":0.01901989653098239,"291":0.08061380258352478,"292":-0.16446933662697252,"293":-0.002513548423628408,"294":-0.11093703102194308,"295":-0.15906114720907644,"296":-0.15359181462181576,"297":-0.0034264071938204387,"298":-0.002569871924151716,"299":0.04507266740118175,"300":-0.011182507982998954,"301":-0.014597197179269815,"302":0.033416132665108546,"303":0.08978948365494317,"304":0.018382330432241276,"305":-0.06602150897222885,"306":0.031754677233857824,"307":0.053988323787452656,"308":-0.08428151268400264,"309":-0.01755026490418807,"310":-0.011859817639789591,"311":0.013400264156911578,"312":-0.07995923132531141,"313":-0.21767520085270395,"314":0.18581051521251876,"315":0.06370454178525797,"316":-0.17398337289396315,"317":-0.046624240482475154,"318":-0.0661774459661923,"319":0.013701662075963572,"320":0.09294654356912614,"321":-0.05309127973312943,"322":0.037739017725272675,"323":0.09138558998314124}},{"sx":1,"sy":1,"depth":324,"w":{"0":-0.05194609641188486,"1":0.1347638893199609,"2":-0.10966194024076481,"3":0.03491201848821554,"4":-0.022972104316951708,"5":-0.025666798372099692,"6":0.0058927263479233,"7":0.060200395296752564,"8":-0.029788396315673493,"9":0.037209231655314895,"10":-0.09470440282171254,"11":0.08537756438388867,"12":0.04353426154795266,"13":-0.03969620628271003,"14":-0.04484510522720172,"15":-0.13805385505415033,"16":-0.009393262501197406,"17":0.014600502350982956,"18":0.03657592687702239,"19":0.01761725925512832,"20":0.04505729454449286,"21":0.08744949887352851,"22":0.10812324178946507,"23":-0.0362599607740427,"24":0.05988437947391406,"25":0.01041100293209691,"26":-0.03295447571995576,"27":0.050670089844606796,"28":0.029181959944673274,"29":-0.03798447029357647,"30":-0.03354628792612394,"31":0.026584292970307708,"32":0.07611469236479397,"33":0.08009749087620242,"34":0.012099559623660853,"35":0.05616551679341651,"36":-0.06658846390988718,"37":0.09507886270478394,"38":0.04245305010334762,"39":-0.028163489485211704,"40":0.07771530274615562,"41":-0.014617732446361999,"42":0.012153848926531086,"43":0.02343858612726906,"44":0.06390773177050797,"45":0.011494348625457803,"46":0.017862694788864028,"47":-0.05422235298446227,"48":0.07026668559036836,"49":-0.08035152397649305,"50":-0.05386528631774026,"51":0.028402773815531926,"52":0.09134768063751952,"53":-0.11224688023438259,"54":-0.09762030943912633,"55":0.048251735987978064,"56":-0.061702298321740914,"57":-0.06386741001270657,"58":0.04899856298012602,"59":0.04084934346353784,"60":-0.035393531144491786,"61":0.09760974105633499,"62":-0.025288912110355794,"63":-0.0746807380537845,"64":-0.15581682860000268,"65":-0.02815053544497,"66":-0.1828530502785254,"67":-0.03557183381836659,"68":0.005569184310015292,"69":-0.1303399649858754,"70":0.029817793755383747,"71":-0.039800090011666164,"72":0.034293853854658045,"73":-0.041606947074271386,"74":0.01919166781002183,"75":-0.009217467103771007,"76":-0.11943089396175526,"77":0.03773766643106278,"78":0.06003687999881547,"79":-0.012551026801167141,"80":-0.07907690728850857,"81":0.011268729753124162,"82":0.04994784825200987,"83":0.024943183496778817,"84":0.04787709568095295,"85":0.08410118000350862,"86":0.0738498719311655,"87":0.016978841325436093,"88":-0.04067818374163569,"89":0.06613229180444286,"90":0.09188285660552076,"91":-0.005355760022063429,"92":0.002768390167233509,"93":-0.0370294239833872,"94":0.02101981593407372,"95":0.061011228833369124,"96":0.05599219934232456,"97":-0.000796376444904589,"98":0.027195549969397423,"99":-0.0347068571299055,"100":-0.01744559944738153,"101":0.15663742914776102,"102":0.007637269714033185,"103":-0.01569939088663667,"104":-0.01755608239602915,"105":0.0635565752890264,"106":0.03702838856987516,"107":0.01968632036235504,"108":-0.017267456835117427,"109":0.0691225576749995,"110":-0.046234685590088156,"111":0.04893291500117973,"112":0.029645064192931433,"113":0.06905879515159485,"114":0.033627255228071265,"115":0.01769125669944067,"116":0.017757754871356862,"117":-0.05729086268420708,"118":0.11693279142109664,"119":0.05334175970092145,"120":-0.1234466644009423,"121":-0.03400473370355275,"122":-0.08495360241220128,"123":0.02845598619837939,"124":0.02061126015464641,"125":0.039962093167547744,"126":-0.03789994778271268,"127":0.04402355680972969,"128":0.02572094714764314,"129":-0.09692491432188038,"130":-0.07506093142663116,"131":0.04363048202634372,"132":0.002879302584400249,"133":0.13374859940941933,"134":0.0028194025380428216,"135":-0.1115046580627714,"136":-0.04582659109041071,"137":0.05671455383742133,"138":0.08340941284885754,"139":-0.02969023532764249,"140":-0.05463464239463093,"141":0.03938588270751294,"142":-0.014178769445608927,"143":0.0034939408417317816,"144":-0.013422555282638783,"145":-0.10515724123179683,"146":0.005249586492796405,"147":0.0623851707713858,"148":0.013695972577507388,"149":0.03411097878199834,"150":-0.07418197435270113,"151":-0.06473185720402419,"152":-0.025508362867609085,"153":0.030653628081653058,"154":0.07743984585497128,"155":-0.10115879556102393,"156":0.06158445111276356,"157":0.1262486000509267,"158":0.07328689055566906,"159":-0.015068429907920504,"160":-0.09099070328485279,"161":0.08517690729723258,"162":-0.00030700972149826214,"163":-0.07157540689072696,"164":-0.03162155683778608,"165":0.06219021776634484,"166":-0.10163220326437013,"167":0.008850875868966688,"168":0.06405639295661271,"169":0.08867442294669377,"170":-0.09094935640915118,"171":-0.10895936024450532,"172":0.09070755951980855,"173":0.024873899160879905,"174":-0.0310268446010923,"175":0.03223786756810662,"176":0.06353659158131979,"177":0.013397153364081897,"178":-0.04043973636143884,"179":0.15295933668755202,"180":0.02476642529331016,"181":0.10704081520648914,"182":-0.006952182253293867,"183":-0.029387516801864532,"184":0.06752281553259902,"185":0.09482279909880581,"186":-0.06355215210621402,"187":0.00329911586860079,"188":-0.0342779271054076,"189":-0.048032608228065134,"190":0.026514380852009477,"191":-0.01963439350706268,"192":0.03760150112922999,"193":-0.018058840463537004,"194":-0.03636053893720087,"195":0.03420237263466991,"196":0.004469429274171832,"197":0.03597554158731837,"198":-0.05990518280037041,"199":0.08088382646382468,"200":-0.03840330065215738,"201":0.019338807747573714,"202":-0.1578172485452607,"203":-0.08596723918037288,"204":-0.09680526105799608,"205":0.010878362575944623,"206":0.07795732271960788,"207":-0.07244141569275489,"208":-0.050810192242123096,"209":-0.11476778391919105,"210":-0.05926646797324852,"211":0.020214324676149642,"212":0.009446777401478508,"213":-0.07304010518558719,"214":-0.1175662350220407,"215":0.06865509815736275,"216":-0.04777332349593322,"217":-0.005331141282283646,"218":-0.06013125102535782,"219":0.02033870851366986,"220":-0.06833944021862678,"221":-0.06493648702382063,"222":0.07468807667072266,"223":0.05856255410039239,"224":0.14887973263691492,"225":-0.021573156897137336,"226":0.03605782424307977,"227":0.07987939490995208,"228":-0.02039127479397574,"229":-0.06431072643310197,"230":-0.08315196044877599,"231":-0.01990082783223236,"232":0.010572148989294186,"233":0.06424618515540004,"234":0.008606945547198302,"235":-0.05486503675210419,"236":0.0510552716759486,"237":-0.020752121854795195,"238":-0.024540266628214517,"239":0.0944015045820912,"240":-0.07646126229129498,"241":-0.0691678746955368,"242":-0.03304064436937729,"243":0.058833087992377006,"244":-0.062451898468655946,"245":-0.17474594561629644,"246":-0.1439313163560701,"247":0.008281167348485614,"248":-0.04832503668584704,"249":-0.0676411503255197,"250":-0.011064209279582373,"251":-0.01686664325194235,"252":0.03574879107944458,"253":-0.11127521193450537,"254":0.06364291247926895,"255":-0.01466391187005541,"256":0.004609499290217121,"257":-0.02718645534972858,"258":0.01605466883166072,"259":-0.12911138917226447,"260":0.06644981496028746,"261":0.03640880908571132,"262":-0.033383730508859566,"263":-0.040305145852751925,"264":0.050710926187954836,"265":-0.05213929755619677,"266":0.01676472868371624,"267":0.03756384969279441,"268":0.0066549085008442786,"269":0.1036310225397968,"270":-0.04601941979607408,"271":-0.08062551577695248,"272":0.007102736808717949,"273":0.033417314774464836,"274":0.0827848739302869,"275":-0.05331016409150208,"276":-0.0838948313999118,"277":-0.0403131621540296,"278":0.11350235818683885,"279":0.06714863364472695,"280":0.013827251571786811,"281":0.032213878174944796,"282":-0.03492605636987488,"283":0.07526184345158865,"284":-0.11518062127269617,"285":0.09273257659844303,"286":0.05430384127559092,"287":0.034626890037334386,"288":-0.024676318154363195,"289":-0.08984210254100153,"290":0.009358052657172593,"291":0.11047568946856881,"292":-0.02911991127646605,"293":-0.020382694220520404,"294":0.07042392379895178,"295":-0.04510562425780276,"296":-0.08828463614561059,"297":-0.011254000200442763,"298":0.030832838872171607,"299":0.037589889532409215,"300":0.01833160703858687,"301":-0.0919662585698095,"302":-0.07674360899918213,"303":0.03990612162046816,"304":-0.06334866919138203,"305":0.006434531100128021,"306":-0.07863970827037729,"307":-0.009011458420427531,"308":0.05474780714170856,"309":-0.021969619079411428,"310":0.01266246286404794,"311":0.0013811893508215742,"312":0.03289033414350655,"313":0.060618007852579425,"314":-0.0019259244654863718,"315":0.0487582274996446,"316":0.08832247457052697,"317":-0.006967023278429623,"318":-0.06152969304410173,"319":0.051042161543025606,"320":0.01073631012223027,"321":0.08856485115406484,"322":0.026681461366344906,"323":-0.034571157537873334}},{"sx":1,"sy":1,"depth":324,"w":{"0":0.027485100671459897,"1":0.00699341565791198,"2":-0.07593516869841647,"3":0.12608826188224553,"4":0.006704334108872772,"5":-0.12596008596399694,"6":0.07896443333905298,"7":-0.01889390701358996,"8":-0.06120502501073971,"9":-0.004120100212953336,"10":0.0055618962626835435,"11":0.008795658974008521,"12":-0.025766248562395407,"13":-0.1075907330841457,"14":-0.03521249320108806,"15":-0.051828217156433154,"16":-0.10502391116716492,"17":-0.028077260229066803,"18":0.12451350751807061,"19":0.02532457368649414,"20":-0.10185061389400436,"21":-0.010129607910417716,"22":-0.09382612153023336,"23":-0.005798545203332979,"24":-0.06310536846221576,"25":0.10867488465763171,"26":0.05525065110129304,"27":-0.02217888301351473,"28":-0.09529585959158242,"29":0.03368653129576435,"30":-0.0018198543255000539,"31":0.02420685863761932,"32":-0.01246183260070557,"33":-0.09889226617544958,"34":-0.017030241304324373,"35":0.027733768286567952,"36":0.07504099923017696,"37":0.10390828253510319,"38":0.012889370589710318,"39":-0.027352395266774198,"40":0.07282745338820851,"41":0.03577063829170558,"42":0.051498668642893645,"43":0.037287613017903565,"44":-0.08716802871533784,"45":0.06512394516381562,"46":-0.03019612997218646,"47":-0.08198911354903883,"48":0.03452387523807943,"49":-0.004908974180581051,"50":0.0441459131632249,"51":-0.04739860392287007,"52":0.08360576140088637,"53":-0.01983733138051652,"54":0.07124891894216434,"55":0.08540722474987224,"56":0.13543613545069616,"57":0.08086670515824919,"58":-0.015230969570327279,"59":-0.02519649427448237,"60":0.054453759954874406,"61":0.022442210822229674,"62":-0.02470527174042672,"63":-0.050628685853384925,"64":-0.014731558279735626,"65":0.046594317524451166,"66":0.15011235538985482,"67":0.06491312894571932,"68":0.04790997236514945,"69":-0.08085617332769618,"70":0.05198802694497672,"71":0.036389751333803455,"72":0.02328041688090461,"73":-0.023973672600409748,"74":0.051613158051780676,"75":0.06621118147358686,"76":-0.03943324141850879,"77":0.0295870263745592,"78":-0.056213548523915705,"79":0.05120970408247452,"80":-0.06358552636664194,"81":-0.04272244632957473,"82":0.04942422840859461,"83":0.033259900057070836,"84":0.07759625643351013,"85":-0.039085761368496855,"86":0.09097389358369846,"87":-0.014348208407609246,"88":0.03492549341276915,"89":-0.038888396400722725,"90":-0.08176641163935874,"91":0.03409459647447324,"92":-0.004888852975150747,"93":-0.027387862322315812,"94":0.11286801186110129,"95":-0.03716562594167863,"96":0.013966157108222388,"97":0.08742963341969645,"98":-0.013704414878118036,"99":-0.04362642503408808,"100":0.0586155907187285,"101":-0.1317822259316975,"102":0.11936830682481069,"103":0.09264167621418663,"104":-0.11842781576358738,"105":-0.05767251065388341,"106":0.00009083139954810517,"107":-0.016573751286158254,"108":0.07022813491840411,"109":-0.02652328341111032,"110":0.036024530873318805,"111":0.06650694412917654,"112":0.0712153854731204,"113":0.023314871868851512,"114":0.07127767069417443,"115":0.01687645960089233,"116":0.046482261721538805,"117":0.0284087083575236,"118":0.05834940558396784,"119":-0.031323163491121075,"120":-0.06300151830288274,"121":0.10052854107866392,"122":-0.07399491780696604,"123":0.034377957183454946,"124":-0.01946833400617773,"125":-0.0644410887867815,"126":-0.10977185950905356,"127":-0.1223589159560512,"128":0.04587353875846352,"129":0.035914927157739994,"130":0.04060191140304718,"131":0.13044439814164144,"132":0.0937189062112935,"133":-0.07704748233850373,"134":-0.022118868985491088,"135":0.009029873024805396,"136":-0.06279363917285744,"137":-0.05296536799462251,"138":-0.016339027292897674,"139":0.06046448361459874,"140":0.09294832963292982,"141":-0.023682522646144327,"142":0.05925574086278037,"143":0.023194915327158467,"144":-0.0981430077179956,"145":-0.11005835828440577,"146":-0.03847029420069608,"147":0.053292454526580456,"148":-0.052745721388789184,"149":-0.07316425405268019,"150":-0.02803910042204727,"151":-0.06777001555275528,"152":-0.048812272888186896,"153":-0.04722718709798189,"154":0.09107224562442043,"155":0.01405349962294125,"156":0.061024700352172195,"157":-0.0942208113153289,"158":0.037580485519172264,"159":-0.035934964345557936,"160":-0.009011172937706716,"161":0.07498398644697221,"162":0.005487882096190058,"163":-0.04730515056999833,"164":0.08228755349183611,"165":0.09388509704070083,"166":0.07728383736592911,"167":0.050299499338143046,"168":-0.07395140412567937,"169":0.06726184795910148,"170":0.07613492536487558,"171":-0.10089650467920118,"172":0.034457860005819935,"173":-0.0019544769354632873,"174":0.008694657749526049,"175":-0.018908553565770418,"176":0.03833923269930132,"177":0.11421098819350253,"178":0.08885523712962598,"179":0.03503865992150193,"180":0.011157927538396971,"181":0.0015941486905044905,"182":-0.025513501890082124,"183":0.048225156387231634,"184":0.03460826600789026,"185":0.08079722250524195,"186":-0.02783650901347689,"187":-0.04317447276972785,"188":-0.011197124884112572,"189":-0.015287788285965026,"190":-0.014218715336819131,"191":-0.001818132579171883,"192":0.06838219732475244,"193":0.0035777599260409907,"194":0.005116396575277152,"195":0.053633473738668926,"196":0.17072206600213444,"197":0.09009572746506489,"198":-0.03150042406642356,"199":-0.00987186486070038,"200":0.03154360960020827,"201":0.07751326235567714,"202":-0.0015506604302991229,"203":-0.005624694010973113,"204":0.0008511497637226275,"205":0.08306358668889582,"206":0.033122438657831814,"207":-0.0036983983737985094,"208":-0.04169688375549349,"209":0.041903557105620486,"210":-0.06046251873546326,"211":-0.029308408302916582,"212":-0.11848771508294076,"213":0.05622964489650221,"214":0.04601445728829152,"215":0.03379894930166986,"216":-0.04674302208068675,"217":-0.06982699253773844,"218":-0.04854934624814468,"219":-0.1174032662339904,"220":-0.023022956064959025,"221":-0.05673142066427194,"222":0.03738067723939205,"223":0.028944281042718883,"224":0.08569949282133771,"225":0.017259797706687056,"226":-0.008906424855023928,"227":-0.02315899003995276,"228":0.07079557360150006,"229":-0.07667824358959309,"230":0.04155835113628191,"231":0.0009653264873354893,"232":-0.011713792911733996,"233":0.05022458652397124,"234":-0.04479550056034972,"235":0.12378944031413279,"236":0.05686105693630827,"237":0.07852641491284021,"238":0.08097239078360327,"239":-0.018043288441990275,"240":0.00282589437677573,"241":0.09721567067256986,"242":0.02088336955689581,"243":-0.0083467729464451,"244":-0.15447196054616086,"245":0.014252046776489946,"246":-0.0274342359607696,"247":-0.02356881887067062,"248":-0.0080873137438103,"249":0.14613688287295062,"250":0.004800440015151745,"251":0.1389062147849731,"252":-0.04525263687514803,"253":-0.04100180004355115,"254":0.06050068506351836,"255":-0.059779786638208876,"256":-0.015947428296059354,"257":0.06472459054249041,"258":-0.07450975444116842,"259":-0.05961899548638636,"260":0.04019761723191443,"261":0.050945464774080754,"262":-0.04911342788797373,"263":0.005748151493191038,"264":-0.0391438931655136,"265":-0.06967640911411964,"266":0.01822932802718642,"267":0.04809381550117936,"268":0.0500905601815127,"269":0.014654387024440113,"270":0.10860367450023205,"271":0.02986561802880756,"272":-0.06019742805426278,"273":-0.09351720256749298,"274":0.0015332341633110416,"275":0.1724273135878386,"276":0.008617192701232549,"277":0.03298271987680685,"278":-0.016867489465347364,"279":-0.10920406360090384,"280":0.013739667211800772,"281":-0.07366286516026044,"282":-0.10519506631168794,"283":0.12908806766093875,"284":0.04569201595414416,"285":0.06410966904417743,"286":-0.07676500000544122,"287":-0.014596053012877776,"288":-0.010561536731565697,"289":-0.00014084879670934466,"290":0.08251909946930475,"291":-0.018044093614072047,"292":0.047340007251630054,"293":0.1086748510257757,"294":-0.03130742058799533,"295":-0.058943568723833564,"296":-0.03594210724752307,"297":-0.026920680476913088,"298":-0.03408195838076028,"299":-0.07776939525858689,"300":0.0067567857958324,"301":0.10335593974890256,"302":-0.11144641973452364,"303":-0.015672772297259715,"304":0.029688465766481605,"305":-0.020181164457682314,"306":-0.05799570388417602,"307":-0.04382190259618735,"308":-0.009422157878052223,"309":0.01572864318201057,"310":0.07590315363434216,"311":-0.03168492242072686,"312":0.02719768677986876,"313":0.06941464189837755,"314":0.05014016702605269,"315":-0.0006476690896330053,"316":0.16318509884256424,"317":0.07505160572801708,"318":0.09463965936322058,"319":-0.05132326680711239,"320":0.09705547584075291,"321":0.04437458705429685,"322":-0.03426599569696727,"323":-0.04550074905704896}},{"sx":1,"sy":1,"depth":324,"w":{"0":0.03241363187342026,"1":0.028102287778598786,"2":-0.013588809041662219,"3":-0.12294539996932832,"4":0.021085372642949095,"5":-0.10537424246470516,"6":0.03567924257346458,"7":-0.010705797455747849,"8":0.03976488130865688,"9":-0.0805774550337005,"10":-0.06053209962826419,"11":-0.034253501894117,"12":-0.06051839158065869,"13":0.09527059519680789,"14":-0.17487746973977322,"15":0.014237857673950798,"16":0.04558474564377579,"17":0.07611400528648306,"18":-0.058340826638618795,"19":-0.10494250740944751,"20":0.08656516048659439,"21":0.0996297549975579,"22":-0.04971979791279979,"23":0.011212799750711913,"24":0.03549675178670296,"25":0.07564519237940925,"26":-0.011425876484150407,"27":-0.03688304139628685,"28":0.016878408074840607,"29":0.12235143174261244,"30":-0.02469096466945198,"31":-0.18255356947055415,"32":0.030404835816567458,"33":0.0048566423398909335,"34":-0.04328877907877638,"35":-0.141273230916062,"36":0.05475120808745577,"37":0.05300556853986177,"38":0.17417745543488147,"39":-0.21675005422709873,"40":-0.042801574085382835,"41":-0.1223634815649538,"42":0.07248505299356449,"43":0.04709429564614337,"44":-0.017341634785066718,"45":0.17412523594336338,"46":0.02940506474173721,"47":0.018779797058090852,"48":0.15321257442237038,"49":-0.10445439558618468,"50":-0.00461611824038466,"51":-0.042175399657929644,"52":0.06251590628227877,"53":-0.10483088039564954,"54":0.09995489288521683,"55":0.06900518756790304,"56":-0.09609235041471792,"57":-0.008602701625979127,"58":-0.15717341861089423,"59":-0.053336586446413266,"60":0.009411210058845,"61":-0.006478850192103712,"62":-0.05307980983754195,"63":0.10650286105176275,"64":0.006515221058112179,"65":-0.11582067662984424,"66":0.06491588371938561,"67":-0.03549622860529846,"68":-0.02963143765854746,"69":-0.05446932897745819,"70":-0.1709067511148751,"71":-0.14266522620259,"72":0.2626992669733808,"73":0.08004298185411092,"74":0.04252840384399219,"75":-0.08031724743428391,"76":0.20447006803314086,"77":0.08280050196239075,"78":0.12419891893336477,"79":-0.020334749376688343,"80":0.09896409105856738,"81":0.10838834006273552,"82":-0.029657512407150054,"83":0.044439503569925966,"84":-0.0662197112951882,"85":-0.10765907318076341,"86":-0.2673722206802062,"87":-0.01949337597468784,"88":-0.02619805925600449,"89":0.19338334292249454,"90":-0.06530758730671879,"91":0.05041273121167197,"92":-0.0007402557137923242,"93":-0.05926661985055039,"94":0.1086060120944439,"95":-0.11608384460494396,"96":0.09519977287479493,"97":-0.029183106049530155,"98":0.135318639646715,"99":-0.06654720828650976,"100":0.12284171896639902,"101":-0.05010017163033905,"102":-0.110603838772136,"103":0.03678245430098495,"104":0.049762024634777156,"105":-0.020378115969575766,"106":0.0365283857825483,"107":-0.035265918891273104,"108":0.06446198369338842,"109":-0.07310628092037713,"110":0.045471204136489564,"111":-0.11338595239943842,"112":0.0034347190893607563,"113":-0.08871467387976859,"114":-0.03949834855108535,"115":0.0909273487178089,"116":0.1460669377458544,"117":-0.07176679556505618,"118":-0.07540583838526689,"119":0.1442710981591826,"120":0.059267461568719704,"121":-0.049620064053789825,"122":-0.05823161089226978,"123":-0.07839790499457219,"124":-0.02363603093267005,"125":-0.12937462176764264,"126":-0.13096632047110424,"127":-0.0234509945748021,"128":-0.16200574920842867,"129":0.06713985387446163,"130":-0.020525576224312378,"131":0.1880043548217408,"132":0.005433136266427568,"133":-0.04616612255168729,"134":-0.13832997775150904,"135":-0.0148017320994919,"136":0.11995277388775441,"137":-0.006334705512614117,"138":-0.04414278557958412,"139":0.06824879712854447,"140":-0.08547302161472782,"141":-0.052561957080912235,"142":0.06092387230563204,"143":0.1243469767678765,"144":-0.053609976755256736,"145":-0.06723883863120171,"146":-0.01039770993290576,"147":0.06279835104718688,"148":-0.11386845723622904,"149":0.028364730410212678,"150":-0.2218504155107584,"151":0.22236377429227508,"152":0.030373284666173835,"153":0.004025181912749275,"154":-0.11048907567928667,"155":0.12322688594912791,"156":-0.09078906509743387,"157":-0.06018366148675138,"158":0.0865046619681281,"159":0.09127906799915571,"160":-0.09696129708883235,"161":0.04476851745993947,"162":-0.1966546698432274,"163":-0.022161883152201228,"164":-0.11905896830539005,"165":0.008089355800421113,"166":-0.10114648157589688,"167":-0.010316751407239515,"168":0.07078229486245784,"169":-0.07848978015489058,"170":0.02248637352888974,"171":0.051711632107362876,"172":0.1285637843913405,"173":0.04360001736922845,"174":0.12354247937784074,"175":0.16314522567359718,"176":0.08211736679997779,"177":-0.039388360382396674,"178":-0.07813351326558449,"179":-0.11327609902998757,"180":-0.029802393280644268,"181":0.047571298922408876,"182":0.1487053948648903,"183":0.02816785682226322,"184":0.02572415631530118,"185":-0.02782387044386179,"186":0.09295904875705102,"187":-0.053767320467146724,"188":0.04325969504545148,"189":0.04060893104609571,"190":0.007236867301563115,"191":-0.13347784404710794,"192":-0.1017223149079808,"193":0.020096009400912572,"194":-0.021732077989139884,"195":0.14215281664757026,"196":-0.010700481617448165,"197":0.011077387818107376,"198":-0.08242663988276241,"199":-0.09745570985668138,"200":-0.003832185957441239,"201":0.06535574200215102,"202":-0.05342977881795793,"203":-0.057293150268162375,"204":0.036558469378077656,"205":-0.024164901777623975,"206":0.21623415098660329,"207":0.026093378336420187,"208":0.03413471203526872,"209":0.08680872099708217,"210":0.08454870398146688,"211":-0.0747342774342279,"212":0.16869919137044484,"213":0.037878433839366135,"214":0.04469770552425007,"215":-0.07871640026287649,"216":-0.13111291764779118,"217":0.08679447264176898,"218":0.008356197466905508,"219":-0.08592753873762439,"220":-0.09517668658249272,"221":0.25291225751415325,"222":-0.12696607033327711,"223":0.05940689496497545,"224":-0.0401708880967242,"225":0.020200169576445832,"226":0.1273579678782835,"227":-0.016364579394299566,"228":-0.07404468831463741,"229":0.06069265603323393,"230":0.06442990050202271,"231":0.04955352815254077,"232":-0.16434715162293864,"233":0.029441876462466085,"234":-0.0947154510614765,"235":0.022385543770483678,"236":-0.12253178280973762,"237":-0.000051756987480637086,"238":0.07568026463525329,"239":-0.05710016750716402,"240":0.04727103462962739,"241":-0.14022660890401223,"242":-0.11451478518492203,"243":-0.021125643488750734,"244":-0.11056928227808528,"245":0.01429696180108647,"246":0.17590393871799878,"247":-0.0321250504030269,"248":-0.14660091440071754,"249":-0.059897149571478736,"250":-0.05917304825062372,"251":-0.05264441410816235,"252":0.08625925617972698,"253":-0.14520688224949027,"254":-0.05510705389531973,"255":-0.12842177029483967,"256":-0.2941563552966313,"257":-0.12263120811391802,"258":-0.04144854888499329,"259":0.2708833901007574,"260":0.02613239806248999,"261":-0.0656808728156429,"262":-0.08318847063872982,"263":-0.07123681876376102,"264":0.053096121231335405,"265":-0.02371753370223712,"266":-0.13090114684242224,"267":-0.0821921017238643,"268":-0.080741005043174,"269":0.14537693502838347,"270":-0.11398591565977857,"271":-0.17404477053133327,"272":-0.017492551194134887,"273":0.16658491690465638,"274":-0.14162304748497367,"275":0.04533067825347604,"276":0.14747725305768053,"277":-0.05781673306406117,"278":0.09538972811566603,"279":-0.16240359404183297,"280":-0.09968180076525879,"281":-0.03837217122360908,"282":0.017700005012924333,"283":-0.194409601640138,"284":0.020587037061704828,"285":-0.08345147023031245,"286":-0.11404991113871235,"287":-0.03429186483291411,"288":-0.06508268109546923,"289":0.032823697014027174,"290":0.15628303222202905,"291":-0.13490232588871043,"292":-0.07834671674530574,"293":0.07582532274046432,"294":-0.013278268130400664,"295":0.022134082116894768,"296":-0.026549799099235775,"297":-0.031849675496355555,"298":-0.02118488252728231,"299":-0.060960948846086785,"300":0.11798167550491823,"301":-0.051161321820825736,"302":-0.09733331152773823,"303":0.11216208811416875,"304":-0.0010834037700896471,"305":-0.00575263489256402,"306":0.11433823150207305,"307":0.12211860877560976,"308":-0.11308243897527284,"309":0.09588282161949159,"310":-0.014800531681472103,"311":-0.008287089191849529,"312":-0.15294817511148223,"313":-0.11674922550927262,"314":-0.09973387458704774,"315":-0.08189914539424939,"316":-0.11599237930200387,"317":0.12304194130712529,"318":-0.15057498843614867,"319":-0.13102562313007932,"320":-0.061989349184880596,"321":-0.012168560312023265,"322":0.029164302850119377,"323":-0.15507977558976477}},{"sx":1,"sy":1,"depth":324,"w":{"0":-0.11088134631709218,"1":-0.031364239455557295,"2":0.024796653861755908,"3":-0.0758174287718692,"4":-0.07736274550218984,"5":-0.07277291241856804,"6":0.0840938391772271,"7":-0.03500294862274435,"8":0.06810831222302115,"9":-0.05103461643426564,"10":-0.15326179334595258,"11":0.017317811511876374,"12":-0.0694720517120859,"13":0.02577290573215415,"14":0.02113398852784353,"15":0.004861355009118376,"16":0.14422613849235716,"17":-0.04468758969227336,"18":-0.14639599177324528,"19":0.12414019799743474,"20":0.0015491709583672938,"21":-0.1419808274987044,"22":0.04694760611152172,"23":0.035843401935933196,"24":-0.003442925181380322,"25":-0.04251981852375645,"26":0.10659042006022058,"27":0.0789768805859473,"28":-0.030253426017862704,"29":-0.1263264291506972,"30":0.018715959259505862,"31":0.04104135877536744,"32":-0.008190428209827754,"33":-0.08513491269748881,"34":0.04307522054418045,"35":-0.06108609246579368,"36":0.07575913070623803,"37":-0.04668245913980524,"38":-0.1513256961389988,"39":-0.058899472900415833,"40":-0.012813707216837644,"41":-0.08977036663015021,"42":-0.018215469717400744,"43":-0.030152619128100015,"44":-0.10387040097649464,"45":0.10168900353857134,"46":0.06292018439246082,"47":0.022383037357540683,"48":0.06412045301454371,"49":0.04106914533814615,"50":-0.017461316010107922,"51":0.09054743010445582,"52":-0.03548086839615021,"53":-0.057894751391840846,"54":-0.014551792261305334,"55":-0.017328984273438857,"56":0.11426976409453989,"57":0.06314554308131567,"58":-0.07081697999717627,"59":0.05875263501575886,"60":0.0054287507289775,"61":-0.09635597936853892,"62":-0.05972256435171059,"63":-0.05526917737840503,"64":0.05581123196953754,"65":0.03697992861203506,"66":-0.06567767167792418,"67":0.003942105080767132,"68":-0.004672696033857632,"69":-0.043834699213336034,"70":-0.07373949265190731,"71":0.13068740186029437,"72":0.05504145017041559,"73":-0.06283963320684607,"74":0.10929517730733532,"75":0.017299695261273347,"76":-0.15240395913562418,"77":0.11083001650452927,"78":0.12488219992813027,"79":-0.017440490405889377,"80":0.02644365831299825,"81":0.07953951765462676,"82":-0.04862495637007879,"83":-0.038333862489023436,"84":-0.0008155035307014488,"85":-0.11872525489015633,"86":0.05675464029494198,"87":0.033682012238184254,"88":-0.004664592731350335,"89":-0.08104080696022758,"90":0.011318108609410836,"91":-0.002425898229274625,"92":-0.00017573078775762728,"93":-0.07883002305745108,"94":0.013960601633700888,"95":-0.055618670055047066,"96":-0.07737282911494699,"97":-0.028497334768075446,"98":-0.010637398036837277,"99":0.0021388185249915023,"100":-0.07886063971516065,"101":0.0006308280279675689,"102":0.09847862244299825,"103":-0.07342506974384051,"104":-0.014046070720427906,"105":-0.033970096131292774,"106":0.013168052069347671,"107":0.16272418766888092,"108":0.1449314729175925,"109":-0.1479782340429307,"110":-0.011118635488219912,"111":0.030405427068051764,"112":-0.021408085423949817,"113":-0.03749476421538651,"114":-0.07180356111754636,"115":-0.10824465706322507,"116":-0.040162471522490514,"117":-0.03191484689084438,"118":-0.07668399744143849,"119":0.08321051474423193,"120":-0.029894071618599492,"121":0.006419805300106031,"122":-0.03185702559937808,"123":0.03677691890630044,"124":0.0026233720498792033,"125":0.004199650116684869,"126":-0.08903778007882276,"127":-0.03138266613461075,"128":-0.0492194459441869,"129":0.08185638523229428,"130":0.040090838853940075,"131":0.0014404979723231632,"132":-0.03769213694456105,"133":0.02708895637381465,"134":-0.00907465562652274,"135":0.07008914640091968,"136":0.1026389992601717,"137":0.07309936993598758,"138":-0.0225197205510621,"139":0.1213639241992609,"140":0.05962487904117264,"141":0.11164908106450584,"142":-0.055406518618492856,"143":0.00983466311228899,"144":0.01461093009013594,"145":-0.030731002590900766,"146":-0.10839311776178945,"147":0.11599782906213034,"148":0.014572521715018993,"149":-0.010411817523082456,"150":-0.063259503939135,"151":-0.06943207035173268,"152":-0.016646293716414077,"153":-0.06813589301345688,"154":-0.08465676692322241,"155":-0.02521377270773822,"156":0.07178417590069788,"157":-0.08238930780573074,"158":-0.002550083529945507,"159":-0.12906788155890278,"160":0.03769831518921468,"161":0.040963825750699595,"162":-0.0015586828795169604,"163":0.15946355405882548,"164":-0.03543597709340471,"165":0.005537127674674707,"166":0.058691850717280135,"167":-0.0440492830921224,"168":0.019816598246743283,"169":0.016380626184400213,"170":0.07345875013308024,"171":-0.12922500130281592,"172":-0.030157609588365962,"173":0.007453184466082193,"174":-0.015588681235880981,"175":0.042629920768206764,"176":-0.026247053666130733,"177":0.0360758172544098,"178":0.015018098294384106,"179":-0.06759013275736898,"180":-0.10963103841298295,"181":-0.11231283485464841,"182":0.016024582436336678,"183":0.019582237781614227,"184":-0.06043788082183097,"185":-0.06853653994807829,"186":-0.1293697013898038,"187":0.033630509685586674,"188":0.0693433873450595,"189":0.027175597815915192,"190":0.00029653815047631733,"191":-0.07881908481364194,"192":-0.04263488853500424,"193":-0.08097407440335548,"194":0.0450037539172679,"195":-0.10234821306243905,"196":-0.03616017498550559,"197":0.04981338058824103,"198":0.04994064573448963,"199":0.06282781467903667,"200":0.08624488655771878,"201":0.041638691703968465,"202":-0.13992464180030287,"203":-0.04378036661953926,"204":0.0012483182444330773,"205":0.11939230739658711,"206":-0.03649267070276061,"207":-0.016828349196216535,"208":-0.10718142366265224,"209":0.06287076795631157,"210":-0.11684703274146659,"211":0.07843731890817768,"212":-0.08268463797241345,"213":-0.07609050611467644,"214":-0.022716451457365353,"215":-0.01636972076211237,"216":-0.05919508350547754,"217":0.07252892953262957,"218":0.010372408952115022,"219":0.03595368934011633,"220":0.005052669031614385,"221":-0.14661571609349017,"222":-0.021328532234710575,"223":-0.010420977977442932,"224":0.03497033860834092,"225":0.07061661418516128,"226":-0.06556827074092143,"227":0.08273747565669454,"228":0.028849939930880975,"229":0.009370928392167816,"230":0.07268723531531421,"231":0.005277794514909391,"232":0.0748208113179473,"233":-0.06793241887608455,"234":0.01248535889077858,"235":0.0957318633025687,"236":-0.0645079502668349,"237":-0.16740899806722945,"238":-0.01373860891575473,"239":0.11292156992829606,"240":0.13257503520359798,"241":-0.038800480226891726,"242":0.08392816304269021,"243":0.05742248593372715,"244":-0.07442290079476804,"245":0.02468610199139151,"246":-0.0785104404775731,"247":0.12288215314829078,"248":-0.11117677113097973,"249":0.018615241896109566,"250":0.01836974539404255,"251":0.033737070396430924,"252":-0.08307717381573233,"253":0.07155285864574262,"254":-0.028801986993808162,"255":-0.04992745717592601,"256":-0.08613767258088541,"257":-0.04280155435757558,"258":0.05309406995317063,"259":0.049855671000581574,"260":0.0414159347339398,"261":0.046526003353252326,"262":-0.06812025180403504,"263":-0.029523726286522965,"264":-0.10167170182090596,"265":0.042924573190282936,"266":0.0018524134294748205,"267":0.03867646887433888,"268":0.0691092499027668,"269":-0.010429979216610189,"270":0.057158168616882526,"271":0.0901021482322224,"272":-0.05763323078280664,"273":0.13115061965396285,"274":-0.006455550390631435,"275":0.09678428475943358,"276":0.01459149198642997,"277":-0.09363474373123862,"278":-0.04920691199473688,"279":0.013290050381005896,"280":-0.03413807278183925,"281":-0.01953369443092771,"282":0.026168449544463568,"283":0.0681909909583178,"284":-0.03273965365353049,"285":0.018747844001441694,"286":-0.06355976027926176,"287":-0.12865746311012274,"288":-0.003450398159947261,"289":0.023063752257481362,"290":0.020493256049700304,"291":-0.07077662202326522,"292":0.012942472649789061,"293":0.10595862296720061,"294":0.1106425180382357,"295":-0.049934876339530664,"296":-0.029408287714189574,"297":0.011763703964469708,"298":0.08160241871347049,"299":0.08720123978121676,"300":0.0037826636071188213,"301":0.1170975386038165,"302":-0.027449658137515983,"303":0.043321166115554935,"304":-0.07714493074232012,"305":-0.022097878895365707,"306":0.028095981504187142,"307":0.026380736550657244,"308":0.11115424153366212,"309":-0.011133086731139745,"310":0.07711794928054584,"311":-0.08760377987937798,"312":0.041969815621181635,"313":-0.0029653209394400783,"314":0.1656548515243971,"315":-0.06084062643958116,"316":-0.059331307032255615,"317":-0.04807325310772414,"318":-0.013135657373824645,"319":0.04831403616300958,"320":0.22089420441917412,"321":0.11347903640623494,"322":0.03109367888721279,"323":0.02073883527404681}},{"sx":1,"sy":1,"depth":324,"w":{"0":0.008671267367363173,"1":0.011473277955878712,"2":-0.10502447222898212,"3":0.004684438304851403,"4":0.11412185711030667,"5":0.09733723734282054,"6":-0.029395373929720095,"7":-0.03710583597969693,"8":-0.058270401751589304,"9":0.03903969711933059,"10":0.12684158316860092,"11":-0.05258340100750449,"12":0.011203146457847849,"13":0.0514030725143339,"14":-0.06689990684245449,"15":-0.13318384589868673,"16":-0.0077864455137769475,"17":0.024307167033767778,"18":0.03039185379459033,"19":-0.005370129018765021,"20":0.08004778715442261,"21":0.13983591567005582,"22":0.0005091371044524645,"23":-0.058907777928388964,"24":-0.029917756653372648,"25":0.26589987061429443,"26":0.008965106012172763,"27":0.050729432438088876,"28":0.004544371108734175,"29":-0.004084709198084871,"30":0.0664217470966262,"31":-0.003513123224190721,"32":-0.0182087797459817,"33":0.03292012753285047,"34":-0.18294128956561134,"35":0.1064083839878162,"36":-0.005243402328556589,"37":0.1972356630364722,"38":-0.08487851923033017,"39":0.04032221849543891,"40":-0.0690684990003925,"41":0.046195692634059496,"42":-0.03794575121173442,"43":-0.18021069204384857,"44":-0.03266978946166714,"45":0.022290899340582673,"46":-0.13019893099925448,"47":0.039736861728647946,"48":-0.04180164291753668,"49":0.2483560682887688,"50":0.010027025748780762,"51":0.029321223172079365,"52":-0.034406615691739806,"53":0.032336880135667836,"54":-0.03447904127874924,"55":-0.11999952452981197,"56":-0.04817505254997293,"57":0.05016762828252363,"58":0.0238145207532076,"59":0.07692966952602007,"60":0.03532521995790757,"61":-0.07880884857328035,"62":0.039196032022935805,"63":0.07378914393532107,"64":0.057409902310481764,"65":0.06156104926296548,"66":0.14176272112006713,"67":0.05178583636184819,"68":0.07833992214577325,"69":-0.058182672572863095,"70":0.051825203587683506,"71":-0.00833286453478881,"72":0.018054509296092775,"73":-0.10429022640978931,"74":0.2658349720997951,"75":0.09467906251687767,"76":-0.07060842402133165,"77":0.044917439526470815,"78":-0.08979412404608865,"79":0.1040560102945599,"80":-0.08181033371867201,"81":-0.17397453248704786,"82":0.09790991217435627,"83":0.07680057528383716,"84":0.002927402624667565,"85":-0.2413924322842119,"86":-0.04028820948366864,"87":0.23545454711905106,"88":-0.10515332858888948,"89":-0.060785930233526686,"90":-0.05781691815059049,"91":-0.07114188530596795,"92":0.22995606957989903,"93":-0.042915942956174825,"94":0.042532932631329456,"95":0.012631058560493347,"96":0.03595948885762977,"97":-0.12949569615296397,"98":0.02208951000364233,"99":0.05288173302857068,"100":-0.0645070137507993,"101":-0.07267709285446902,"102":-0.013922328368801341,"103":-0.11282512512722856,"104":0.21155220545488684,"105":-0.11547002915586455,"106":0.16249798028387663,"107":0.017044506064186844,"108":0.06996704726845261,"109":0.03504642974694602,"110":0.08788169016716046,"111":0.050132118646503736,"112":-0.018838640365516496,"113":0.10323693917309729,"114":0.08368271031087535,"115":-0.048890220549887106,"116":-0.04699716143968375,"117":-0.1368863425070524,"118":-0.0024026502864621774,"119":0.01311016932372265,"120":0.002929425082755713,"121":-0.0563085017229726,"122":-0.0455614545671805,"123":0.009138875178981685,"124":-0.04264601551562425,"125":0.049409005984374116,"126":-0.1041851782811285,"127":-0.11380458522325335,"128":-0.0558789024632738,"129":0.19543408929478503,"130":-0.014782330068672982,"131":-0.0028410428948695927,"132":-0.13960481213269457,"133":0.06019522156901903,"134":0.08675248631942697,"135":-0.13233749824425683,"136":-0.01748575779106009,"137":0.16572086356333524,"138":0.14224923947376944,"139":-0.10809929265486282,"140":0.12160301512321671,"141":0.0619937730534752,"142":0.08354909698459125,"143":-0.07023325223104941,"144":-0.14210541211318828,"145":-0.2193967672175001,"146":-0.04572904385599921,"147":-0.05767577435988535,"148":-0.1174406448263728,"149":-0.03481218452086847,"150":-0.09886763146679023,"151":0.0668235676143732,"152":-0.09634632482783377,"153":0.08151745659188929,"154":0.08036803164104425,"155":-0.09956710867001202,"156":0.03422219226622755,"157":0.08338065992751953,"158":-0.059057858359529466,"159":-0.15615473991013676,"160":-0.01469861027759217,"161":0.019945963369632936,"162":0.028397852262882797,"163":0.02473639898562164,"164":-0.01901436111335155,"165":0.07745162086821436,"166":-0.1481122978386217,"167":0.13277578616029453,"168":0.017383503288531683,"169":-0.08210462585329277,"170":-0.0005006903654006493,"171":0.05514850803730306,"172":0.05594541351887356,"173":-0.04385364730863137,"174":-0.11689276752936213,"175":0.12436486446717591,"176":-0.030917100854649878,"177":0.04298257314713443,"178":-0.11357044409823751,"179":-0.013614729954936459,"180":-0.08795111456234947,"181":0.07180951467950897,"182":-0.08701626225911543,"183":-0.012885704785670587,"184":0.025640592133497207,"185":-0.0845930106936433,"186":-0.01532144464312555,"187":0.19879038488277392,"188":0.09294917683825847,"189":-0.0108233750084626,"190":-0.010711703825920559,"191":-0.04298122440945026,"192":-0.03378970157841983,"193":-0.0367478735746366,"194":-0.06688565276770791,"195":-0.049171248095189475,"196":-0.16690867136480583,"197":0.046049418787388094,"198":0.02232755729149181,"199":-0.08309381161858594,"200":-0.008655190521720152,"201":0.07095532919828287,"202":0.020581730262354405,"203":0.028783880708638583,"204":0.048224686553867566,"205":0.15929207972761852,"206":-0.027917978878331237,"207":0.03955204378203187,"208":-0.0033455488774244476,"209":-0.07977154842565712,"210":-0.08461118757240071,"211":-0.01300794834082081,"212":-0.03561788988607917,"213":0.05262780720931693,"214":-0.20811029035164816,"215":-0.1487993969544651,"216":0.04056079760796897,"217":0.22644899702811527,"218":-0.06436589427677791,"219":-0.015916258758169516,"220":0.03574400825906085,"221":-0.10817901055419549,"222":-0.09508619028600325,"223":-0.09168727855883013,"224":-0.019314973255562765,"225":-0.026225138108849824,"226":-0.10665340502361653,"227":-0.05145212480724434,"228":-0.13298083755983547,"229":-0.08181633051887316,"230":-0.016100764686386767,"231":0.050548265749195936,"232":-0.16614930162368133,"233":-0.08407018085769088,"234":-0.09093939136528523,"235":0.07766208246275519,"236":-0.07732319690977263,"237":-0.12043800916318412,"238":-0.10339416547333183,"239":0.2329246155362811,"240":-0.06367877209155125,"241":0.037089508752617885,"242":-0.19541750642883324,"243":0.041127543993471835,"244":-0.027563958215951714,"245":-0.09394214794582582,"246":-0.18796275431809625,"247":-0.07032302876366638,"248":-0.0044871510329758425,"249":0.02042933044188358,"250":-0.14348872666578977,"251":0.04530673754022604,"252":0.12686315746880952,"253":-0.021249613801862115,"254":-0.14732023901126562,"255":0.03363080739838074,"256":0.026206905623179528,"257":0.0029102963502231085,"258":-0.16523995312736578,"259":-0.13567218101058026,"260":-0.06888655859465719,"261":-0.036103884415078724,"262":0.02596488053644157,"263":-0.09910976004096972,"264":-0.10758747527390457,"265":-0.021021543742950115,"266":0.05596229487459258,"267":-0.050054657221527604,"268":0.07638733981030954,"269":-0.16984928139404085,"270":0.06997765538383653,"271":-0.027865623508099967,"272":-0.0052359609903174535,"273":0.12331125641326515,"274":0.04401340300840061,"275":-0.014125623645646191,"276":0.05231931820942238,"277":-0.06254071758671756,"278":0.07942778411663201,"279":0.0937864281186388,"280":0.07565529122080389,"281":-0.12050919071477695,"282":-0.027324873497164996,"283":-0.030366969878268434,"284":-0.15086526699140712,"285":-0.18537840256245383,"286":-0.005234480909021284,"287":0.04035913889282869,"288":-0.023698909858183317,"289":-0.06143162004400128,"290":-0.00104338871053175,"291":0.12262528571582512,"292":0.022488255795500862,"293":-0.0479135919354117,"294":0.010801782299407994,"295":0.01829024134671131,"296":0.0009153428758815439,"297":-0.03262091424184852,"298":-0.09531466150519581,"299":0.04537042014161121,"300":-0.0037147058129931906,"301":0.04559929609791859,"302":-0.11788573427120903,"303":-0.05156896838856644,"304":0.03788601581645278,"305":0.08291713598376031,"306":-0.08228175357310824,"307":0.00830417748691835,"308":-0.0846506339048644,"309":0.2372864784367596,"310":-0.06343469045527762,"311":0.05260877800960988,"312":0.1266009142865276,"313":0.09543003766334243,"314":0.021679004718828963,"315":0.061511656764063324,"316":-0.009892141265341908,"317":-0.08819434998355588,"318":0.19923390666150845,"319":-0.09793811519742421,"320":0.0016327787889825083,"321":-0.20218199160397712,"322":0.1139947595078457,"323":0.05300326187859803}},{"sx":1,"sy":1,"depth":324,"w":{"0":0.012009590020669376,"1":0.06983383753516853,"2":0.030531864386105344,"3":0.08590370099326307,"4":-0.007240754881187537,"5":-0.08644145401015242,"6":-0.07381748496237579,"7":-0.0012955487925571231,"8":-0.05989028745496976,"9":-0.08844221565104517,"10":0.0490233027100945,"11":0.037782604179777954,"12":-0.11846480251983224,"13":-0.012090426714204938,"14":-0.0667259439239461,"15":0.10784134424779954,"16":-0.05258174288229815,"17":0.007038359408464333,"18":0.032868904927998974,"19":0.04550527806342576,"20":-0.08299499441792146,"21":0.01494391251173574,"22":-0.021799060965279653,"23":0.05520495569056907,"24":0.024202477571732616,"25":0.07709168060017306,"26":-0.13182557345875195,"27":-0.02474003394316681,"28":0.06476157898197789,"29":-0.005455789701247888,"30":-0.016699041597591467,"31":0.010912584816658397,"32":0.027418439093373815,"33":0.016635182277906006,"34":0.09454889113475343,"35":0.001304517921477807,"36":0.018179236119086783,"37":-0.00040505310937332794,"38":0.056750737139791514,"39":-0.08533867796905652,"40":-0.08791252195621144,"41":-0.0008297891904369795,"42":-0.11687959641100124,"43":-0.05614546100756652,"44":0.05889111260474161,"45":-0.09029234337081708,"46":0.13230839153520885,"47":0.0772655417402488,"48":0.03732553456930465,"49":-0.053542842702736085,"50":0.021514369868023124,"51":-0.022244999835127496,"52":0.16827604962970807,"53":0.06695601322198956,"54":0.0023910753996462986,"55":-0.0019143956042754365,"56":0.17635736058469306,"57":-0.04019887230787308,"58":0.04243394171189202,"59":0.020856357262027992,"60":0.01121251936895329,"61":-0.04710028141629638,"62":0.0019190770345516408,"63":0.006679952144492201,"64":-0.0016206035673879977,"65":-0.062380146512637076,"66":0.10743676356739751,"67":0.0001223266959600229,"68":0.046582503602634905,"69":-0.11633818365164748,"70":0.0730674727531302,"71":-0.07223589815947445,"72":-0.04979120110495796,"73":-0.06153979065123958,"74":-0.040021644833205895,"75":0.02454356870322475,"76":-0.009435312665896867,"77":-0.07562674830264743,"78":0.017466766821355624,"79":0.1150876960486898,"80":-0.19738719651708203,"81":0.022650579404756725,"82":-0.03133956170411186,"83":0.015524898258611971,"84":0.05239494306801725,"85":0.09475587908079658,"86":0.14068904445314317,"87":-0.10078203618360045,"88":0.018568761756820727,"89":0.11451075300118144,"90":0.05352534372524613,"91":-0.04562738425601346,"92":0.0009165158919434628,"93":0.0009163785244314134,"94":-0.042759792992063686,"95":0.05055756353106067,"96":-0.10574086499366656,"97":0.0021906138882308193,"98":-0.05427245424305795,"99":0.08640303262573061,"100":0.06138135592476773,"101":-0.05406980273763933,"102":-0.0026856087473452676,"103":-0.00623874739985554,"104":-0.04535403437307042,"105":-0.1917976573060348,"106":-0.0011704571660266347,"107":-0.07283105609849067,"108":-0.030505627957119846,"109":-0.08750967665694181,"110":-0.012289397109626085,"111":0.034923677297086515,"112":-0.0229395062847724,"113":-0.06337762756018489,"114":0.02896680461212613,"115":-0.07183815759123481,"116":-0.024368502664568102,"117":0.00539222447846751,"118":-0.03903503322173207,"119":0.015009243592443688,"120":-0.03670760997804874,"121":-0.09442640520975483,"122":0.0020176003966336695,"123":0.05897701060555756,"124":-0.06780541580288116,"125":-0.07000654011865641,"126":0.1214036270049025,"127":0.10779002849459147,"128":0.0648163908234205,"129":-0.11936929054755724,"130":0.01773573372939739,"131":0.03382989460901508,"132":-0.08010512076180223,"133":-0.09445992953739327,"134":0.04401184951626513,"135":-0.03463610112002571,"136":-0.015995760412907165,"137":-0.1689534644920865,"138":0.048058944323671714,"139":0.1260701473581118,"140":-0.039037538728530906,"141":-0.06299551631697262,"142":-0.1094789380973531,"143":0.06398100096356833,"144":0.0011897059733408258,"145":-0.0670675985039214,"146":-0.04202596906684033,"147":-0.012591015395414708,"148":-0.05829997761365798,"149":0.05104463283004906,"150":0.02828236966936326,"151":-0.05796626790577993,"152":0.04067484218117201,"153":-0.04726041011107671,"154":0.058210058815354876,"155":0.02897136170408808,"156":-0.004681729998418248,"157":-0.033009595453667925,"158":-0.03509869387512253,"159":-0.05109620932511249,"160":0.12755452363588174,"161":0.09667205657151884,"162":0.0664205259077717,"163":-0.022528959300326626,"164":-0.06059959767332657,"165":0.044610494306991606,"166":0.08327826657733918,"167":0.0244629318993705,"168":-0.09176955550912469,"169":-0.11325215127589658,"170":0.07476536559195743,"171":0.04566924154241966,"172":-0.03775573810163919,"173":0.05671543599567946,"174":-0.006360356258001969,"175":-0.050677027560260275,"176":0.03976609946289332,"177":-0.0023496537341571415,"178":0.132484100365006,"179":-0.05419434453213486,"180":0.015208974988672961,"181":0.08588719174106897,"182":-0.018578032512094965,"183":0.04363066071461827,"184":0.012685518299693912,"185":-0.09751472949502586,"186":-0.03744728533609839,"187":-0.01236348240837137,"188":-0.04267028246737259,"189":0.0302823560314817,"190":0.12670350631576477,"191":-0.00881944467920529,"192":-0.01422486572826245,"193":0.06938808692141123,"194":-0.045149363234137485,"195":-0.08081122344133282,"196":0.08346401963256797,"197":-0.007383557998279507,"198":0.053839380234729214,"199":-0.007195045891818752,"200":-0.03373560396131446,"201":-0.03635973796426691,"202":-0.11838775753513253,"203":-0.03808010667522656,"204":0.11145907929902614,"205":-0.07942767675610328,"206":0.026821187613892884,"207":0.11535881450102563,"208":0.0016693055999719673,"209":0.08903810476680589,"210":0.014485662130829928,"211":0.01606702148627169,"212":-0.003613622884114928,"213":-0.01063498774914097,"214":0.033918008687756275,"215":-0.0003473213658397517,"216":0.00890833716130428,"217":-0.006383896288269625,"218":-0.01204928919694748,"219":0.01789315763323137,"220":0.07815622520610953,"221":-0.011096678608052506,"222":-0.02163521332636729,"223":-0.04239210411738487,"224":0.08887963532337388,"225":0.014855312583181849,"226":-0.08048830272275317,"227":0.09731049948216788,"228":0.05041771070094788,"229":-0.021553984086458866,"230":-0.014595944768675663,"231":0.018888513326171297,"232":-0.006012489076717717,"233":0.0006949459863948491,"234":0.05727288256520852,"235":0.02142770545971868,"236":0.005311911101660041,"237":0.10139585675251621,"238":0.02748249748066068,"239":-0.12102219686982676,"240":-0.03967345961061711,"241":0.11908804342414507,"242":-0.03574962914833156,"243":-0.07259961851525557,"244":-0.03998415147190145,"245":-0.1164238715698752,"246":-0.12554354478110674,"247":-0.005952077533402123,"248":0.018184340452159466,"249":-0.052628885627353926,"250":-0.04163620466898774,"251":0.02246850485112231,"252":-0.041893827617486806,"253":0.0048977745681346,"254":-0.03076187101030417,"255":0.025253912600754366,"256":0.022934267161082447,"257":0.05146181732023157,"258":0.03216286716294269,"259":-0.06333422356562961,"260":-0.10901065948985436,"261":0.13188501069435643,"262":0.0551432738521286,"263":-0.055070356489939125,"264":-0.10335460260994248,"265":-0.1021718955137675,"266":-0.048943989546725686,"267":0.08762594214608167,"268":-0.022443708109134743,"269":0.021727784660713872,"270":-0.10899482466075539,"271":0.030912612572407232,"272":-0.13599358534422143,"273":-0.068155029965415,"274":-0.0728338772986162,"275":0.06057091622702576,"276":-0.02470206809286591,"277":-0.055600155540687556,"278":-0.0999094265377699,"279":-0.056625594134915705,"280":0.11678945628329188,"281":0.07703972173752073,"282":0.07806102729535536,"283":-0.06292872538321738,"284":-0.015920816858594006,"285":0.03571365898566456,"286":-0.04607172191769875,"287":-0.024712020173480346,"288":-0.0409888923743647,"289":-0.09165896782505713,"290":-0.09398269072065207,"291":-0.016896167311190164,"292":0.008383077206808826,"293":0.000421988990334242,"294":-0.06246465010741909,"295":0.116415786519351,"296":-0.0837991784994517,"297":-0.21959510193683948,"298":-0.013815372403657471,"299":-0.0508531255718567,"300":0.0011717178121989707,"301":-0.0014121142505537896,"302":0.006107818322427284,"303":-0.048906876825123,"304":-0.040547863620365276,"305":-0.031099543492494545,"306":-0.047148624486619044,"307":-0.09672940908873728,"308":-0.007129080468745302,"309":-0.0025562449035964885,"310":0.06197436938928872,"311":0.006495027593158956,"312":-0.006094101775746892,"313":0.03276268927949955,"314":-0.03675898722680254,"315":0.041778896716662926,"316":0.029689114586528842,"317":0.01131451598109549,"318":0.0006410466860507731,"319":0.11429941320025332,"320":0.021446266415335927,"321":0.10349858757352044,"322":-0.10227135729623402,"323":-0.003837667530577008}},{"sx":1,"sy":1,"depth":324,"w":{"0":-0.028337757566702027,"1":0.08869971221931382,"2":0.03735827330535612,"3":-0.05388936460725365,"4":-0.12445672243410431,"5":-0.10915367503951047,"6":-0.032258592856241844,"7":-0.06324894096298865,"8":-0.05320545975667161,"9":-0.09167331774193743,"10":0.01899581594245108,"11":-0.01747277162253134,"12":0.034577922207638244,"13":0.1070417777311393,"14":0.09378895312848906,"15":-0.044625080885655866,"16":0.1045320274763398,"17":0.10340169457098979,"18":0.04640405135691811,"19":-0.07861284374323312,"20":-0.034373256549911836,"21":0.03433119352359595,"22":0.05635842032980706,"23":0.025723439935016225,"24":0.12173571651685382,"25":0.06503793724484021,"26":0.030765617691524395,"27":0.007626228728476851,"28":-0.011846529898210558,"29":-0.03558106533361842,"30":0.13468984329540615,"31":0.008845063785421296,"32":-0.04317281478864599,"33":0.10726213199873533,"34":-0.01618133490557279,"35":-0.017824975124045964,"36":0.008005250361535947,"37":0.10233147971449127,"38":-0.003504508859287257,"39":-0.032192639692014316,"40":-0.04570657823977109,"41":-0.056045927328466826,"42":0.018687490348857156,"43":-0.03200579875143113,"44":-0.013576149631394406,"45":-0.06603703583272272,"46":-0.08352463220590353,"47":0.05726690746566911,"48":-0.07427305794555308,"49":0.024122472947664383,"50":0.13236709330048682,"51":-0.015502375455099249,"52":0.0396424808377288,"53":0.023782575001687185,"54":-0.05811838043026145,"55":0.058847008938836765,"56":0.02500299564008582,"57":-0.03903215258413087,"58":-0.0701405695811035,"59":-0.10028099038779135,"60":0.1479466900719406,"61":-0.04187253505956015,"62":0.03241042298906415,"63":-0.03059098990835132,"64":-0.00021164050926509784,"65":0.02963030924506043,"66":0.04931604672623926,"67":0.06869223454140051,"68":0.09668214663760394,"69":-0.00701624021118712,"70":0.1293086251468177,"71":-0.11591828103199754,"72":-0.044887598142625225,"73":0.013286786207801939,"74":-0.14078952901405953,"75":0.012223757342669153,"76":0.04346011136728442,"77":0.0238153957865847,"78":-0.029000755490416925,"79":-0.1368196365347555,"80":0.014065581695423083,"81":-0.05322176369353741,"82":0.07843995579405338,"83":-0.008738409405522347,"84":-0.024828741916022676,"85":-0.04142393985946745,"86":0.13266966255293727,"87":0.16091941554044673,"88":-0.03132737902055105,"89":0.07197734290633287,"90":-0.028310244730807878,"91":0.10878803279199138,"92":0.07357029311764948,"93":-0.020800883890563518,"94":-0.04170051535795772,"95":-0.05868866004519921,"96":-0.02367967187724353,"97":-0.0399495926650515,"98":-0.06918690394452458,"99":-0.060747253587362535,"100":0.10171262094208273,"101":-0.08642291701761184,"102":-0.06801549523968792,"103":0.01367107628500852,"104":0.06209236590603532,"105":0.027954017666383266,"106":0.039877310449088064,"107":0.014101309581397608,"108":-0.006072026394844012,"109":-0.11846858928922695,"110":-0.09594506738743325,"111":0.0019199283359620219,"112":0.13254656845910914,"113":-0.06408365593127008,"114":-0.0312615501796151,"115":0.001360619672889133,"116":0.012611407186322898,"117":0.07215569969332004,"118":0.031372561720544825,"119":-0.17123089040091458,"120":0.025359358850112382,"121":0.07741499438017682,"122":0.14044644152334795,"123":0.02150401557947698,"124":0.004383917125035931,"125":-0.03126501504103309,"126":0.029849743724469545,"127":0.03856862960689916,"128":0.05142958091980718,"129":0.027864811780276527,"130":0.04806105245110431,"131":0.037584645798757775,"132":-0.08178777279565168,"133":-0.005866223612831592,"134":-0.06922771564246118,"135":-0.11669880221210654,"136":-0.017077176150899456,"137":-0.017837980429321325,"138":0.06517505263265924,"139":-0.11838533727196394,"140":-0.04474247663381882,"141":0.0640080726876426,"142":-0.02279320588298555,"143":-0.03139821633661067,"144":0.11107675626497511,"145":0.0536468963700198,"146":-0.0579380566388762,"147":-0.004984445517120924,"148":0.10916152496500207,"149":0.002957202441724209,"150":0.1684973578021243,"151":-0.05821486981695289,"152":0.022379211036187924,"153":0.07490536520629545,"154":0.0590513211711231,"155":-0.1059191358288942,"156":-0.005898874618075081,"157":-0.03967433952407581,"158":0.057703112719254886,"159":-0.053097934430863705,"160":-0.0489732851847021,"161":-0.001018062651030609,"162":0.06914302127859455,"163":0.026541491022883095,"164":0.01614472857897723,"165":-0.06334684960830765,"166":0.004641268937864161,"167":0.015577727585779378,"168":0.01870541251538176,"169":-0.01680931835460214,"170":-0.12106886486226931,"171":0.02001304667088952,"172":0.11329960744089093,"173":-0.03971970293084736,"174":-0.11129190741176347,"175":0.021016436628869414,"176":-0.1520873727007197,"177":0.08393799489355162,"178":-0.027174997686651995,"179":-0.09457059363422032,"180":0.00812406717882129,"181":-0.005842745211982665,"182":0.06221170809218274,"183":-0.13445759842455945,"184":-0.015290616316969232,"185":0.10155312684745645,"186":-0.035281181634018305,"187":0.028630942956285727,"188":-0.08967012136328513,"189":-0.045383932149854304,"190":0.017746205868406476,"191":0.03999790991292781,"192":0.03697629292359277,"193":0.1379883221462404,"194":-0.03127619315446724,"195":-0.029847240216196357,"196":0.003170708881382938,"197":0.02690054727130364,"198":0.0038504700210301277,"199":-0.08959343029627369,"200":-0.13684930855404706,"201":-0.11712558400875685,"202":0.027842573919201166,"203":0.038732853039922806,"204":0.0869336327868597,"205":0.047407650153237085,"206":0.09323907264109897,"207":-0.029998683028170773,"208":-0.13991556891699253,"209":-0.10092062981675097,"210":0.08540355011798569,"211":-0.04788463964597138,"212":-0.08202462392369773,"213":0.061162855435661884,"214":-0.02926100525084344,"215":0.062342601312878214,"216":0.10888747297122943,"217":-0.027660944080376466,"218":0.0500244579788056,"219":-0.01890747553487664,"220":-0.023242433674566826,"221":-0.062173724650433485,"222":0.09601741560805974,"223":0.021289156788899005,"224":-0.09266333038030994,"225":-0.12014194992526131,"226":0.03588373864075188,"227":-0.0812221020272293,"228":0.02364988589597813,"229":0.022538672060443955,"230":-0.04423404411313904,"231":-0.07056201365680415,"232":-0.08995866549632993,"233":-0.005690563935640331,"234":0.029844700070391444,"235":0.006341392983799293,"236":-0.029671360627034,"237":-0.06067238099420119,"238":0.025582456930637716,"239":0.03618141841030445,"240":0.026537127443692,"241":0.03755457427677502,"242":0.04897261345180878,"243":-0.05006268742978101,"244":0.09239707890799695,"245":0.05270735064034016,"246":0.06420318018579459,"247":0.053393226718841336,"248":-0.05470277685498577,"249":0.05247710089051965,"250":-0.06594247144606982,"251":-0.06867130092796789,"252":-0.003824711851359514,"253":-0.09529804213728432,"254":0.027337860895370242,"255":0.028906057539180862,"256":0.04078921085409744,"257":-0.0582081427680849,"258":0.02996279101524171,"259":0.021321440317043007,"260":0.12303952210704847,"261":-0.058800283190215505,"262":-0.027025842653670383,"263":0.00490413920581852,"264":0.011591646723780345,"265":0.12828566630928964,"266":0.04301043186320898,"267":-0.004589976911300246,"268":-0.0904542411904058,"269":0.03947748961802122,"270":-0.021620687529054605,"271":0.004088245198230582,"272":0.044400721110347284,"273":0.03720970081839294,"274":-0.023115766835412176,"275":0.0040026681463243095,"276":-0.0068553109040863916,"277":0.04911900916001659,"278":-0.003429739448359288,"279":-0.12451662883825677,