window.trained_age = {"layers":[{"out_depth":3,"out_sx":32,"out_sy":32,"layer_type":"input"},{"sx":10,"sy":10,"stride":3,"in_depth":3,"out_depth":6,"out_sx":9,"out_sy":9,"layer_type":"conv","l1_decay_mul":0,"l2_decay_mul":1,"pad":2,"filters":[{"sx":10,"sy":10,"depth":3,"w":{"0":-0.13869162692895592,"1":-0.13457399941443074,"2":-0.06799328541444243,"3":-0.15762140890369294,"4":-0.16988118141719827,"5":-0.1831855889257716,"6":0.022370177647055015,"7":-0.013594495973348627,"8":-0.030063289098174264,"9":0.07372334960121947,"10":-0.060602254359647174,"11":0.057635200124187026,"12":-0.13220148734381784,"13":-0.1252023014449478,"14":-0.08580319766093679,"15":-0.13286903039824663,"16":-0.17394025078220934,"17":-0.10553224952068084,"18":0.05318540970753222,"19":-0.016056736412968627,"20":-0.11443418652834385,"21":0.09450363391008999,"22":0.06414470793252859,"23":0.020000185076742782,"24":0.005225380268721235,"25":-0.10895355586935244,"26":-0.0652956271497094,"27":-0.1202614555162398,"28":-0.06004656273673946,"29":-0.08927979373404152,"30":-0.004388854810623866,"31":-0.023650011861763937,"32":-0.043086712677624144,"33":-0.11984395352813662,"34":-0.2834910495459474,"35":-0.12068876790611144,"36":-0.22170246703157107,"37":-0.14959654292750865,"38":-0.2176139461936814,"39":-0.06684911768583775,"40":-0.17811965832064136,"41":-0.16110852715435875,"42":-0.03500645448086807,"43":-0.15234045204899482,"44":-0.08863888785892392,"45":0.028529048959504727,"46":-0.017704774800590063,"47":-0.08875330990161659,"48":0.012757500856088901,"49":0.1664944549110467,"50":-0.12444153409425096,"51":0.051497455957943354,"52":0.05670532120688899,"53":0.07354598447109778,"54":-0.06333075762062178,"55":-0.11606989549058395,"56":-0.009360017922948934,"57":0.1101857776054638,"58":0.02736734689620411,"59":-0.008359811476497475,"60":0.0616568263396552,"61":0.10350256962662965,"62":0.018093240035255812,"63":0.1849226728670889,"64":-0.12984781404768908,"65":-0.11216694767326527,"66":-0.08602641701452603,"67":-0.14794735510950557,"68":0.007964424943990122,"69":0.004970148801143965,"70":-0.028262396661437993,"71":-0.1501286108436405,"72":0.018354540205136306,"73":-0.0949230413413396,"74":-0.06315160897982176,"75":0.025667476677143218,"76":-0.11560544611324779,"77":-0.12213171010744855,"78":-0.09701102329315033,"79":0.03307167612157736,"80":0.01721477906374479,"81":-0.03290493773537014,"82":0.0023144963363225662,"83":-0.01559594902609781,"84":-0.13715626641847212,"85":-0.01571615907807887,"86":0.020597520116874875,"87":0.14887037077630635,"88":0.028871724678209275,"89":-0.1371651544799908,"90":0.18397324634319492,"91":-0.003962413875836083,"92":0.1227467238118816,"93":0.07921141548102978,"94":-0.058835955554998196,"95":-0.13033378886616037,"96":-0.10293591219609004,"97":-0.2030602818970349,"98":-0.18150407081424638,"99":0.03404007475531454,"100":-0.13206598147463267,"101":-0.11577778751781902,"102":0.011573663933421328,"103":-0.0917135255387385,"104":-0.023646773584582243,"105":-0.06833848982748658,"106":-0.18507853894524,"107":-0.22220968568289115,"108":-0.13555037582047869,"109":-0.18796945569500303,"110":-0.2058719812035347,"111":0.021071446364649377,"112":0.011392730868871544,"113":-0.0007543537971905389,"114":0.009140222275959625,"115":0.08674811369737334,"116":0.03926853259713928,"117":0.1660652799080765,"118":0.11535642000139397,"119":0.01195056090227013,"120":0.12201079093428306,"121":-0.02921257250128615,"122":0.06292506433861735,"123":0.17333238303842172,"124":0.0939335579578107,"125":-0.007186430232432012,"126":-0.0056960693889727635,"127":-0.09285731313674829,"128":-0.11457533144952467,"129":-0.22055051355921748,"130":-0.1822560649460461,"131":-0.251541904873564,"132":-0.2626530909062601,"133":-0.2516712733555253,"134":-0.17741271717774867,"135":-0.24419860318906367,"136":-0.27799430971559186,"137":-0.14398946565420337,"138":-0.29641649786830204,"139":-0.4434882991038172,"140":-0.34434666373579764,"141":-0.45296976478164297,"142":-0.45497636992645574,"143":-0.32797451325232446,"144":-0.14979381533371575,"145":-0.09860089794428271,"146":-0.2022667748176746,"147":0.0019345809909208193,"148":-0.04197623130060058,"149":0.005983299300755172,"150":-0.016065366312034816,"151":-0.1705094518937704,"152":-0.12815345974116174,"153":0.12977524661233597,"154":0.10314344929865522,"155":0.2404721898101215,"156":0.08380119862815147,"157":0.05313821874136623,"158":0.029549949810246334,"159":0.0797863763453765,"160":-0.07510550332119446,"161":-0.04866567245410239,"162":0.1255862602143744,"163":0.02746249710724246,"164":-0.01917711894970036,"165":-0.0722402762576554,"166":-0.1886338708338928,"167":-0.06693440071259031,"168":-0.16941428429795272,"169":-0.09999241458550082,"170":-0.19359945961318514,"171":-0.2822977325657996,"172":-0.21969869110609805,"173":-0.18156163163548783,"174":-0.15324480417898168,"175":-0.2513263558297019,"176":-0.13995178811808487,"177":-0.15413016016783798,"178":-0.1165317177340095,"179":-0.018963670790898307,"180":-0.020768791583474795,"181":-0.02662639332734448,"182":-0.12329215750085007,"183":-0.000827254649567813,"184":-0.04006975258212811,"185":0.022928730577464546,"186":0.05893530637305261,"187":-0.01648844548619491,"188":0.010380323593152732,"189":0.06990031574301282,"190":0.14115913893748774,"191":0.20729180318004495,"192":0.04236176356876811,"193":-0.05918740278951378,"194":0.057848212550298074,"195":0.04640791017127474,"196":-0.02112776856090274,"197":0.0055450642228230705,"198":-0.017798588043214752,"199":-0.025744796339259836,"200":0.017604134606245762,"201":-0.17783675152254172,"202":-0.10303502185113256,"203":-0.01976506098319087,"204":-0.0027276832415751196,"205":-0.02702520987179711,"206":-0.012309499003586804,"207":0.06372699606929838,"208":0.07040441478286587,"209":0.2102487753799296,"210":-0.017097399323894386,"211":0.08391177792489268,"212":0.12240240168578573,"213":0.05025953302324302,"214":0.07152176860260157,"215":0.052636258035536156,"216":0.1901366104643367,"217":0.3913935816791514,"218":0.40083428126856974,"219":0.06379021199075949,"220":0.20088796663655378,"221":0.2580102212254974,"222":0.02298791144084252,"223":0.025783609905940356,"224":0.07293624106254304,"225":-0.04640353520947642,"226":-0.11242436212986749,"227":0.0014952691934744969,"228":-0.031227184513870423,"229":-0.028727941090584574,"230":0.14790680799413236,"231":0.0922896928504229,"232":0.14635662352346143,"233":0.18618508942709425,"234":0.16647460306403136,"235":0.22525326528679357,"236":0.18470551323301374,"237":0.20853330940741063,"238":0.25032463864672977,"239":0.22620978465740957,"240":-0.054332140134592186,"241":-0.0576031587269971,"242":-0.04612501781274612,"243":-0.008415256425746524,"244":0.28878829276511037,"245":0.3079695101061623,"246":0.035703702101990864,"247":0.29749681782484083,"248":0.28021969525562374,"249":0.16833017308352974,"250":0.17882472777430788,"251":0.23167670648120217,"252":0.07484276196006832,"253":0.12278154342703684,"254":0.035715595170895204,"255":-0.11200130421858424,"256":0.05218209696542176,"257":0.07585221246892726,"258":0.036338274738703505,"259":0.09252421063036749,"260":0.07806392033094117,"261":0.1149105475854132,"262":0.24568917138454077,"263":0.4075737151569887,"264":0.15121508213588275,"265":0.16323311875706828,"266":0.18955133466640364,"267":0.14397709111555113,"268":0.18270505093411318,"269":0.2854076753425317,"270":-0.13801515894739042,"271":0.013838249198163502,"272":0.14765109719531125,"273":0.033345686308523304,"274":0.26748378336249123,"275":0.2571160596542191,"276":0.19120728054290526,"277":0.23893856926397777,"278":0.3047388972952394,"279":0.0816412028608895,"280":0.3316381925619859,"281":0.2825029458454736,"282":0.01162274896823314,"283":0.2397596433473502,"284":0.1908376882542271,"285":-0.059160980212655465,"286":0.09090687892844804,"287":0.22535179428697916,"288":-0.11198726693342201,"289":0.20839550300955417,"290":0.24524413319212174,"291":0.08366928047957338,"292":0.19122407717960083,"293":0.3275204473443413,"294":0.07557076346617803,"295":0.2017793329868261,"296":0.37486265919518225,"297":0.12938806508345552,"298":0.21766450515672225,"299":0.27644172415631996}},{"sx":10,"sy":10,"depth":3,"w":{"0":-0.10365613356885435,"1":-0.19227235805445136,"2":-0.15451963859753498,"3":-0.2065369032320363,"4":-0.1668677428108558,"5":-0.08559267263884203,"6":-0.12433428621002339,"7":-0.11889868997679154,"8":-0.06067214192074977,"9":-0.03276483237369934,"10":0.028446834904263706,"11":0.06170532620232243,"12":0.1862412227512439,"13":0.23251272381837776,"14":0.1627705133372965,"15":0.269353097756304,"16":0.24702404194156205,"17":0.18611766656990475,"18":0.2043802255547799,"19":0.3083508691667813,"20":0.24067783290538539,"21":0.035565561364985725,"22":0.11804525316587383,"23":0.051365535025256204,"24":-0.033883685202816406,"25":-0.04963904782015885,"26":-0.05866914100125665,"27":-0.03506609161990688,"28":-0.11040789067886683,"29":-0.10947201387499789,"30":-0.10704337140478523,"31":-0.05714326819466806,"32":-0.0994789685401714,"33":-0.2143056030462363,"34":-0.21000195493054974,"35":-0.1469466917227929,"36":-0.21859019061046342,"37":-0.0820673346934959,"38":-0.19041549648192482,"39":-0.007295808585677584,"40":0.004673159764358668,"41":0.03554885322470013,"42":0.11440019607955966,"43":-0.017222968469225577,"44":0.054515905919407096,"45":0.16122130914741947,"46":0.09973979042371284,"47":0.17299929009179005,"48":0.285605325868199,"49":0.26928972812539625,"50":0.2928943823829719,"51":0.08744959422568327,"52":0.07397368800248007,"53":0.12293871634583393,"54":0.1684355741453171,"55":0.11733128425675828,"56":0.06961926238598395,"57":0.025705657755955087,"58":0.07210469983166842,"59":0.12835903336175208,"60":-0.03474711225425554,"61":0.06033645736769103,"62":0.10376134747867527,"63":-0.08667951123643841,"64":-0.08976287569755723,"65":0.15150968188667124,"66":-0.11865993379755167,"67":-0.0994705012778135,"68":0.002348544405177695,"69":-0.019676511121366418,"70":0.06387586174095712,"71":0.13230846715869848,"72":-0.09737004099767561,"73":-0.048648571401672246,"74":-0.007490635992455382,"75":-0.032190087628119625,"76":-0.010803620370465249,"77":0.1041317512890845,"78":-0.023748394577211205,"79":0.06867918456683676,"80":0.05799442298311613,"81":0.09309520499924848,"82":0.005772640913258413,"83":0.1529268926725838,"84":0.14640992536309178,"85":0.00486573486498772,"86":0.03005626893735806,"87":0.11406970809787616,"88":0.1630720681601439,"89":0.10088772085999696,"90":-0.083192278998858,"91":-0.0007091493134313716,"92":-0.08808467794480809,"93":0.009233746957605163,"94":-0.010565872087891464,"95":0.14482624091248242,"96":-0.12118178710796823,"97":-0.11832960974677116,"98":0.11146122193940118,"99":-0.03671011446644477,"100":-0.03320310050274369,"101":0.016687605621550677,"102":-0.07383126639870533,"103":-0.04709664540682102,"104":0.08458071481604994,"105":-0.2241524540952921,"106":-0.0946271560216572,"107":0.06881822643061693,"108":-0.06769423656253502,"109":-0.05361214240337257,"110":0.03257689161185254,"111":-0.24565209109100167,"112":-0.22673649380172436,"113":-0.007066767646654097,"114":-0.020793788162868514,"115":-0.10627842906704708,"116":-0.10411487420601984,"117":0.05602508439785725,"118":0.05490317536315751,"119":0.09615472216488306,"120":-0.062393415447996065,"121":0.023369776151356835,"122":0.11119310753118698,"123":0.01815482212213204,"124":-0.029360200353941265,"125":0.1031499676533241,"126":-0.020514158045360126,"127":0.07204829804522749,"128":0.22073263669004192,"129":0.026208139896818004,"130":0.020455375569850737,"131":0.10217538471260146,"132":-0.19224941373738247,"133":-0.023279747075008166,"134":0.07036362946464796,"135":-0.17998233879840939,"136":-0.17314247207500555,"137":-0.12287318720608946,"138":-0.15392541320456316,"139":-0.05580416710873628,"140":-0.027869146317973832,"141":-0.21977125351763263,"142":-0.26205229979696704,"143":-0.16713186927694057,"144":-0.02753516027156331,"145":-0.007342937266781907,"146":0.11532978224187818,"147":-0.05593340338626416,"148":0.148296477235739,"149":0.09930856174340896,"150":-0.014429119462140557,"151":0.17207572934481097,"152":0.2886342807529079,"153":0.10117575876890808,"154":0.14819304853501755,"155":0.17262520240497564,"156":0.052604491041524135,"157":0.23259794110319912,"158":0.4304569850322278,"159":-0.01628763642814838,"160":0.034031740380973265,"161":0.14735175228088848,"162":-0.13463294021435782,"163":0.10319554116043803,"164":0.02843262323628422,"165":-0.26726749076558076,"166":-0.07380055542754471,"167":0.142526955628026,"168":-0.21242617647884907,"169":-0.20000132412450602,"170":0.000573471500162375,"171":-0.09278402239955945,"172":0.04937001176265351,"173":0.02094078945542771,"174":0.05152481609796994,"175":0.020778510607214643,"176":-0.021244504629751845,"177":0.0471017968203885,"178":0.13956657139455575,"179":0.2214387314676489,"180":0.06250437432325402,"181":0.08188792248678552,"182":0.10806099892406662,"183":0.05127637920472539,"184":-0.03387353448226895,"185":-0.050442571834077875,"186":0.013215214488441355,"187":-0.07515988814909208,"188":0.13528489238351946,"189":-0.21471364137519056,"190":-0.14496257808381888,"191":-0.04275010349212922,"192":-0.24873562204133823,"193":-0.01852031765921602,"194":0.10198509410539462,"195":-0.20025340697295216,"196":-0.19624604191998948,"197":0.07166548047852124,"198":-0.2503556924095945,"199":-0.10670147576807419,"200":-0.04794877127701643,"201":0.02823892458410096,"202":-0.1696054692999868,"203":0.00888260185469298,"204":-0.1253859641697875,"205":0.0668371063476329,"206":0.003984677821289415,"207":-0.01617101075396703,"208":0.03299326245246121,"209":0.009011000248200026,"210":0.039678775770399355,"211":0.1700092858801268,"212":0.17298819213954456,"213":-0.05875906416397934,"214":-0.07864529574016137,"215":0.10689348135604969,"216":-0.21989645216410983,"217":-0.08457698318744741,"218":0.020495082197565587,"219":-0.07511678528874281,"220":-0.037049097043377895,"221":0.1247168729141645,"222":-0.22115060573982598,"223":-0.09658597789410876,"224":-0.03382156741071004,"225":-0.21307891486323038,"226":-0.24349133363160866,"227":0.09996573866246737,"228":-0.3587592305215342,"229":-0.21377919886937022,"230":-0.10490973408104094,"231":-0.19719926766353657,"232":-0.07870692394694834,"233":0.10674253718698866,"234":-0.07270204343524223,"235":0.030389635046032603,"236":0.00026672700070727833,"237":-0.07643754705877241,"238":-0.08346759512871159,"239":-0.08832768970290127,"240":0.073414346241608,"241":0.17226034033361975,"242":0.125386306073939,"243":-0.1579761479695825,"244":-0.1469753852683322,"245":0.011499708732359889,"246":-0.20353860726894737,"247":-0.1669286722776097,"248":-0.09834264338653254,"249":-0.17299020808985033,"250":-0.1289254957072845,"251":0.04774195355418702,"252":-0.26666886502474774,"253":-0.16592858410974068,"254":-0.06398911690858806,"255":-0.40352142113472245,"256":-0.2702848009724,"257":-0.18319997542154987,"258":-0.2903877199412772,"259":-0.07164459878194823,"260":0.013436126757759353,"261":-0.14760031202036758,"262":-0.07462007786855787,"263":0.06375510270924306,"264":-0.032990412256630755,"265":0.007234941685746143,"266":0.03688754541091698,"267":0.031782695592578805,"268":0.07963727605814207,"269":0.09924256149911752,"270":0.019308654270505148,"271":0.10295296869760401,"272":-0.02527713775010231,"273":-0.09575944090385005,"274":0.004060307634318659,"275":-0.017532318754583325,"276":-0.20514196509155497,"277":-0.13820145415259713,"278":-0.17585671834933017,"279":-0.14502120487055695,"280":-0.16291220654062327,"281":0.006882785986997321,"282":-0.314001036723315,"283":-0.21229340074869402,"284":-0.14707703083662294,"285":-0.3344509663793686,"286":-0.2827206122125569,"287":-0.1639273007220958,"288":-0.36299162299120263,"289":-0.1846785894071489,"290":-0.23225010789793113,"291":-0.09638730278499752,"292":-0.1278216636500234,"293":-0.03643648871857577,"294":-0.15308818199606386,"295":-0.09408680426672791,"296":-0.07358181097096331,"297":0.20130736285085968,"298":0.24525021957193094,"299":0.07676633417683837}},{"sx":10,"sy":10,"depth":3,"w":{"0":-0.06799930257835635,"1":0.009381727910504968,"2":-0.2083573953018152,"3":0.19433604209022157,"4":0.2059470469179636,"5":0.05660065787774115,"6":0.07380368062193965,"7":-0.022836350958745963,"8":0.05844542332452807,"9":-0.04047245696826578,"10":0.028424392352454496,"11":-0.07006999764434792,"12":-0.04810764608919244,"13":-0.03893617349731704,"14":-0.09974684112365544,"15":0.040833142077210796,"16":0.10047970609188137,"17":-0.0470135485787579,"18":-0.026387256966105752,"19":-0.05827460171157684,"20":-0.08959755366819591,"21":-0.09893312469757508,"22":0.02161156895000511,"23":-0.029309348994603208,"24":0.042521824325721186,"25":0.06362088855042375,"26":0.05951272565285068,"27":0.1917793357284103,"28":0.0907589482107924,"29":-0.02072972627818359,"30":0.022634639829055066,"31":0.06519839629775966,"32":-0.10212328335925736,"33":-0.06209745398092509,"34":0.16650673590528475,"35":-0.13154847173747528,"36":-0.09478578234617173,"37":0.003438247096008699,"38":-0.09208614006644834,"39":-0.10189838102197175,"40":0.039319539870665846,"41":-0.09951664061096718,"42":0.1154451984142614,"43":0.13384217213953012,"44":0.041799945220122814,"45":0.1252568648378454,"46":0.21592460418455114,"47":0.10528717385323114,"48":0.044409638203000285,"49":0.23037580809152508,"50":-0.007116072609064985,"51":-0.07150472405157336,"52":-0.004382216836797442,"53":-0.09192614647669459,"54":0.0557345841008902,"55":0.026013266370601903,"56":-0.08885974119079076,"57":-0.016926017368073115,"58":-0.016356874538523542,"59":-0.04077676460496164,"60":-0.011434200089491637,"61":0.12402618773051163,"62":-0.14250882698661171,"63":-0.04822471273271938,"64":0.10225558735389183,"65":-0.004690029462019403,"66":-0.04839911370284865,"67":0.05254147230108584,"68":-0.05576980969536052,"69":-0.06793732641875619,"70":-0.06501233454459644,"71":-0.12871909267913362,"72":-0.12389935885750747,"73":-0.02130934261569888,"74":-0.019942565838133933,"75":0.1164626525466719,"76":0.19882347708298245,"77":0.17082239884078246,"78":0.0363818055192537,"79":0.13867967664832273,"80":-0.016024099004749947,"81":0.08055459594276104,"82":0.029406840734858285,"83":-0.057371386363570094,"84":-0.06654987612708703,"85":-0.05765900512706046,"86":-0.1256531388776899,"87":0.0006408057294747463,"88":-0.003674592301070252,"89":-0.10949267612278812,"90":0.09354187593413002,"91":0.22164814780334485,"92":-0.027627406509961226,"93":0.14259278638124254,"94":0.3189742341455337,"95":0.08557382708102304,"96":0.13131377837764424,"97":0.1232752778877494,"98":0.12304701767131107,"99":0.025237000594086147,"100":0.1198041259514696,"101":0.04721569519007892,"102":0.18610021891308046,"103":0.2766730745716424,"104":0.04294051350805485,"105":-0.04059056690991381,"106":0.058681248045479785,"107":-0.0038420811369222064,"108":-0.0031783369283298305,"109":0.10618706731587226,"110":-0.06502956526625113,"111":-0.11972670141140887,"112":0.023655207779417882,"113":-0.015484317371258546,"114":0.044788534370021935,"115":0.1653711928946731,"116":0.14301870166195232,"117":0.124718976109978,"118":0.07749884332908893,"119":0.13642264860496744,"120":-0.13189607877846118,"121":0.05909866609773829,"122":0.0725710604311935,"123":0.011764823011965105,"124":0.0065317843866885715,"125":-0.07382866719861608,"126":-0.12615480782063077,"127":-0.13300516313466965,"128":-0.26220103198964645,"129":-0.02189754503142969,"130":-0.013514383962185697,"131":-0.00965072575084784,"132":0.1188985245328659,"133":0.09467216963677651,"134":0.07039134843755615,"135":-0.009318773846569935,"136":0.23712494524469732,"137":0.06602818249158428,"138":-0.07777286093574316,"139":0.0858678802848767,"140":0.039881306955232516,"141":0.04852846858276967,"142":0.14879841638580685,"143":0.149691947056771,"144":0.14173118192679016,"145":0.29802421578455235,"146":0.3243365826881504,"147":0.008360552036507703,"148":-0.0066237543574852896,"149":0.1042540205219511,"150":-0.27233101089450706,"151":-0.19897829727520075,"152":-0.17042972378829568,"153":-0.2779193315890666,"154":-0.3291435812811248,"155":-0.12338643023221603,"156":0.07052399317871656,"157":-0.08203771488092365,"158":-0.08129584690477885,"159":-0.1782875562820383,"160":-0.0914291141443282,"161":-0.18313689720522627,"162":0.026378734844142458,"163":-0.11163583722225162,"164":-0.0763765834651977,"165":0.007717788781537518,"166":-0.0396055708909042,"167":-0.01986735732895558,"168":-0.0414332258363588,"169":-0.06327219628824243,"170":-0.010099956387301387,"171":0.14950437972197445,"172":0.07056877554013917,"173":0.15012047029923647,"174":0.26485430833157997,"175":0.13404942851360446,"176":0.1797503938781964,"177":0.0983086984446677,"178":-0.017335539372688617,"179":-0.09183634944459944,"180":-0.3182174238564117,"181":-0.17549686080114962,"182":-0.2773435234129448,"183":-0.14530487883185822,"184":-0.127411619889777,"185":-0.1535691673828814,"186":-0.011325263947686022,"187":-0.16888201368526004,"188":-0.1448829619304529,"189":0.0865818034114519,"190":-0.2666566029737476,"191":-0.1756506140928703,"192":0.06828128382270465,"193":-0.0073297221899375105,"194":-0.154122048597069,"195":0.035844070501746844,"196":0.059108824285269736,"197":-0.019404910307824434,"198":0.18852105042905684,"199":0.1147660520956948,"200":0.09838256530061214,"201":0.16843539751026265,"202":0.027555864492406306,"203":0.12899656842088644,"204":0.152364799063905,"205":0.035407275026207566,"206":-0.04114671595637177,"207":-0.05633518407189551,"208":-0.07696864359093566,"209":-0.04456223379303126,"210":-0.2464308251978222,"211":-0.24837505443241623,"212":-0.12360941766022447,"213":-0.03137457480329448,"214":-0.08533233296540374,"215":-0.04963998593785665,"216":0.17391364922584676,"217":0.06906360215779195,"218":0.03922207174926313,"219":0.23207259938488078,"220":0.305039503836268,"221":0.13054418518529493,"222":0.272806344616364,"223":0.2759050367302643,"224":0.19226569575435498,"225":0.19809756923506752,"226":0.20647072262809113,"227":0.2872071423894951,"228":0.058385899249751495,"229":0.07620209894715237,"230":0.2240464447938004,"231":0.044020120630007084,"232":-0.041880977523605936,"233":0.04649186152144456,"234":-0.11192391376610944,"235":-0.12264344038032676,"236":-0.14380855663256095,"237":-0.09892427413237592,"238":-0.1460101340890829,"239":-0.0010608424104163942,"240":-0.2465744572467747,"241":-0.2854179178735342,"242":-0.1562687223071569,"243":-0.03250735966172512,"244":0.07776702389307967,"245":0.0160972275283085,"246":0.06636963663533542,"247":0.09028697488687684,"248":0.0779188356623032,"249":0.19086793967173654,"250":0.17958157871706143,"251":0.2115080456783438,"252":0.17174331752862992,"253":0.219051045195727,"254":0.113098616268741,"255":0.19445994514566928,"256":0.2308293752468791,"257":0.16911619186196233,"258":0.07262788825611351,"259":0.05930018930369468,"260":0.11200939875341917,"261":-0.14562240515896271,"262":-0.16360077759300629,"263":-0.06473886744643223,"264":-0.08296556778567232,"265":-0.12555971197290697,"266":-0.08335491100173194,"267":-0.11521357885253083,"268":-0.16884657546154563,"269":-0.13534081630169384,"270":-0.32999470534315584,"271":-0.2369209691773403,"272":-0.25844132077003235,"273":-0.1581235272790805,"274":-0.16117053461967362,"275":-0.13878869383744852,"276":0.08567021838358509,"277":0.1282953517622765,"278":0.07141389937836155,"279":0.04831412876589782,"280":0.10828904999271599,"281":0.039377449956140974,"282":0.07116415490056928,"283":0.09404022648689951,"284":0.028021412856173173,"285":0.10121274492416639,"286":0.17565101522012588,"287":0.09874995167059991,"288":-0.022859982506976757,"289":0.033414196797463505,"290":0.05469322935047981,"291":-0.20722926155693264,"292":-0.07343969664501573,"293":-0.2573214425260054,"294":-0.19807452672091755,"295":-0.1915702295170001,"296":-0.383802156838241,"297":-0.2143158239138656,"298":-0.22874758548436697,"299":-0.21641830746632673}},{"sx":10,"sy":10,"depth":3,"w":{"0":-0.1697612698453009,"1":-0.08287092231401438,"2":-0.22407430605455866,"3":-0.13705081138315467,"4":-0.18883172060197168,"5":-0.1534504850988509,"6":-0.17670236917283294,"7":-0.17501620529929898,"8":-0.11870196092382927,"9":-0.13462501521869655,"10":-0.1573107874182569,"11":-0.0246042410447894,"12":-0.06351628758607547,"13":-0.1595023141532049,"14":-0.0033592757508251678,"15":-0.2728462431781453,"16":-0.18729097141415046,"17":-0.1483420071418734,"18":0.0006579898121108888,"19":-0.23236098674835598,"20":-0.1221745289202581,"21":-0.0011558154346207792,"22":-0.15045159868884267,"23":0.007863890357623072,"24":0.14755085358636433,"25":-0.007434879462988172,"26":0.007670121198431838,"27":0.2909851379815801,"28":0.16868705274786827,"29":0.18259162647590915,"30":-0.15793577213553536,"31":-0.15601978476559594,"32":-0.10093096159554794,"33":-0.20605238613355234,"34":-0.3927830782417294,"35":-0.321723603034067,"36":0.057663637237491565,"37":0.1341739387056723,"38":0.04177969195705818,"39":-0.1189354855783221,"40":-0.22781708032796513,"41":-0.10884720717966498,"42":-0.06667584138075432,"43":-0.27042835738303034,"44":-0.14558494655882118,"45":-0.10979822497444161,"46":-0.18946670038409258,"47":-0.13784075386116584,"48":-0.06429415810037162,"49":-0.0885322129535234,"50":-0.14739426632035457,"51":0.12084422856559796,"52":-0.18953603183727888,"53":-0.05716839498238387,"54":0.21246210075462585,"55":0.02867240059711909,"56":-0.012168163200375257,"57":0.27401195275412676,"58":0.12326778974144632,"59":0.026346218248734097,"60":-0.07274732761518359,"61":0.09235282396711447,"62":0.03536533701741802,"63":-0.06316703113034909,"64":-0.18863404479289733,"65":-0.11674333774353356,"66":0.11518779757928843,"67":0.016339708361627014,"68":0.16382434867837964,"69":0.11438200549866116,"70":0.09079763948783734,"71":0.12774240065327927,"72":0.10780020758334219,"73":0.08284577142490658,"74":-0.021771269712359136,"75":0.10262588192022933,"76":0.0186634571011283,"77":-0.00857495745085808,"78":0.04052902120192594,"79":-0.20136438920198957,"80":-0.036039096512825344,"81":0.17586569033918292,"82":-0.08020719647412847,"83":-0.05071094774230665,"84":0.2700193035210862,"85":0.12670044110694034,"86":0.10004080259263076,"87":0.36942286025495946,"88":0.07140784198273482,"89":0.3222873924805904,"90":-0.1815327414215358,"91":-0.1679266317473424,"92":-0.14564562577903528,"93":0.04363053268945568,"94":0.026398166931205357,"95":0.017203957049227395,"96":0.04710265690547438,"97":0.0649389875751092,"98":0.1117249225470713,"99":0.1504408324397217,"100":0.1544378358462387,"101":0.21288971663396922,"102":0.1615831278601126,"103":0.0757225054332968,"104":0.23231727221526122,"105":0.00038897354575156794,"106":-0.08221190748338486,"107":-0.007159368621449878,"108":0.15227914201301662,"109":0.04948255497529604,"110":0.10476725424467957,"111":0.10263497932023967,"112":0.008444739873674726,"113":-0.027849207844738662,"114":0.16731014806479505,"115":-0.0013125183295317267,"116":0.08550152887257371,"117":0.09057449849115147,"118":0.014620580154193435,"119":0.11901165832081036,"120":-0.027488209391218994,"121":-0.2576474363043005,"122":-0.2818475832960391,"123":-0.005992001543097382,"124":-0.0592250559474633,"125":-0.13659837200577168,"126":-0.0009045812184074134,"127":0.07921443578397004,"128":0.11587528246784654,"129":0.013439412064540726,"130":0.04853218197951193,"131":0.0037286673815911018,"132":0.14622706828819376,"133":-0.0592390778718746,"134":0.1850758605146938,"135":0.06981009851164327,"136":-0.016953661174491264,"137":0.06766996386973942,"138":0.10112920010878725,"139":-0.09573851829361865,"140":0.0971847552684746,"141":0.03525487606216368,"142":0.045715025322777346,"143":0.1256704088887051,"144":0.11811025798500434,"145":0.14982682582386364,"146":0.12157859552614039,"147":0.027304570241276395,"148":0.01927346553428248,"149":0.10720377273322569,"150":-0.2728785753303634,"151":-0.23463995796430948,"152":-0.2810367712367967,"153":-0.28299876593558987,"154":-0.14895460147634076,"155":-0.24318383024001747,"156":0.09105564021233373,"157":0.09188492958692279,"158":0.15083257411716322,"159":0.17571940616091178,"160":0.1240036645620726,"161":0.19579153619342846,"162":0.08667642335927501,"163":0.19388880172062986,"164":0.20808389616873016,"165":0.043378574184355534,"166":0.12592083131130807,"167":0.12215954083704955,"168":-0.1032063900814949,"169":-0.12824015589625729,"170":0.09043989632140263,"171":0.04680105282387726,"172":0.005985986948221184,"173":0.124956046021848,"174":0.12274152084742943,"175":0.06440892947002133,"176":0.06930336628320609,"177":0.07378540238009382,"178":0.06207180406646202,"179":0.12605677781564747,"180":0.038948599112220934,"181":0.01767014706620961,"182":0.06461297411867398,"183":0.09418848633257494,"184":0.0831302564814099,"185":0.07029183365489476,"186":0.11592464227658647,"187":0.20548999252554265,"188":0.1694434013506435,"189":-0.07547102330535044,"190":0.0993808353521972,"191":0.26492248567046944,"192":0.14425804529744168,"193":0.2874613631792189,"194":0.3152907492804544,"195":-0.08178564051444752,"196":-0.014878602207513499,"197":0.10424660107337966,"198":-0.12718655202437176,"199":0.2026124078378158,"200":0.1976309742264962,"201":0.047021989436544925,"202":0.02701435904539984,"203":0.011942972433540486,"204":-0.01241240632907591,"205":0.07891701489616884,"206":0.10099447060834173,"207":0.21237855747906095,"208":0.17697845095140943,"209":0.19324015774464867,"210":0.023992715562694552,"211":0.004480698914470734,"212":0.06441395901158792,"213":0.056975138743251275,"214":0.12231812994941385,"215":0.09618249673861581,"216":0.09157442403626384,"217":0.16207540179826557,"218":0.180947748999597,"219":0.13393736444506463,"220":0.39741227069700574,"221":0.3408383490984338,"222":0.07677559863590826,"223":0.22826688999494255,"224":0.35109641800364055,"225":-0.06928906982794668,"226":0.0891063666753108,"227":0.3020301043766507,"228":-0.0655111234986112,"229":0.021424367030324826,"230":0.21623634669350042,"231":-0.19816036477555074,"232":-0.12229472844581109,"233":-0.06076396427561366,"234":-0.06430640464823316,"235":-0.07723341866003199,"236":0.036002604541814344,"237":-0.10460273968863543,"238":-0.00905540482874409,"239":0.11382796232857505,"240":0.018522394880995552,"241":0.15278624883736197,"242":0.1689119846551284,"243":0.1726106868735273,"244":0.29251319188824915,"245":0.20580262616023254,"246":0.02062149550148701,"247":0.16736039427144128,"248":0.202802607143941,"249":-0.1471281191450205,"250":0.05718243614316455,"251":-0.01122078333526427,"252":-0.29985977849519657,"253":-0.15727948425696764,"254":-0.18563918707045207,"255":-0.1740953034364195,"256":-0.12597820170700752,"257":0.0312963317461179,"258":-0.4016039640021779,"259":-0.27343903554259086,"260":-0.08902440993907175,"261":-0.3709840946574459,"262":-0.28894574272658924,"263":-0.21218928834676726,"264":-0.24610616460388263,"265":-0.02976589429548888,"266":-0.03366743214923641,"267":-0.29852055347552514,"268":-0.1995071019453046,"269":-0.08845827492982243,"270":0.10132429530583333,"271":0.25215036543515074,"272":0.11783209229713346,"273":0.13308718313719348,"274":0.30565542731045614,"275":0.28381908587184995,"276":0.13315513802095147,"277":0.04687510419034918,"278":0.2656410001295163,"279":-0.19278209500169322,"280":-0.22995004428512295,"281":-0.040827550181373615,"282":-0.30840098503337654,"283":-0.22512810098645528,"284":-0.23520652049123247,"285":-0.21691062954898313,"286":-0.18096714826873123,"287":-0.18241463749373824,"288":-0.35000710141280206,"289":-0.22189266327218607,"290":-0.07476031242168125,"291":-0.21799852742208733,"292":-0.16932179456467303,"293":-0.0891022573065816,"294":-0.3385594215633022,"295":-0.13280850329234523,"296":0.00948755925358409,"297":-0.0788885027225525,"298":-0.1317840977961018,"299":0.00990136738078864}},{"sx":10,"sy":10,"depth":3,"w":{"0":-0.08099455223467399,"1":0.0041875935461178826,"2":-0.007478040233252682,"3":-0.1059536724340977,"4":0.060755259856097046,"5":-0.05417374208302432,"6":0.22167048820697002,"7":0.34139021673125947,"8":0.2798898439239278,"9":0.043697033977563436,"10":0.21718610431116295,"11":0.11464259366251164,"12":-0.15565196847173166,"13":-0.12813323840353685,"14":-0.2818668401177669,"15":-0.15055081423636665,"16":-0.17303851525517955,"17":-0.3425207505459968,"18":-0.021945108935210754,"19":-0.13021482961403813,"20":-0.1705049630238654,"21":-0.022988806409837727,"22":-0.04904273683737942,"23":-0.1317357478019476,"24":0.05440310139047874,"25":-0.04837327629973416,"26":-0.06405907744410945,"27":0.05917619603168713,"28":-0.015718617849047326,"29":-0.1324181384967912,"30":-0.15450379156797123,"31":0.20622223163669548,"32":0.058065926962565274,"33":-0.13110792144707356,"34":0.11532094130403499,"35":0.1351171042707265,"36":0.11986583577536017,"37":0.3348859364793945,"38":0.2612529733360642,"39":-0.16661669234102994,"40":0.10100657333861991,"41":0.11100842073777803,"42":-0.03570740229478673,"43":-0.02301681872206897,"44":-0.02352444405190472,"45":0.03177766832191453,"46":-0.029314393547145753,"47":-0.18810186839387508,"48":0.01226568823337525,"49":-0.10801584044467771,"50":-0.07422379927856593,"51":0.1628339616615832,"52":0.2663594861431034,"53":-0.09991530831571348,"54":0.1369324187633089,"55":0.04192515086428969,"56":0.09659442791837777,"57":0.3128079251425437,"58":0.10256301556514681,"59":-0.019807575996032972,"60":-0.11840190104563446,"61":0.2689641446562342,"62":0.08337963453324247,"63":-0.2720968014942887,"64":0.0882474056754293,"65":0.004585516819220609,"66":-0.14460870903662829,"67":0.11690092931786601,"68":0.17222304415655154,"69":-0.11998311916343306,"70":0.166651348939355,"71":0.07346145497688233,"72":-0.21728064290098237,"73":-0.15365350477353173,"74":-0.22280378668119746,"75":-0.19985935315739736,"76":-0.22356067912988856,"77":-0.19175787923591586,"78":0.09109305610025653,"79":0.01321585132737206,"80":-0.04363320771583798,"81":0.15204659893936284,"82":0.08313305396658799,"83":-0.02477449183861243,"84":0.0761884623679558,"85":-0.04331306552700932,"86":-0.13106002292737848,"87":0.25297189122253566,"88":0.04993482978311272,"89":0.03449593886926471,"90":-0.13645951821471222,"91":0.1505664801050286,"92":0.1321601831357303,"93":-0.10837527440694354,"94":0.12990292081747495,"95":0.10791851294334938,"96":0.020028680962880723,"97":0.23801143749821327,"98":0.29106471630816727,"99":-0.12947942282418876,"100":0.08285618530029594,"101":0.16599059892256068,"102":-0.15629001669079173,"103":0.04220395020063137,"104":-0.129815896231788,"105":-0.12782040542484957,"106":-0.10453357842848912,"107":-0.2395258548189284,"108":0.13038030331271186,"109":-0.05782979223999161,"110":0.09285658045331868,"111":0.12464132735579679,"112":-0.06317640472675083,"113":-0.1427017423290116,"114":0.17416021639149043,"115":0.05405930154903309,"116":-0.09962587155177507,"117":0.26160165848270905,"118":0.14083284052305295,"119":0.011972028131614597,"120":-0.22836684130159962,"121":0.045955230628022904,"122":-0.010235790765956071,"123":-0.006596676080254364,"124":0.3118278903633202,"125":0.22016210581119147,"126":0.10557863274394363,"127":0.4168097578636898,"128":0.4032730091139017,"129":0.15044071452960295,"130":0.31025821492341327,"131":0.31431833631274764,"132":-0.02892003167244842,"133":0.0588805769836751,"134":0.11667368691165671,"135":-0.03730740125395661,"136":0.01560105745879529,"137":-0.0502759804407283,"138":-0.016135106428565908,"139":-0.2706062150344856,"140":-0.1538823363797258,"141":0.18586572043005806,"142":0.04984089043924142,"143":-0.036601838460315506,"144":0.40646547690385376,"145":0.09085769706266866,"146":0.09508555721520241,"147":0.07775769021946588,"148":-0.15343463306959232,"149":-0.23524796367854267,"150":-0.08360951004543728,"151":-0.0401447041552603,"152":0.05931961806790297,"153":0.14321743187922928,"154":0.26643470232304683,"155":0.3983962770069791,"156":0.21483929844712424,"157":0.3957429564442234,"158":0.4261419361258567,"159":0.03916528727799826,"160":0.24120012098727506,"161":0.28019068088778565,"162":0.1364403691971144,"163":0.14942240563333695,"164":0.21881446887676273,"165":0.14201754135929007,"166":0.04041438128081326,"167":0.10725194685902864,"168":0.20225119562538696,"169":-0.16808460664790248,"170":0.046368977006078456,"171":0.000025951125797389117,"172":-0.0018535547156098427,"173":-0.049977557609352935,"174":0.1376183023700853,"175":0.00041483547132114033,"176":0.09980560557143935,"177":0.368330803300276,"178":0.02359337684808368,"179":0.07007113200557823,"180":-0.1648794168742321,"181":-0.1735341389877435,"182":0.022811738927847887,"183":-0.008785018452521885,"184":-0.19336297933374014,"185":0.13741228913754605,"186":0.2279661028691195,"187":0.08933281314546838,"188":0.28517305029476964,"189":0.19821005896289742,"190":0.135873389425667,"191":0.3216581316629191,"192":0.33167605173017584,"193":0.22178019406335925,"194":0.3412266498021192,"195":0.2610638803670527,"196":0.05816836395991443,"197":0.23871840605712946,"198":0.009573489131887188,"199":-0.09902370346030138,"200":0.12991979865065792,"201":0.156312014070584,"202":-0.039641524646745294,"203":0.1057255294385819,"204":0.12922243739398687,"205":-0.013588035688659633,"206":0.08602775717444267,"207":0.09955144188446641,"208":0.029144457069642176,"209":0.039852927471499676,"210":-0.28675232398448747,"211":-0.1800615038051979,"212":-0.0987786796263176,"213":-0.22955365425119323,"214":-0.24623982535903619,"215":-0.12980744399699476,"216":0.23321645292021354,"217":0.006697581096401707,"218":0.19338424676860835,"219":0.21477774589781082,"220":-0.17018540853373168,"221":0.06926283957527196,"222":0.036284213038150236,"223":-0.20825382477476218,"224":-0.05784821423267239,"225":-0.045180037359633905,"226":-0.3866418135573278,"227":-0.13319017881897413,"228":0.02636858277866794,"229":-0.17817476075080432,"230":-0.06768364939496808,"231":-0.04435843221351393,"232":-0.2069551555201037,"233":-0.026329127381964232,"234":-0.06080055097918538,"235":-0.21891241086930202,"236":-0.03485893367389711,"237":0.1548483934061405,"238":-0.10482813937701567,"239":0.02121002384317019,"240":0.09247342380049789,"241":-0.11548063626139514,"242":-0.05750822724290518,"243":-0.22848888585254343,"244":-0.3362087221729524,"245":-0.16501007631555267,"246":-0.21985401084358022,"247":-0.3128270048877206,"248":-0.16784212145714703,"249":-0.354639466008628,"250":-0.510035127117018,"251":-0.21952415384541055,"252":-0.2947284045291664,"253":-0.4171298839035534,"254":-0.24298863868701456,"255":-0.23364190917765956,"256":-0.42949115908344715,"257":-0.10532338564542011,"258":-0.0554728413194514,"259":-0.3138681646044649,"260":0.08259038997018724,"261":-0.06673016056662091,"262":-0.28610668601263745,"263":-0.11427790743595329,"264":-0.19944485467685566,"265":-0.41011712579464277,"266":-0.04945542277807287,"267":0.15338904176862553,"268":-0.10222081920916219,"269":0.02952983180140995,"270":0.23129017193857654,"271":0.12426808493919868,"272":0.1724750383244915,"273":0.30046258515634067,"274":-0.0478496387224079,"275":0.04747191728100903,"276":-0.013215661528448677,"277":-0.09306934752191298,"278":-0.04152151224477106,"279":-0.025923346735547213,"280":-0.2351379991916392,"281":-0.010074881692825433,"282":0.03629228738184884,"283":-0.2899020827761098,"284":-0.17340656705770902,"285":-0.03721987197136294,"286":-0.20716199667574461,"287":-0.059216628713463816,"288":-0.016594687450156635,"289":-0.311786285507156,"290":0.010364791767599326,"291":-0.13745318669755613,"292":-0.28174595617525666,"293":-0.10601601425612539,"294":-0.31217165935510754,"295":-0.4118219856508066,"296":-0.11558378159133405,"297":0.0016139024366264405,"298":-0.260125497500439,"299":0.03436852683324892}},{"sx":10,"sy":10,"depth":3,"w":{"0":0.06706500666413762,"1":-0.14609347454348748,"2":-0.10433430783268591,"3":0.14214755668026174,"4":0.10651799183158467,"5":0.04465377133143811,"6":-0.06575601967463167,"7":0.0026865819621914293,"8":-0.0576918048243622,"9":0.07745302158840901,"10":0.079145423025913,"11":0.07074516343181074,"12":0.2420499707998941,"13":0.1356092226717244,"14":0.1821983155883933,"15":0.2533153686032848,"16":0.23004894898735181,"17":0.012353829122717618,"18":0.030017800809383006,"19":0.08539133977842588,"20":0.016710834299095492,"21":0.05268901569966944,"22":0.11172813745554332,"23":0.08232540081064829,"24":0.02936900847264222,"25":0.16115634383150984,"26":-0.006344325345269006,"27":-0.003628866388833416,"28":0.019129086465551674,"29":-0.2877263270360156,"30":0.0077154941279982585,"31":0.03672432934011947,"32":0.03854728347340597,"33":0.20779696217724222,"34":0.1338404709265205,"35":0.20151207330542534,"36":0.07786241617261952,"37":-0.08316967513347921,"38":-0.09096835766092835,"39":0.038155741356406,"40":0.04813646279992791,"41":0.04318934644506641,"42":0.15917547343592045,"43":0.07067396702203303,"44":0.11214591243910549,"45":0.1936016840887954,"46":0.12798178758376139,"47":-0.08852438531743728,"48":0.08151712189525583,"49":0.13113436776596246,"50":-0.046730255000321214,"51":0.0592786427520901,"52":0.08854917226166412,"53":0.054900473373938816,"54":-0.06536606148169401,"55":0.11409163405720268,"56":0.05792591722263044,"57":-0.23983725433697556,"58":-0.08162453540823127,"59":-0.2741369039607014,"60":-0.08517974124159311,"61":-0.05453561859883663,"62":0.05833237440648534,"63":-0.23554929096524757,"64":-0.3331789312391419,"65":-0.0024850272121286383,"66":-0.11479693762313467,"67":-0.37095302100603744,"68":-0.1810691497183793,"69":0.2622201531917857,"70":0.08405370671553222,"71":-0.0054881176860522105,"72":0.16640697626621373,"73":0.19915723711923541,"74":0.12884180368538944,"75":0.06311104037453723,"76":0.15594965293934057,"77":0.12874141996861624,"78":0.11912995177664802,"79":0.26543625064405696,"80":0.20948620278919447,"81":-0.08041842181197142,"82":0.11643627885067313,"83":0.11902669357454845,"84":-0.07351221477580633,"85":0.12839990474183668,"86":0.06878839858779827,"87":-0.26352947568047563,"88":-0.10911789341929526,"89":-0.17246184713178817,"90":0.0896279879897562,"91":-0.08926733448846311,"92":0.0814854333842495,"93":-0.025642860854697462,"94":-0.1468311224804415,"95":-0.06700003539986515,"96":-0.1986316021230719,"97":-0.2526523468492266,"98":-0.23112890679592027,"99":-0.05559087402076091,"100":-0.21328389959593044,"101":-0.15765196344578278,"102":-0.06276558173006815,"103":-0.23957169835453682,"104":-0.3525376731087274,"105":-0.16723469333383179,"106":-0.3116406426395816,"107":-0.3062446841233719,"108":-0.18424410609598096,"109":-0.23905010643393224,"110":-0.17526207340639632,"111":-0.09587143532773247,"112":-0.0624857936070642,"113":-0.12918315482652995,"114":-0.1883998933470225,"115":-0.03152821358525985,"116":-0.09206124096568329,"117":-0.18255508188205183,"118":-0.13636586589830302,"119":-0.13304021789669782,"120":0.15678336735814397,"121":-0.1464549461794972,"122":-0.09941690156281391,"123":0.28209952657177456,"124":0.21179389257544531,"125":0.11908194680826822,"126":0.10307827927107535,"127":-0.11338158364063253,"128":-0.08010229783676287,"129":-0.09234708080235733,"130":-0.3612242201237796,"131":-0.3724310256437758,"132":0.023594921809490514,"133":-0.30666955822289355,"134":-0.37485790946125674,"135":-0.26964045302941614,"136":-0.27768280938355605,"137":-0.2853721273262555,"138":-0.2498395897546666,"139":-0.2721901790962605,"140":-0.3625138574434238,"141":-0.15657445581944443,"142":-0.16774611039958537,"143":-0.14324590563415174,"144":0.01582484171252784,"145":0.03503672650954794,"146":0.030002276039864058,"147":-0.15069156503135653,"148":-0.023557329320787447,"149":0.18017924632378018,"150":0.10131908169816857,"151":0.18867754335375553,"152":0.04321790315763029,"153":0.19086058705136613,"154":0.22389011417159513,"155":0.1642384430949687,"156":0.040670729214621386,"157":-0.049243714698669006,"158":-0.021848460099101272,"159":0.13312503253859662,"160":-0.18781510635694215,"161":-0.1292403534940271,"162":0.08799491949847507,"163":-0.047403600027205,"164":-0.2005651308516624,"165":-0.020063996754542644,"166":-0.22888623129564228,"167":-0.3357303507370918,"168":0.019345227448409563,"169":-0.1527674137533819,"170":-0.19553820319598844,"171":0.1737576328100921,"172":0.03346373480669812,"173":-0.02697148288303339,"174":-0.22262488943487382,"175":-0.08081598916723734,"176":-0.17945495750617604,"177":-0.3479861560752709,"178":-0.12171147511339961,"179":-0.14408147137202684,"180":-0.2253256728788096,"181":-0.18085874721596723,"182":-0.17961992016412892,"183":0.10432535125800196,"184":-0.1247174126258694,"185":0.16295250141132336,"186":0.1430295962061274,"187":0.021829626617554942,"188":-0.022238459630635234,"189":0.14906878161194242,"190":0.0041758554486754735,"191":-0.02247118772009773,"192":0.07476844243955226,"193":-0.1344130549342568,"194":0.017982978676848026,"195":0.24991518784283884,"196":0.16948152859789056,"197":0.07190136884354098,"198":0.24471328007001605,"199":0.15408897726022988,"200":0.10787267893674365,"201":0.26689891003597416,"202":0.09646378425860203,"203":0.06860244203099847,"204":-0.09730164223042843,"205":-0.14639125258780086,"206":-0.07250573253633424,"207":-0.24162824513884631,"208":0.041125900743649475,"209":0.027451794119186024,"210":-0.2858034561473206,"211":-0.30948968891602746,"212":-0.26255713266837327,"213":-0.1851915496812876,"214":0.0235314140719731,"215":0.09520238492006389,"216":0.09811784896169407,"217":0.019522679051403303,"218":-0.006302298822806522,"219":0.08297557339573045,"220":0.1469105652792251,"221":0.017582786769310615,"222":0.1800055645017818,"223":0.04333372613595302,"224":0.04296375100015913,"225":0.3777532467119688,"226":0.5542773047439141,"227":0.39592880982760614,"228":0.4268712853118043,"229":0.5080969513378412,"230":0.3434423434499096,"231":0.2011863516397109,"232":0.45770773959040556,"233":0.32040943938385064,"234":-0.04846418298129409,"235":0.005355163815111672,"236":0.048761034207488056,"237":-0.1139933849948188,"238":0.06546268766320211,"239":0.09910566305672197,"240":-0.33832079305136553,"241":-0.22913429059775825,"242":-0.14763150782446816,"243":0.03746412535624624,"244":0.10770942803512626,"245":0.2313216228548921,"246":0.18304427142043078,"247":0.006501794426521477,"248":-0.03642030240614833,"249":0.013612678729939941,"250":0.11309405782764834,"251":0.05004235078176734,"252":0.12625468256048641,"253":0.12616470110233877,"254":-0.013703644131109305,"255":0.3901188880758665,"256":0.38793786248562706,"257":0.4255319458594645,"258":0.34554485507365396,"259":0.3598664986564377,"260":0.37176504810253386,"261":0.2101757546718439,"262":0.2244605825254844,"263":0.2309737045256856,"264":-0.0950525790862441,"265":-0.019353407003466716,"266":0.0728472020595187,"267":-0.23371612535644867,"268":-0.11906999204703161,"269":-0.09204054487951652,"270":-0.17998518993618332,"271":-0.28483078208971324,"272":-0.18007874427093398,"273":-0.11737655204194049,"274":-0.04371807028995726,"275":0.02577060380368375,"276":0.15196296923244293,"277":-0.12569001138916527,"278":0.008733676465181419,"279":0.10429480715430864,"280":-0.026911148880305182,"281":-0.14855105205826802,"282":0.15444822636952285,"283":0.045680290660056196,"284":-0.02612793581570514,"285":0.43886965272254386,"286":0.13976150806504464,"287":0.0494706429277688,"288":0.2950452959255277,"289":0.16222858909474244,"290":0.12879421689837328,"291":0.11366046068523443,"292":-0.05844163286572314,"293":0.07646758171092471,"294":-0.3024941903845068,"295":-0.32852275504340567,"296":-0.26815693616384123,"297":-0.44605190477894296,"298":-0.4176381955982822,"299":-0.2859210068196356}}],"biases":{"sx":1,"sy":1,"depth":6,"w":{"0":0.1618265516535388,"1":-0.895401263464847,"2":0.2227536249423176,"3":0.5411132276748035,"4":0.08639603178971232,"5":-0.17326327122874768}}},{"out_depth":6,"out_sx":9,"out_sy":9,"layer_type":"relu"},{"out_depth":100,"out_sx":1,"out_sy":1,"layer_type":"fc","num_inputs":486,"l1_decay_mul":0,"l2_decay_mul":1,"filters":[{"sx":1,"sy":1,"depth":486,"w":{"0":0.029303592454582892,"1":0.04334159946453993,"2":0.010436471776693532,"3":-0.07313428799640422,"4":-0.013911721287198395,"5":-0.03811520749137557,"6":0.031300008089636934,"7":-0.05136927069612407,"8":0.004350474670002983,"9":-0.05981378885761814,"10":-0.08924602207857767,"11":0.042686860941364146,"12":-0.04265347949558099,"13":-0.06401216737810769,"14":0.15412663229303997,"15":0.045285001013752615,"16":-0.04456680230924752,"17":0.010981431884926805,"18":0.006016397686120498,"19":-0.02306922429518561,"20":-0.021385079617661902,"21":-0.00809949034534263,"22":-0.05651578820707289,"23":-0.09613916761317017,"24":-0.055529576575357883,"25":-0.02238861697792865,"26":0.049144993673849946,"27":0.020277775211446625,"28":0.0502390163253465,"29":-0.012051080263063316,"30":-0.002821471598588202,"31":0.030706939469088375,"32":-0.024360129691466777,"33":-0.10524073184620206,"34":0.00905049474190596,"35":0.00019751057801102378,"36":-0.03647189488677555,"37":0.04394213609244494,"38":0.008714971464516608,"39":-0.048535747006259414,"40":0.0012493608222640328,"41":-0.010794821734633002,"42":-0.14803671894850984,"43":0.021573724818479162,"44":-0.09267252485876147,"45":-0.042513310250958544,"46":-0.055630582995526125,"47":0.1383704274415042,"48":-0.06281084202204143,"49":-0.07168508394400329,"50":-0.007798175005082769,"51":-0.09741925567757172,"52":-0.07941921127695095,"53":0.03954028043548823,"54":0.025390785508873834,"55":0.0464515957086112,"56":0.029323257745986014,"57":0.01013202012878438,"58":-0.06986556550003198,"59":0.1431924521819887,"60":0.004074799384419537,"61":-0.009152899141518829,"62":-0.05453338671022489,"63":-0.06790958248005562,"64":-0.004851880483145076,"65":0.09551641776379646,"66":0.018153307855167992,"67":0.04053852875680155,"68":0.049675706479660534,"69":-0.026022022914094972,"70":0.019813055287314838,"71":-0.006883121339441829,"72":0.013328877281809573,"73":0.017168982541409895,"74":-0.06339828345645665,"75":-0.058969563064149425,"76":0.019201178366087996,"77":-0.051076062672386284,"78":-0.0211118680075716,"79":-0.08680546026709755,"80":0.02060503192538705,"81":-0.12341495087471353,"82":-0.09222922435615187,"83":-0.07355435956100734,"84":0.0168773942537258,"85":-0.011577576570195829,"86":0.0328057599500289,"87":-0.1339534256915999,"88":-0.02769846041433241,"89":-0.053955428732916436,"90":0.057250190574267855,"91":-0.03147375264127941,"92":-0.062265791993826966,"93":-0.002737342471785554,"94":0.04262279275029668,"95":-0.07048477943286222,"96":0.01914111321807632,"97":-0.0388825791518906,"98":-0.11580711249758593,"99":-0.06929760831085574,"100":0.04054220444594998,"101":-0.016142708898150542,"102":0.059409434172232885,"103":-0.09037830646118257,"104":-0.019494892694397862,"105":-0.022075768591396223,"106":-0.036278918955287905,"107":0.1157908015156761,"108":0.10751184339169237,"109":-0.07907611592990302,"110":-0.01639301951761676,"111":-0.037447440556904674,"112":-0.04620313756218748,"113":0.08608059507243067,"114":-0.01700834383908179,"115":0.0068130916749255775,"116":0.06437202929819072,"117":0.06083839883514222,"118":-0.09157466171517978,"119":-0.001929939133172473,"120":0.019422415959844334,"121":-0.06341361979791837,"122":-0.04458439399812212,"123":0.07045093231401488,"124":-0.06120238478052381,"125":-0.06420714376236679,"126":-0.09052542027025628,"127":0.00873247316589682,"128":0.015637906528037322,"129":-0.04237166134279545,"130":-0.014279143551755108,"131":-0.05082418342409766,"132":-0.09246751770414251,"133":-0.002395572728727572,"134":0.03244098441299577,"135":-0.03388852764148083,"136":-0.07863751678676835,"137":0.1200114804383047,"138":-0.07766685035899747,"139":-0.004982568385122809,"140":-0.0014121791362992756,"141":-0.022767379492972948,"142":0.047002464426320396,"143":0.0356672585618976,"144":0.01970187784984015,"145":-0.019653775562493023,"146":-0.03178689219396867,"147":-0.027970192028966927,"148":0.01132437599726832,"149":-0.027550443860836542,"150":0.06255215072887944,"151":-0.08468361468407579,"152":-0.06089617707159667,"153":-0.034920916982772894,"154":0.03558292258438494,"155":0.022855358281149624,"156":-0.042882544604465216,"157":-0.051900475052233434,"158":0.008655167221396056,"159":-0.050666236212777764,"160":-0.04873625851741287,"161":0.05675601455679195,"162":-0.04668782312503395,"163":-0.036003781307020435,"164":-0.0038489500463248475,"165":0.08518220766424349,"166":0.05034293102807361,"167":0.02022958292760031,"168":-0.16111669357822012,"169":-0.016263810035880694,"170":-0.04668735128509871,"171":-0.10616021904395255,"172":-0.02591208545138345,"173":-0.08434734156226992,"174":0.03642804632844852,"175":-0.006874765266654897,"176":-0.01467045914919378,"177":-0.07209529936930441,"178":0.02972035391089965,"179":-0.05895062528248721,"180":-0.013166011045059843,"181":0.005566866828305538,"182":0.0006555914523508933,"183":-0.04457972583494257,"184":-0.07582581843913944,"185":0.02879743416821552,"186":0.03520376518480606,"187":0.03594954952875539,"188":0.07516062380032441,"189":-0.04195193023472954,"190":-0.04524153449791529,"191":0.09571967994615704,"192":0.02587433952518833,"193":0.009802284611024527,"194":-0.0463276433093913,"195":-0.009538485909124999,"196":0.0335082305086471,"197":-0.016632880869702958,"198":-0.0043228697086738115,"199":-0.04403534048521777,"200":-0.06385719527619521,"201":-0.004064792750786499,"202":0.06777782538319459,"203":-0.17328986072276614,"204":-0.06955660795966834,"205":-0.07213728532161252,"206":-0.00665053872812695,"207":-0.0498339587024154,"208":0.0028128707138091527,"209":-0.006229083065382109,"210":-0.10750472988478549,"211":-0.05554787439304472,"212":0.12565535297330355,"213":0.024520347105150945,"214":0.01744104257122641,"215":0.1575802458584308,"216":-0.03388635028914839,"217":-0.08073339280422823,"218":0.00812228501392908,"219":0.030701686646833367,"220":0.030250184220877704,"221":-0.011818646144467046,"222":-0.06394510236760455,"223":-0.04378523837429144,"224":0.03921880981821876,"225":-0.1428820832472303,"226":-0.0029135099997284804,"227":0.03813947811430918,"228":0.07827701584600667,"229":0.023414153313924806,"230":-0.08979113349533266,"231":0.05607782244205898,"232":0.021677054298490348,"233":-0.024292840181955638,"234":0.02633052802193895,"235":-0.03808330134722511,"236":0.10165513803940535,"237":-0.059068779057628265,"238":0.0007190115700594139,"239":0.03607233241438357,"240":-0.030751033173176893,"241":-0.032820503146027115,"242":0.012510726891260036,"243":0.09278255857076112,"244":0.0732687529282993,"245":-0.00785247798570736,"246":0.0749887702261933,"247":0.005763703194110383,"248":0.012234306636737599,"249":0.0038944642538249964,"250":0.02238479348228908,"251":0.021761140500322258,"252":0.04365267756354295,"253":0.05780874302327907,"254":-0.03651111906561901,"255":-0.004991305981187944,"256":-0.06263161067960059,"257":0.01351655613604822,"258":0.08690446284743075,"259":-0.09066228508642796,"260":0.04032143114867115,"261":0.06767611278486697,"262":-0.05157077191955646,"263":-0.010340875134146013,"264":0.03540714853986691,"265":-0.01853078160303231,"266":0.00826081673713449,"267":0.09103319718451378,"268":-0.07184806804966629,"269":-0.041210621853766324,"270":-0.044644915314588245,"271":-0.06073788031446225,"272":-0.0004696537995835946,"273":-0.019784911604600965,"274":-0.05159182592100107,"275":0.006297648274837257,"276":-0.1312058382733509,"277":-0.016247085070556676,"278":-0.007880330247990652,"279":-0.09180263104536189,"280":0.07285032712979538,"281":-0.009841245777703811,"282":0.022332462247597627,"283":-0.02698138349993341,"284":0.02170174864979144,"285":0.030654610350510297,"286":-0.06056330599605192,"287":0.017929800464188378,"288":-0.005002740671928158,"289":0.07576306750856548,"290":0.031354204437398135,"291":0.047881112040178524,"292":-0.05122244301253321,"293":0.07308847579239221,"294":-0.02340107795073561,"295":0.010477545711327052,"296":-0.007869093139576901,"297":-0.021715118534258577,"298":-0.02948625644785833,"299":0.06244780861111928,"300":-0.01657229879803694,"301":-0.04106124060839823,"302":-0.04818441172026951,"303":-0.06408239265583375,"304":0.023595583066216515,"305":-0.004433973808573244,"306":-0.007096908469467375,"307":-0.014338528684774955,"308":-0.0822303634952797,"309":0.12116233520098386,"310":-0.038805883845522714,"311":-0.021790313763962784,"312":-0.0039053021794797087,"313":-0.05385536960363224,"314":0.08857879590461926,"315":0.09174823711538867,"316":-0.0016710343360269062,"317":-0.001516519192590665,"318":-0.06272587903723213,"319":0.0012599574548886746,"320":0.0698834837443916,"321":0.06048825619827332,"322":0.07772069945232873,"323":0.014940310554552487,"324":-0.005917896160599858,"325":-0.058094813604544306,"326":-0.06839429112016039,"327":-0.05294623479145163,"328":0.016167389080614346,"329":-0.01358925714641837,"330":-0.004962801500444578,"331":0.01830381721790285,"332":0.032860786512578705,"333":0.07341212383465592,"334":-0.023774045449041922,"335":-0.07844615523272759,"336":0.002199780400772398,"337":-0.07176037559424782,"338":0.13125454185257482,"339":-0.046564211637175085,"340":-0.005710466334134818,"341":0.055751005603124695,"342":0.05334636406505812,"343":-0.058118410127528136,"344":-0.016600944975620882,"345":-0.0845037077698777,"346":-0.04439512709574456,"347":0.06503950240309006,"348":-0.008878050724993808,"349":-0.05287926079527868,"350":0.08552464504859421,"351":-0.07891862509069922,"352":-0.03846339974147185,"353":0.007100508866758706,"354":-0.06459387457629563,"355":-0.09918298764511642,"356":0.0030724166567014407,"357":-0.013936304045509842,"358":0.04572610315021412,"359":0.042530993235071736,"360":0.011521829948455003,"361":0.033656156903016356,"362":-0.06303959845708493,"363":0.037553562379845674,"364":0.03606790328633294,"365":-0.11255227510556755,"366":0.06523040141113354,"367":0.015866875747608773,"368":0.16490510774649636,"369":0.05735970826330187,"370":0.054097464679850625,"371":-0.05415846563166393,"372":-0.10093734019842836,"373":-0.030249071063105086,"374":-0.016533385881361096,"375":0.01806117876865768,"376":0.12869981699125807,"377":0.0040166465615853785,"378":-0.05958021982817802,"379":0.09468844694990979,"380":-0.016397158075524478,"381":0.10057631655883258,"382":0.05210388060792867,"383":0.027973001298061097,"384":-0.027585358424503107,"385":0.08050268931138238,"386":-0.07489197726546655,"387":0.03993904168145974,"388":-0.03526326710468197,"389":-0.12731237848128968,"390":0.013910183927719994,"391":0.04104726081290716,"392":0.09292311935402392,"393":-0.13010123761091066,"394":-0.0780403544285348,"395":-0.05912338676347255,"396":0.041125625091476305,"397":-0.035096351245939975,"398":0.07418284389088607,"399":0.03380813920637808,"400":0.039767343707605006,"401":0.07077437298412431,"402":-0.014853252895254694,"403":0.026469772155173613,"404":0.056551859880377406,"405":-0.06322105833600392,"406":0.026002213599783025,"407":0.00012409944845565945,"408":0.022258308691496625,"409":0.0132645319708587,"410":-0.004050226043514234,"411":-0.15358527821370122,"412":0.18034329409149596,"413":-0.01610407525921044,"414":-0.008637469768508321,"415":0.005522470726346933,"416":-0.011683964076334541,"417":-0.03910135039288634,"418":-0.04066222716535497,"419":-0.045691888900898384,"420":0.0032240337832971392,"421":-0.07385461499670781,"422":0.08386844741486482,"423":-0.0133853705993905,"424":0.047912436606561276,"425":-0.09325670069609024,"426":0.05852034291450749,"427":0.03702235464334097,"428":-0.08377649816318963,"429":-0.016191219406514825,"430":-0.00491745820420537,"431":0.011020992675380044,"432":0.06962641559068541,"433":-0.05242916696111291,"434":0.0010754849077744748,"435":0.0630726127276862,"436":0.045325310955483436,"437":-0.034480554806100606,"438":0.016859969667962275,"439":-0.06061811660673791,"440":-0.08231985965868373,"441":-0.0431414184830878,"442":0.01873741531561995,"443":0.04173870532672439,"444":-0.0006225624998393117,"445":0.059028733028899265,"446":-0.025554694986430405,"447":-0.1191093401693048,"448":-0.04944418480146241,"449":-0.024229986041183503,"450":0.014279538657928083,"451":0.03164257556230131,"452":-0.050568012430043004,"453":0.10822890479227928,"454":0.1329931359193793,"455":-0.05528515596047042,"456":-0.10543713249802948,"457":0.007177269537084877,"458":0.07949268363616695,"459":-0.04162035962198813,"460":-0.02232291124988093,"461":0.09722672378416451,"462":-0.06157418303710056,"463":-0.039423345405128575,"464":-0.021180585216312567,"465":0.014677433759831078,"466":0.07154959409825232,"467":-0.054283089226199864,"468":-0.017997598410956835,"469":-0.052754497320055785,"470":-0.11809389191995284,"471":0.07947765118619354,"472":0.060197044143416395,"473":0.04887278601668176,"474":-0.034237434016725896,"475":-0.05386059798141672,"476":-0.16584393000674447,"477":0.004004782340210411,"478":-0.09041838112909645,"479":-0.10841238685610742,"480":0.09249311565300529,"481":-0.015714939124254854,"482":-0.03320142387824101,"483":0.04506158757286695,"484":-0.038696919762150464,"485":0.012933285677792365}},{"sx":1,"sy":1,"depth":486,"w":{"0":-0.1406619663550901,"1":0.05710827891560419,"2":0.10376782854619605,"3":0.031339242957654286,"4":0.0928461461189295,"5":-0.21249264749047675,"6":-0.06149640609341749,"7":0.06448991033649275,"8":-0.12010393591194887,"9":-0.013650939160336256,"10":0.07050364809531678,"11":-0.07360488106615806,"12":-0.08964010959019861,"13":0.046202466416993895,"14":-0.041251718715848415,"15":-0.06404733584460194,"16":-0.018441000621659046,"17":0.03051499461817145,"18":-0.0945854545365897,"19":0.06354215007327121,"20":-0.07254577902880124,"21":-0.038808439398639955,"22":-0.06611211655291759,"23":0.16618880099545577,"24":-0.014199254524252088,"25":-0.0726038397900589,"26":0.018733606536981463,"27":-0.025270002506835327,"28":-0.04608402308767543,"29":0.001986776973736086,"30":0.003196006979596079,"31":-0.07800833478226188,"32":0.055861981927335255,"33":-0.06680878908664475,"34":-0.08403742557300989,"35":0.03207983665387826,"36":-0.01625284691849507,"37":-0.04186025771302688,"38":0.13202890875723328,"39":0.09229789895080258,"40":-0.052153122005759486,"41":0.07401258837254103,"42":0.03654855893237407,"43":0.04747232320883492,"44":0.0038564840884381894,"45":0.050575792031097355,"46":-0.044902971582265055,"47":-0.02988572537855377,"48":0.036682549364391887,"49":-0.05454153539165868,"50":0.06946945063592397,"51":0.15403182536078044,"52":0.0883381319855381,"53":-0.060184369928489835,"54":-0.2049074569443032,"55":0.05012084979636031,"56":0.011948066533305983,"57":0.033672525128272665,"58":0.0028457450187251727,"59":-0.2342370365887394,"60":-0.05366035383024937,"61":-0.001013397759482567,"62":-0.061149271386196295,"63":-0.07748786529910914,"64":0.031176475975294212,"65":0.08271567708575378,"66":0.058211016805885855,"67":0.014122715518551413,"68":0.03822532440255155,"69":0.028944082999359716,"70":0.00004356280278787661,"71":0.03222714523729224,"72":0.03991061806351343,"73":-0.0400070359345537,"74":-0.033262037116638346,"75":0.051825316286569785,"76":0.08551557825265596,"77":0.027991993957181625,"78":0.03593506630408342,"79":-0.11812760122813912,"80":-0.04903651212059339,"81":-0.0045459571424922305,"82":0.05035723254223065,"83":-0.0866032478196832,"84":-0.059553411479004344,"85":0.02961758803120975,"86":0.02890609933712282,"87":0.05195968950428811,"88":0.026474549311762418,"89":-0.1528602761379761,"90":-0.059959353885633275,"91":0.0401051086243274,"92":-0.025851841829561517,"93":0.022048821029911733,"94":0.07165613419497144,"95":-0.08052909339381863,"96":-0.004996546991013531,"97":-0.04670026226151907,"98":0.0691296521347662,"99":-0.02571187887147653,"100":-0.027643161327950954,"101":0.027092820249354554,"102":-0.06220947050284538,"103":0.045530551785403856,"104":0.15753272844017363,"105":0.09847185180250433,"106":0.10305732116244352,"107":-0.07794392473450734,"108":-0.16473433671980775,"109":0.027117901400604254,"110":0.016321426714701496,"111":0.005717972207015654,"112":-0.005003270882359126,"113":0.09801845721238613,"114":-0.029190328793593737,"115":-0.08169531346353338,"116":-0.08994343929273682,"117":-0.05754596602102937,"118":-0.02542477088186369,"119":0.011792251447602434,"120":-0.003084649755232156,"121":-0.16977921462205608,"122":-0.04315937118794055,"123":-0.07064736092313235,"124":-0.03049510583941869,"125":-0.03277679958692384,"126":0.04053893727635205,"127":-0.12479263347053861,"128":-0.08264325705455237,"129":0.045469149254997815,"130":0.08631337613432087,"131":0.08764881096843918,"132":-0.028318410990071024,"133":-0.012264914037536578,"134":-0.10040370296094962,"135":0.011393854088753406,"136":0.03839390572811191,"137":0.04549488770256241,"138":0.048482120945867235,"139":0.014686738433678374,"140":0.048336612460226754,"141":0.11344838910983172,"142":-0.0361103168398066,"143":-0.009672787764266708,"144":0.013013701151560165,"145":0.04358993711252456,"146":-0.012168615986058054,"147":0.0493541358428727,"148":0.017345203939271824,"149":-0.02644316616650285,"150":-0.04513057749637643,"151":0.019042904615789565,"152":0.024076223838798396,"153":0.04778984828291257,"154":0.053619171083469155,"155":-0.01359185854926036,"156":-0.13172689070136648,"157":0.0115379948361021,"158":-0.06884420468799377,"159":0.007163485970479841,"160":0.028488742297410434,"161":-0.09044217633182035,"162":0.07923341706636444,"163":0.013837478271581782,"164":-0.01977577968775334,"165":-0.03115601138989922,"166":0.02892206798997509,"167":-0.025299764490119316,"168":0.05788736080527014,"169":-0.09891443487530446,"170":-0.0018902877420526167,"171":0.08094036026261583,"172":0.11648150013756592,"173":0.07861114390082631,"174":0.11080794681321778,"175":-0.07836699837871143,"176":0.01648656073898042,"177":-0.03754156441034294,"178":0.000893278641977878,"179":-0.013416405551970679,"180":0.025979735116843396,"181":0.02784508539914927,"182":-0.01468066503756413,"183":-0.02470349119678222,"184":0.1362522586381628,"185":0.19935983662857681,"186":0.040688179968019475,"187":0.06637036358483338,"188":-0.09236753148664767,"189":-0.049339410951510045,"190":-0.08618250610979512,"191":0.0812878421857244,"192":0.05435112623365864,"193":-0.011047521968284799,"194":-0.06331884414992095,"195":-0.06613136337466494,"196":-0.09876643113966728,"197":-0.12534623797862088,"198":-0.0016220307907457879,"199":-0.0006661484585504055,"200":-0.05144783325510471,"201":-0.010173475299336942,"202":0.015962998220063317,"203":-0.007302120717667669,"204":0.13526975775138217,"205":-0.10609075855118118,"206":0.031106898778699127,"207":0.12049711821919039,"208":0.030557470644356603,"209":-0.07655787408008918,"210":0.10815952592228137,"211":0.07223921048552841,"212":-0.000660994488057588,"213":-0.06876046277856686,"214":-0.014024205332191063,"215":-0.051638151233040316,"216":0.11611548497927682,"217":0.03020909268507586,"218":-0.07649799845407665,"219":-0.048263546405127165,"220":0.04513787011245131,"221":0.15709237785570884,"222":-0.012730629644304775,"223":-0.028511579638929425,"224":0.07880378014044638,"225":0.024226414349355265,"226":-0.045546478335460855,"227":0.0453435751621444,"228":-0.09183401828911836,"229":-0.0626814790937457,"230":-0.042759027281117634,"231":-0.030823054555087822,"232":-0.06984333579401857,"233":0.041541636264789954,"234":-0.05730478278699668,"235":-0.07904626727197889,"236":-0.08821622131346825,"237":-0.03381691361369412,"238":0.0008496813391953922,"239":0.009353598723066665,"240":0.14922029757902416,"241":0.06757859445059433,"242":-0.04072229830915836,"243":0.05177710458262709,"244":0.028431287155367378,"245":0.12068568373062331,"246":0.017849938963515076,"247":0.057296923100500725,"248":-0.002693461311062426,"249":-0.04493716278129009,"250":0.035171010152424416,"251":0.08269759685635973,"252":0.014435277445929493,"253":-0.034353511443869625,"254":-0.09563989817907373,"255":-0.07115661102209064,"256":-0.10876811849337016,"257":0.026378866071183737,"258":0.12221681042004365,"259":0.02915086183335375,"260":0.022267417510643307,"261":0.03166690598330954,"262":-0.01892283648394087,"263":0.16185558324029428,"264":0.07631500230806854,"265":0.031062101358008094,"266":-0.02012619032517341,"267":0.030340569226055453,"268":0.014872322200488447,"269":-0.02064634832214661,"270":0.03334724669485601,"271":0.10562495477660287,"272":-0.09027817668852395,"273":-0.020015352833552758,"274":-0.088345438607179,"275":-0.09288852028111444,"276":0.06106370202647356,"277":0.07528321191706311,"278":0.09732549770251799,"279":-0.011934844288861721,"280":-0.08269953244486992,"281":0.036499223484220654,"282":-0.017728088516263917,"283":-0.009748974091223264,"284":0.10375189777288933,"285":0.08389666986454836,"286":-0.0045432780149022665,"287":-0.11479798717298943,"288":-0.06279103111376971,"289":0.10164007850847304,"290":0.044935859114383976,"291":0.01671061581265478,"292":0.011452489930029763,"293":-0.18151915521907516,"294":-0.08725600755072689,"295":0.039516662936944065,"296":-0.01582441293428665,"297":0.0005353568626302726,"298":0.16554375542431282,"299":-0.040410542962459786,"300":-0.03466528421525088,"301":0.01881848188782214,"302":-0.025680016474079893,"303":0.04622258660341548,"304":0.10420120638858792,"305":-0.08299013218735037,"306":-0.019427599375188544,"307":0.14985482363005204,"308":-0.1235598153045888,"309":-0.07197597534095812,"310":0.06098814661794188,"311":-0.07518205517237184,"312":-0.020410896818583567,"313":0.039046420577136996,"314":-0.0861506570642972,"315":-0.03698214766590922,"316":0.028346328826647033,"317":0.0323299038305125,"318":0.13050705734497323,"319":0.0328615066443791,"320":-0.0156342510157349,"321":-0.11360555325105977,"322":-0.14618622764513392,"323":0.02876880899246403,"324":0.08620201183208501,"325":-0.08391610162488974,"326":0.04262277240855272,"327":0.031177026714679836,"328":-0.04311911693533333,"329":0.03924431369187244,"330":-0.02417050110632593,"331":-0.07984536645409238,"332":-0.026435415424248612,"333":-0.08709143169091349,"334":-0.13631336017849258,"335":0.04603137898145858,"336":0.029180039988400124,"337":0.07311612819122726,"338":-0.0812442192886273,"339":0.03355368607340488,"340":-0.06593648397766805,"341":0.07754711008354569,"342":-0.08452829054750623,"343":0.04850406810031104,"344":-0.0015610821703648144,"345":0.04886718600245853,"346":-0.14372234503101683,"347":-0.1396160387036579,"348":-0.09076041635899194,"349":0.04360709891272291,"350":-0.15155009657170496,"351":-0.06563355533298112,"352":-0.2237817392589626,"353":-0.006082303143335701,"354":0.07334239896441246,"355":0.09357994494866417,"356":-0.08871832010794707,"357":-0.18693981076229826,"358":-0.06357642751667032,"359":-0.10170512979209362,"360":-0.006601444956950284,"361":0.03384560484605582,"362":0.013814418703453967,"363":-0.1084764129302145,"364":-0.03665965678166622,"365":-0.03081011269079134,"366":0.0024234381650666574,"367":0.10436594715543279,"368":-0.08747572560832123,"369":-0.05182676250650306,"370":-0.051206016500051396,"371":0.05851289294371348,"372":0.024994603590243154,"373":-0.15054238649018833,"374":0.057404906402641474,"375":0.10313447917228676,"376":0.0026073476615261102,"377":0.07091008020820642,"378":0.05486502066384858,"379":-0.08677611901076582,"380":-0.0413687025176209,"381":-0.04924788821608723,"382":0.09087678716220118,"383":-0.19795242188571396,"384":0.002619333004811595,"385":0.07197296494099503,"386":0.04312611460913125,"387":-0.14339919139205323,"388":-0.1145245472024095,"389":0.07244175878214099,"390":0.0012882126063422014,"391":-0.0806145019728087,"392":-0.043161844320278274,"393":0.011807037630353193,"394":-0.14891513796364128,"395":0.07397331793194502,"396":0.06490934445495891,"397":0.06404264917500156,"398":-0.0996094608205336,"399":-0.07270265738001114,"400":-0.14963900678344144,"401":-0.13459919936535328,"402":0.05003881710431318,"403":0.03959778666182053,"404":-0.0441229621960228,"405":0.05519065364157917,"406":-0.1313830203628211,"407":0.021169034362128112,"408":0.012365230677358341,"409":-0.034536813697356346,"410":-0.2068284034460531,"411":0.07451677582455288,"412":-0.06329216723792881,"413":-0.012815973742667991,"414":0.07915453049343084,"415":-0.04377115819933,"416":-0.019985321897812925,"417":-0.012682170998785273,"418":-0.007563189518345842,"419":0.11034880129822801,"420":0.0021756661085928705,"421":-0.010141919154207465,"422":-0.10005487210841353,"423":0.00376674755120885,"424":-0.08681543079573718,"425":0.019280069655187797,"426":0.1341491233749221,"427":-0.01751761709617708,"428":-0.0975865830055579,"429":-0.029531574290270483,"430":-0.0006726185016899221,"431":0.06935005532081005,"432":-0.02428047254738152,"433":-0.026244993103435196,"434":0.027207965767470015,"435":-0.03651192978705902,"436":0.10450042512221033,"437":0.040888627525640125,"438":0.10132643368041212,"439":0.01824554976861616,"440":0.011431572036954843,"441":-0.0303297084368786,"442":-0.16545725738592432,"443":-0.11924583133813735,"444":0.08086052964139831,"445":-0.01819174830580443,"446":-0.07927678491539875,"447":-0.006453492617970027,"448":-0.049941940742698136,"449":-0.04560878870214295,"450":-0.05999390705828996,"451":-0.0466890159379501,"452":0.16323311950362257,"453":-0.07682153408930907,"454":-0.08047930253806689,"455":0.02801636776160904,"456":0.14933803444874397,"457":0.029996116148967255,"458":-0.0077174056461464125,"459":-0.08239763211725924,"460":-0.037338188633939506,"461":-0.10297327320164891,"462":0.11593941707087121,"463":-0.0035775578860871237,"464":0.09618732101511128,"465":-0.16830113386932397,"466":0.025837921866627388,"467":-0.04829262478319946,"468":0.04788403481905161,"469":-0.02486173794269223,"470":0.1445257530568595,"471":0.05052153398771162,"472":0.035934449138159456,"473":0.03592294488242953,"474":0.17931067389136895,"475":0.0690104851878463,"476":-0.02759529391309655,"477":0.1394478552915445,"478":-0.11048372523310118,"479":-0.06825165084147412,"480":-0.02299674451091752,"481":0.04610261875963846,"482":0.03307820430443203,"483":0.060772997005924444,"484":-0.1218035816959158,"485":-0.036289354773435936}},{"sx":1,"sy":1,"depth":486,"w":{"0":-0.0012938501510851629,"1":0.01986290823851998,"2":0.05334289720620458,"3":-0.09510903121333242,"4":-0.04191256754953729,"5":0.0012831614620201074,"6":0.09720244136083317,"7":-0.00539781692526592,"8":-0.00952877440092487,"9":0.044908864759033496,"10":-0.11535708876721239,"11":-0.13667436518160117,"12":-0.0039263508220421075,"13":-0.06482761475902339,"14":0.0816319793030851,"15":0.01417391868603532,"16":0.015251694297126027,"17":0.025219356400275485,"18":0.013674149114359472,"19":-0.046322346218395996,"20":0.017349254353127813,"21":0.06217689549514132,"22":0.15228980312389087,"23":0.12497423995918583,"24":-0.02325510205416903,"25":-0.01284762986941186,"26":-0.07082700047930365,"27":-0.02573433771697155,"28":0.1906678062724096,"29":-0.012056240178853735,"30":0.005302837480974512,"31":0.1103425206321564,"32":0.03628456281172592,"33":0.051793397345126904,"34":-0.012594577210444897,"35":-0.0430816495495229,"36":-0.026214534886997664,"37":-0.03190039134629211,"38":0.07197771421780248,"39":0.0782231762878776,"40":-0.04588465020751285,"41":0.1861231875319698,"42":-0.05214586435666971,"43":0.04549203460214872,"44":0.01406513097925293,"45":0.00885779220069991,"46":0.02082264243711837,"47":0.003480097506394823,"48":-0.045275895660687474,"49":0.07132612412413604,"50":0.023749095035302786,"51":-0.07631842528241471,"52":-0.08628539766566709,"53":-0.038317293041932536,"54":-0.041314996070886754,"55":0.11217661470549783,"56":0.006428038001682223,"57":-0.020641216584653944,"58":0.038002122623730046,"59":-0.05067050690978515,"60":0.02854484865048084,"61":-0.008412332850339738,"62":-0.030030738266698435,"63":-0.016261515045863942,"64":0.0321091556274825,"65":-0.027850302254967804,"66":-0.016390528618344433,"67":0.054713144137613176,"68":0.026382932410080846,"69":0.026764382621333477,"70":-0.0642276991525794,"71":-0.054701865003432465,"72":-0.06205634127118066,"73":-0.06944571507046879,"74":-0.09882674009571671,"75":-0.011199274832687931,"76":0.042743230703915454,"77":-0.0024988832821339338,"78":0.09315487665819197,"79":0.06132616613642188,"80":-0.004172077577953433,"81":0.03281203714693684,"82":-0.012423355965304474,"83":-0.1067726038904016,"84":0.10709055171930747,"85":-0.03762516633422634,"86":-0.010942979952455014,"87":-0.026069332331927996,"88":-0.027654773808933837,"89":0.038348518553141885,"90":-0.06652342946507044,"91":0.03095299155439256,"92":0.020840559643188816,"93":-0.006468595026749815,"94":-0.10409217283851963,"95":0.07626753818438302,"96":0.07749945525441107,"97":-0.00007214310752575453,"98":0.03936368447844673,"99":0.1543668808844937,"100":0.07366546717752316,"101":-0.027198213642861433,"102":0.11034470802122136,"103":0.04746918316066932,"104":-0.015004173773012358,"105":-0.03690590359261705,"106":0.05346377791342037,"107":0.008531935320563361,"108":-0.013839198828475934,"109":0.06999323949710681,"110":-0.10759666527934517,"111":0.07065232519617219,"112":-0.11870134758940788,"113":-0.026029968273002614,"114":0.03734257164982338,"115":-0.004384822272032719,"116":0.04832594711615962,"117":-0.030709110376015186,"118":0.018539083251264785,"119":0.12575095081650328,"120":0.0712738149109915,"121":-0.1379911852331928,"122":-0.04394830826266286,"123":0.023179876661209724,"124":-0.06554851362834146,"125":-0.061836690517985224,"126":-0.004651644065842845,"127":-0.030201484499506163,"128":-0.0802282820816505,"129":0.009934560790608596,"130":0.011244701925686018,"131":-0.0775236446684447,"132":0.023828075557177007,"133":-0.07437097183987226,"134":-0.013536915449810855,"135":0.04829638068624349,"136":-0.004136106932871722,"137":-0.05105534196578623,"138":-0.01264328536075107,"139":0.06565766910768536,"140":0.06562626820734153,"141":-0.010035337358710428,"142":-0.022582393252784785,"143":-0.03823907113074896,"144":-0.020888897674009466,"145":-0.08666561287104053,"146":-0.024987930006634483,"147":-0.07971958401816424,"148":0.031128236269828295,"149":0.03045604856949809,"150":0.016896970652095986,"151":0.010701069774115057,"152":0.12407072050815317,"153":0.040965284877070116,"154":0.008518422550490927,"155":0.056536486276487115,"156":-0.047600360444482306,"157":0.07447196184182911,"158":-0.09413172004640923,"159":0.07559295005009385,"160":0.017184341923889478,"161":-0.07727312701132782,"162":0.031148371236622015,"163":0.030515746752920476,"164":-0.026562355203090533,"165":0.028809726163259997,"166":0.0004282844032517203,"167":0.02246076065650942,"168":0.046574575311685,"169":0.04555372010443796,"170":-0.0003929433734785792,"171":0.15493689610164588,"172":0.049969300636093006,"173":-0.02795142407328817,"174":0.04349083981033302,"175":-0.05683847350449359,"176":-0.08530949124366384,"177":0.043735350653181106,"178":0.06301970454255684,"179":-0.06896228647734295,"180":0.001600081458941559,"181":0.05110015683088966,"182":0.05440556041259306,"183":0.010440589606219377,"184":0.10283346075563583,"185":-0.026669820493323237,"186":0.06952145171701644,"187":0.04656302532417011,"188":-0.012559742642671822,"189":-0.045583116692726605,"190":0.009215266321287453,"191":0.0633808844152471,"192":-0.02268602664680767,"193":-0.029571794929389775,"194":-0.011255933538592224,"195":-0.1496563269712763,"196":0.014894102311264161,"197":-0.07049269528787887,"198":-0.045805736407279314,"199":-0.04979523089685046,"200":-0.08660606809195924,"201":-0.04354946538071649,"202":-0.10700374958946901,"203":-0.12806733617728683,"204":-0.013614835811492329,"205":-0.014383919461711301,"206":-0.1087679548366444,"207":-0.0638094838936454,"208":-0.11825157192313426,"209":-0.08147336493432378,"210":0.06974204159036242,"211":0.07186616972494614,"212":-0.025666823453368726,"213":-0.013768078003722668,"214":0.03580765869377735,"215":0.0761012582733818,"216":0.10748883096900634,"217":0.09308773852404316,"218":-0.028814539515157712,"219":0.015488332719855927,"220":-0.07267786042739846,"221":0.09696077232296829,"222":0.10113345374927957,"223":0.03307719708255282,"224":-0.08770314810328575,"225":-0.0010676672841158908,"226":0.019830959735269337,"227":-0.04950428392529077,"228":-0.0829034039134273,"229":-0.012612723121765477,"230":0.12735569593793683,"231":-0.08402275998077809,"232":0.03342983730554119,"233":0.019148799783773353,"234":-0.09288283273496564,"235":-0.017141921832527954,"236":-0.01996566190187376,"237":-0.04323650043406549,"238":0.052587792219230024,"239":-0.020601297614154787,"240":-0.05136173881768218,"241":0.0007625880501497335,"242":0.010474411772489488,"243":0.03596361418519151,"244":-0.061983690091666224,"245":0.03827540082367844,"246":-0.10582383597636918,"247":-0.048331784782822566,"248":0.022284496448572923,"249":0.07564127012701816,"250":-0.008714398702636874,"251":-0.029168142323065437,"252":-0.14703808593846232,"253":0.033799994017851845,"254":0.05793928931200053,"255":-0.07654260028689834,"256":-0.14046200076220752,"257":-0.005283365954927775,"258":-0.11422062339914928,"259":-0.003706494263938346,"260":-0.023499651497107633,"261":0.009777322819058831,"262":0.03874581335517656,"263":-0.04517721766326454,"264":0.09701245328387513,"265":-0.03213113152334584,"266":-0.004739164492646645,"267":0.014884174831841932,"268":-0.021577165688113183,"269":0.013469556137893007,"270":-0.07098469653188016,"271":0.029250759715654037,"272":0.10950699965024155,"273":0.0020107736933734715,"274":0.026609313274161973,"275":0.09120190192061663,"276":0.018924587060038137,"277":0.06290858042663702,"278":0.042775391167398584,"279":-0.007757523730655421,"280":-0.07239256067751718,"281":-0.05070931832865732,"282":0.017011811891009834,"283":-0.04174068901702202,"284":0.08565657825159387,"285":0.08191729079275382,"286":0.13256932039412594,"287":-0.03021170629528551,"288":-0.08232514788870662,"289":-0.07972827224596765,"290":-0.1877095056832801,"291":-0.04054290980906763,"292":0.00042931400955956075,"293":-0.057580261948288726,"294":-0.011003188045142765,"295":0.024744974910793315,"296":0.06260427780126836,"297":0.10283256659082467,"298":0.03490491488419865,"299":-0.030996313567053166,"300":0.021560085575118224,"301":-0.06997810506284251,"302":-0.04814257090288162,"303":0.036247706196950384,"304":0.09333836837995514,"305":-0.02884791067725235,"306":0.04676244229521801,"307":0.05255611831901893,"308":-0.01684143312263091,"309":-0.025934724591354017,"310":-0.040881300669909124,"311":0.08418883352163563,"312":-0.03620108674780833,"313":0.020802828354785564,"314":-0.026307196998112407,"315":0.03170357548596807,"316":0.051951566868395256,"317":0.014276163513447931,"318":-0.027659903803504613,"319":0.012956416228084822,"320":0.009115924903171105,"321":-0.06933837955388077,"322":0.053331005534524134,"323":0.09892352499477712,"324":0.032943103452864705,"325":-0.04132562994140243,"326":0.09017291495332665,"327":-0.03189852610139915,"328":-0.08724229700253938,"329":-0.04614818047024188,"330":-0.05482562788018524,"331":-0.06296714218303384,"332":-0.05202925378775106,"333":0.014517294540962301,"334":0.01909920594554011,"335":-0.007871253602451545,"336":0.018974516973151646,"337":-0.07554338029881898,"338":-0.0317298096384618,"339":-0.016251704702336424,"340":-0.020697613503056832,"341":0.018541623542627072,"342":0.08641267787528814,"343":0.011097242984408773,"344":0.031135392052465273,"345":0.09207434572806587,"346":0.028496582209979048,"347":-0.03575378138044438,"348":0.10733126875527803,"349":0.016436262276450793,"350":-0.0012530253275473454,"351":0.038071752416918264,"352":-0.009896549272961392,"353":0.006833624736608909,"354":0.022865250013631152,"355":0.02506353231775406,"356":-0.03997245174769579,"357":0.03687688233887141,"358":0.07834839571954637,"359":-0.06840156860223989,"360":-0.035787655509486614,"361":0.024463925920267825,"362":0.012381159062903796,"363":-0.0864881028473776,"364":0.007109665800022936,"365":0.1118004710779338,"366":0.022221091188523362,"367":0.10249634214898748,"368":0.001983345799835295,"369":0.015817107666769078,"370":-0.029651503916379718,"371":-0.052336710982290945,"372":-0.03954669600900811,"373":0.02216545323832381,"374":-0.0016493491332475005,"375":0.04357963670698819,"376":-0.012274519835312534,"377":0.02332935694966882,"378":-0.08779778042041345,"379":-0.0018691966293395042,"380":-0.05226916886794582,"381":0.006982553854712389,"382":0.044742069529721214,"383":0.054534039691161884,"384":-0.022214050961866023,"385":-0.13138226047741156,"386":-0.005277606351817918,"387":-0.09447844496863143,"388":-0.045592728662659315,"389":0.06059650510291993,"390":0.06291992035333051,"391":-0.07809227736185083,"392":-0.0443244245174228,"393":0.07774703495259576,"394":0.08624296564363852,"395":0.0704004265200788,"396":-0.023411354897100074,"397":0.02419840233305901,"398":-0.03081526681906472,"399":-0.03791799628809522,"400":-0.039055331115880554,"401":-0.1305609669857604,"402":-0.05203610510813088,"403":-0.026659464696946845,"404":-0.07961493279566227,"405":-0.02604954986517214,"406":-0.09074966057960164,"407":-0.08840700180344904,"408":-0.10918600441862644,"409":-0.0515596781383907,"410":-0.1628016423372851,"411":0.10544392887166157,"412":0.04525421157407751,"413":-0.15821766943323348,"414":-0.050420569667125534,"415":-0.012604176689206464,"416":0.01704933701871105,"417":0.06811179364871865,"418":0.06845489192526054,"419":-0.03655063140510934,"420":-0.04189289183418029,"421":0.004664389778602316,"422":0.02041883205999933,"423":0.023054422881080443,"424":0.06333948159759395,"425":0.15043274346936222,"426":-0.05017932981324285,"427":0.10484572975228472,"428":-0.023272910483525207,"429":-0.04987767590566981,"430":0.03047924235460046,"431":-0.0414071723226065,"432":0.008390021020521726,"433":0.01851524346129175,"434":0.023736111391675672,"435":0.022866957400483515,"436":-0.11681756085240405,"437":0.02567107912230436,"438":-0.0859357793831255,"439":-0.058991978315556665,"440":0.06892047231462325,"441":0.06515343882933752,"442":0.0016970518932914545,"443":0.04172223204897042,"444":0.0011977470283746209,"445":-0.18577117144235022,"446":-0.01933971366864346,"447":-0.002099696631687731,"448":-0.0015759155711645753,"449":-0.12462365005663892,"450":-0.009714146194798738,"451":-0.08696068261366469,"452":0.018053445067977424,"453":0.07267651708911578,"454":0.08408337384165739,"455":0.020794655662079876,"456":-0.06304229306212052,"457":-0.030060976467613576,"458":-0.05515731713268365,"459":0.01608169932728093,"460":0.04094440953161761,"461":-0.003008969240008315,"462":-0.06722421469606248,"463":0.018399110022017065,"464":0.013536972519135777,"465":-0.04640353456854595,"466":-0.012623383988877896,"467":0.050641438672821164,"468":-0.060625627186227896,"469":0.018835930088917534,"470":0.07364078573386701,"471":-0.038048327728105465,"472":-0.01452947768190799,"473":-0.0568267896670643,"474":-0.10007726879112087,"475":0.08874518919646629,"476":-0.04464683902854661,"477":0.0009075231190351015,"478":0.014964384554461483,"479":-0.06693918381372645,"480":0.08783615622426695,"481":0.07204850906509845,"482":-0.00631734110869664,"483":-0.15567332706432468,"484":0.0922639051787506,"485":0.04590426943314378}},{"sx":1,"sy":1,"depth":486,"w":{"0":-0.06465551028492057,"1":0.05748010470419585,"2":-0.010243170400060285,"3":-0.02264695917754028,"4":-0.05040200886562079,"5":0.0015543523169215688,"6":0.005903944732866295,"7":0.05279189947914455,"8":-0.051840940195187216,"9":-0.039844074469395356,"10":-0.04759346782778438,"11":-0.027716428204562216,"12":-0.09297979848919957,"13":0.08416927453374663,"14":-0.01282198318145495,"15":0.017198896924875723,"16":-0.1142352756878382,"17":0.014038497833549365,"18":0.0888167492563962,"19":-0.015861517938862167,"20":0.007462258865957025,"21":0.03080857772217469,"22":-0.039722451484365075,"23":0.013736362639654765,"24":-0.028295815226755335,"25":-0.10415196520205967,"26":0.0045472099990513095,"27":-0.013251846236554721,"28":0.08233842025519295,"29":0.1095087205325369,"30":0.014406421306401022,"31":-0.07795327541127783,"32":-0.030862893686705094,"33":0.01875871407554811,"34":0.007874361254026062,"35":0.044938375006418826,"36":0.0099188075015853,"37":-0.007146858345996164,"38":0.01818329417225631,"39":-0.03664169859410881,"40":-0.07150365268148426,"41":-0.050473077311563454,"42":0.0322812000821822,"43":-0.032434857588896505,"44":0.08679735103126344,"45":-0.10518243162173867,"46":-0.07028242216491093,"47":0.03450776459519911,"48":-0.06639320838889856,"49":-0.14718278863483952,"50":-0.012118149917332906,"51":0.0627420275367859,"52":-0.1373888016909848,"53":0.0791524331495426,"54":-0.024066170885793305,"55":0.04833584226026482,"56":0.04384412112055696,"57":-0.020310803556731864,"58":-0.057438920711499794,"59":0.014435029938772359,"60":-0.054996999393104595,"61":0.029286752715115664,"62":0.004405450560549866,"63":-0.03637829554004927,"64":0.057458090051795974,"65":0.047714340439584974,"66":0.05901560845801067,"67":-0.04137217115298266,"68":-0.09476264969600082,"69":-0.08538874449853837,"70":-0.07036667533915766,"71":-0.02211725660232425,"72":0.018508728470587238,"73":-0.05828336339404265,"74":-0.010871879018829151,"75":-0.08107605453810954,"76":-0.14129576881765235,"77":-0.00005039111670266009,"78":-0.037125612540185475,"79":0.043443896208381745,"80":-0.0762902339838282,"81":-0.0069295559083598956,"82":-0.060704169385825305,"83":0.0014741915514403926,"84":-0.10182604281046614,"85":-0.010846126265098541,"86":0.10679963673115934,"87":-0.11080900132990666,"88":-0.11364741995305293,"89":-0.04674314914731773,"90":-0.05512493170870558,"91":0.05267481378944341,"92":0.06146687525070588,"93":-0.03224227947361042,"94":-0.033212343468563124,"95":0.08060190761762728,"96":-0.08682664784330955,"97":-0.08861348688738069,"98":-0.011315395900615057,"99":-0.09390528159186275,"100":-0.04229771763407681,"101":-0.07873953875462436,"102":0.05072103607061121,"103":-0.013063113746771953,"104":0.04536410223228279,"105":-0.030141680004868505,"106":-0.04536756177926857,"107":0.08967453613890765,"108":0.08577207439455964,"109":-0.03374982342691208,"110":0.10960226172907582,"111":0.005426485152173837,"112":0.05875022538055425,"113":-0.02052257460791923,"114":-0.004910078670669482,"115":0.013904350495758848,"116":0.062164193600568345,"117":0.03916587256678512,"118":0.003172917282656726,"119":0.007234719892680323,"120":-0.029410146151075657,"121":0.07490282456607612,"122":-0.10562676325330507,"123":-0.012899257341305538,"124":-0.06385653244791001,"125":-0.04573156564212934,"126":-0.032201379748104955,"127":0.12413692862376496,"128":-0.06471506254166769,"129":0.025181653259527856,"130":-0.09191239399323164,"131":-0.0836881257518014,"132":-0.0388801173288372,"133":-0.00368304715419725,"134":0.08728417915635682,"135":-0.04038415395462669,"136":-0.08228850560048802,"137":0.0692945085441032,"138":-0.005901430852151548,"139":-0.02206178933269999,"140":0.03234613413180932,"141":0.10971290751224114,"142":-0.04536473214399769,"143":0.01299814412984845,"144":-0.0473497874838352,"145":0.07935680937814382,"146":0.00007198540881558064,"147":0.05742712591951318,"148":0.005493582932066566,"149":-0.025906904122123556,"150":-0.035461530618633004,"151":-0.013857692163307365,"152":-0.042488364798868805,"153":-0.01638010272972914,"154":0.028484722562838058,"155":0.01774422967772896,"156":-0.03636210479973134,"157":-0.016816693263979277,"158":0.07584885473726648,"159":0.06501382322185323,"160":0.00558519650699982,"161":-0.01417413040940331,"162":-0.021798190669299115,"163":0.02381650150434819,"164":0.018143316895364105,"165":-0.033271746209572656,"166":-0.08317148963242596,"167":0.005372577269011113,"168":0.07064225110673227,"169":-0.018330082528047457,"170":-0.06711273597370143,"171":0.0342366418893956,"172":-0.07592482191728168,"173":0.07339782575699058,"174":0.13400664739389215,"175":0.023773875443242946,"176":-0.044736138941789884,"177":-0.00256829235950481,"178":-0.0940860720107065,"179":0.09182213741491238,"180":0.024887959259566904,"181":0.011114034008687702,"182":-0.0013799194007355256,"183":0.010503601538286235,"184":-0.011021600901847095,"185":-0.014437806008379801,"186":-0.04939724900846855,"187":-0.013710164566898686,"188":-0.04863352394078706,"189":-0.06144382569529229,"190":0.03240286824173858,"191":-0.06901682661464524,"192":0.10875891964307799,"193":0.04457806660872784,"194":-0.07469929461348694,"195":-0.0011162549051971975,"196":0.010727307456706255,"197":0.0794856977505042,"198":0.14187161744022136,"199":0.09267420458902781,"200":-0.0076053738830667485,"201":-0.029508656690041827,"202":-0.055439784949725145,"203":-0.03027082948358449,"204":0.05602582523201774,"205":-0.027635396256872145,"206":0.01173435640197837,"207":-0.15049614100223446,"208":-0.10172177766023816,"209":0.04284613740420146,"210":-0.08254206816570085,"211":-0.03001334683649347,"212":0.0244145974081746,"213":-0.1361739542980967,"214":-0.021789676390239838,"215":-0.010523641436828587,"216":-0.020178210103927095,"217":-0.020392337817094406,"218":0.0047108779944305505,"219":-0.0008136830053950275,"220":-0.03494186579407156,"221":-0.04449667061413344,"222":-0.035212608766895095,"223":-0.03595498633206714,"224":-0.0474803956567826,"225":-0.10714235589819758,"226":-0.051716855619581135,"227":-0.04498267557304084,"228":0.015072495495035313,"229":-0.057638648389522616,"230":-0.047307208098500614,"231":0.02796353227636794,"232":0.017144006830913366,"233":-0.091856018524929,"234":0.06965043218546718,"235":-0.07406473723618515,"236":0.10233458867028099,"237":0.01293583732941342,"238":0.021726697360974743,"239":0.032597805865131474,"240":0.012673999220465222,"241":-0.07544284852484642,"242":0.06958984464407947,"243":-0.010605591092565344,"244":-0.001724314878222373,"245":-0.10922218246718746,"246":0.050770174561899535,"247":-0.04921863287892938,"248":0.03331735035724983,"249":-0.030457741387464578,"250":-0.13526374352316498,"251":-0.005625396348643754,"252":0.073443350819948,"253":0.11416262070470723,"254":-0.05482033328361096,"255":0.03568092875641839,"256":0.07966397911857236,"257":0.015971019286338713,"258":0.011329205052323313,"259":0.03204494326582201,"260":-0.07593259558749332,"261":-0.044790668917771774,"262":-0.05107046962665235,"263":-0.08551708176978873,"264":-0.012637599238768227,"265":-0.06802755161662105,"266":-0.08198931415355008,"267":-0.0366813126000736,"268":-0.024865590111372297,"269":0.06261459922277936,"270":0.010152557085562283,"271":-0.05168753824647203,"272":0.013298046974526016,"273":-0.00549257547565441,"274":-0.05057780599865075,"275":0.06890674155347153,"276":-0.06419470545413512,"277":-0.12535279781126318,"278":-0.036441234419073605,"279":0.0730510329949211,"280":-0.04384549949609945,"281":-0.03484623513588619,"282":0.034096783744681954,"283":-0.011040729622690343,"284":-0.15785425175167495,"285":-0.019734495301588467,"286":-0.04929580870701606,"287":-0.012499699086435273,"288":-0.03323621837984615,"289":-0.048700663056333665,"290":0.004511557276071157,"291":-0.04331365483764246,"292":-0.060320305440573915,"293":0.010254791058985949,"294":-0.02868927935251868,"295":-0.029336432856350958,"296":-0.04689450454114518,"297":-0.08455314464782933,"298":-0.09879210606163466,"299":0.057287624155836776,"300":-0.04414895736782899,"301":0.006345544378798175,"302":-0.023161029048800224,"303":-0.05967821858238821,"304":-0.019866625912321363,"305":-0.010867068950921967,"306":-0.05836416379635412,"307":0.001866439152224999,"308":0.012568873763077146,"309":-0.07822087118108911,"310":0.07078783980584345,"311":-0.005240363625735913,"312":-0.035920561745585854,"313":-0.09114095037418223,"314":0.05013371327305167,"315":-0.015566125582688519,"316":-0.06976038794321954,"317":0.015336717141337509,"318":0.07818611807021024,"319":-0.08205362369213884,"320":-0.003207495508311796,"321":0.011061252880185241,"322":-0.02226766225791214,"323":-0.06937385341304006,"324":-0.0037480607666580392,"325":0.0033430926834098064,"326":0.016996576840423418,"327":-0.01944720324418263,"328":0.02806853127662083,"329":0.1395350958716172,"330":0.04119819315732244,"331":0.04639346492013084,"332":-0.04365579988577084,"333":-0.04178364108470238,"334":0.08441409606758099,"335":0.05486524379976184,"336":-0.09731601424799706,"337":-0.05708247914669718,"338":-0.022845539613185195,"339":0.03723436056139849,"340":-0.011241169546375041,"341":-0.09115193001498192,"342":0.04827363464399787,"343":-0.007876871307353917,"344":-0.03737792642272364,"345":0.022725635561249395,"346":-0.00554428706714678,"347":-0.023932985483199543,"348":0.060841126066489316,"349":0.004114067346553784,"350":-0.030509242968578067,"351":0.015343924500165803,"352":0.07237771158998094,"353":0.011634833081705539,"354":-0.011893750843449898,"355":-0.06246214232547574,"356":0.034409489378805336,"357":-0.04845272675268225,"358":0.002468885925909262,"359":-0.11998790402224138,"360":0.04137554031011502,"361":-0.05907773338298484,"362":-0.0807105570306526,"363":0.10977053827411482,"364":0.1292467495655985,"365":-0.039751744551279146,"366":-0.016091096781955833,"367":-0.029486784742332073,"368":0.14522985792999635,"369":0.04499474365731621,"370":0.15178230878154098,"371":-0.10644252921499496,"372":-0.03255431890164497,"373":0.00989782358401741,"374":-0.0033414344230853084,"375":0.04312418951407196,"376":0.09305520185760452,"377":0.013755614137149671,"378":0.03280485405753641,"379":0.06466133225616141,"380":-0.004658407989648742,"381":0.014445366082206729,"382":-0.00466278753035832,"383":-0.000954333567853821,"384":0.06257382745665177,"385":-0.05914772004361696,"386":-0.010654819192331171,"387":0.07743117642478438,"388":0.052104352478662845,"389":0.09147427143365372,"390":0.15950010380490773,"391":-0.05972430854968619,"392":0.02986383091433928,"393":0.05050417631819099,"394":0.007731740770005622,"395":0.028886231349901956,"396":0.010227622563983943,"397":-0.09118629415867031,"398":0.06658679616952884,"399":-0.11771642952413355,"400":0.07886998626730599,"401":0.11005698181405955,"402":0.06409081421440914,"403":-0.0564128223474379,"404":0.01066028722981464,"405":-0.026859816017807223,"406":0.019719619335925167,"407":0.012568689988361694,"408":-0.0067967255565329066,"409":-0.08667389711638361,"410":-0.09725927818354993,"411":-0.114062678563449,"412":-0.0009039638393441189,"413":0.001894641106615661,"414":-0.019965834295662007,"415":0.018143166816189795,"416":-0.009405909515719934,"417":-0.08531715989505849,"418":0.03374782300834294,"419":-0.021423148242897812,"420":-0.16549904042198052,"421":-0.03155439021980778,"422":0.061678119212403175,"423":-0.015601965647060234,"424":0.057591907652352975,"425":0.1325713139175133,"426":0.04776048444024563,"427":0.04623037515201397,"428":-0.03125542826599782,"429":0.044830949945702005,"430":0.03694334766020903,"431":-0.04567670034974869,"432":0.010376892995762117,"433":0.04484277746547134,"434":0.04852541726472144,"435":-0.012370090329794508,"436":-0.14367921478095816,"437":-0.06526411517028192,"438":0.064180374547512,"439":0.011134175815398986,"440":0.08421083241579402,"441":0.09699932533498273,"442":-0.0030558487868290467,"443":0.06707305925434197,"444":0.023972032107092908,"445":-0.01626102796793578,"446":0.05777813917815442,"447":-0.009017157248714016,"448":-0.017055074878185646,"449":-0.06228626690308546,"450":0.025451352121695588,"451":-0.08185972105161787,"452":-0.04919246133354394,"453":0.0166933774542425,"454":0.08065427144393326,"455":-0.07928238052052747,"456":0.05545367440281415,"457":-0.042113343308958336,"458":-0.0605967515214667,"459":-0.08252771782166496,"460":0.015082172066177863,"461":0.19252137492074206,"462":0.03944264190074796,"463":-0.0916791740605733,"464":-0.009889500252664059,"465":0.011931372821479191,"466":0.008222315805660645,"467":0.11928758684410344,"468":0.10120613808915346,"469":-0.06440726443024435,"470":-0.0399007768888791,"471":-0.0017984758696148037,"472":0.058630864797209685,"473":-0.12616201857680368,"474":0.01267969631411973,"475":-0.034232453586288555,"476":-0.04587899742593761,"477":-0.038010034427980684,"478":0.01768904727686622,"479":0.01779500315919496,"480":0.07565186757499323,"481":-0.11173354613479773,"482":-0.003704825632301917,"483":-0.016812074321275808,"484":-0.055791079552626806,"485":0.05677598564134223}},{"sx":1,"sy":1,"depth":486,"w":{"0":-0.007873324255382954,"1":0.04581596101135276,"2":0.07770133189531017,"3":0.00878149897824253,"4":-0.09902429795317454,"5":-0.0033786920942791964,"6":-0.021445835268430816,"7":-0.0066428356280242825,"8":0.011892874196353095,