/**
layer_defs = [];
layer_defs.push({type:'input', out_sx:32, out_sy:32, out_depth:3});
layer_defs.push({type:'conv', sx:10, filters:4, stride:3, pad:2, activation:'relu'});
layer_defs.push({type:'fc', filters:100, activation:'relu'});
layer_defs.push({type:'softmax', num_classes:2});

net = new convnetjs.Net();
net.makeLayers(layer_defs);

trainer = new convnetjs.SGDTrainer(net, {method:'adadelta', batch_size:32, l2_decay:0.001});
**/
window.trained_face_l = {"layers":[{"out_depth":3,"out_sx":32,"out_sy":32,"layer_type":"input"},{"sx":10,"sy":10,"stride":3,"in_depth":3,"out_depth":4,"out_sx":9,"out_sy":9,"layer_type":"conv","l1_decay_mul":0,"l2_decay_mul":1,"pad":2,"filters":[{"sx":10,"sy":10,"depth":3,"w":{"0":-0.287148380851874,"1":-0.24221602106404336,"2":-0.37799491873824603,"3":-0.25554851978739257,"4":-0.22959935768206655,"5":-0.3074587512243342,"6":-0.012841419910937315,"7":-0.12363150218119351,"8":-0.18231739125885477,"9":0.1222524203355803,"10":0.01052486936735701,"11":-0.07416292256499571,"12":0.347327050609302,"13":0.17947598452479055,"14":0.006471764493825074,"15":0.433978787269379,"16":0.1396007439357544,"17":0.17795834859297516,"18":0.49816154026128046,"19":0.3339719917586514,"20":0.19974615256247058,"21":0.5013281235026622,"22":0.25847980404793475,"23":0.1789092932612939,"24":0.31782833888112766,"25":0.13938161831607404,"26":0.10232467617674844,"27":0.28875429900443333,"28":0.011191854097933749,"29":-0.0942167976131772,"30":-0.22100121494131814,"31":-0.24301499691287407,"32":-0.17569052785653638,"33":-0.037167950092102164,"34":0.16090029947735338,"35":-0.044971280763418706,"36":0.04871801694071342,"37":0.008779777038744899,"38":0.03631538795611449,"39":0.1563268234103183,"40":0.00638827018039897,"41":0.05448194342074386,"42":0.2726343205330048,"43":0.11760737836520857,"44":-0.0068371982655517785,"45":0.27632022990172866,"46":0.052099863477924536,"47":0.10015146101605271,"48":0.39312295944644177,"49":0.20040953741506465,"50":0.11667108916659158,"51":0.32697501066170515,"52":0.24656380001177214,"53":0.14547173398124127,"54":0.32407509974083226,"55":0.1568694001972403,"56":-0.06463530292681817,"57":0.10457860634425845,"58":0.013575483520419358,"59":-0.14371516407131843,"60":0.0009887192933887327,"61":-0.029374778119195196,"62":0.008078857779834482,"63":0.3046712532077303,"64":0.2063964234604271,"65":0.08389189703344165,"66":0.2498370650554508,"67":0.1513286131129348,"68":0.049013660907904856,"69":0.2628686901184994,"70":0.1897142138264567,"71":0.13490495922085863,"72":0.1914628060666572,"73":0.1518384333602674,"74":0.17925991831207766,"75":0.32815352205866916,"76":0.14824726568634358,"77":0.15421055445954052,"78":0.31902544975155367,"79":0.33180034773617845,"80":0.2613243153581517,"81":0.39379171068631075,"82":0.20785081509859923,"83":0.191885306036463,"84":0.2913976855079128,"85":0.15871969923941262,"86":0.17090896242037468,"87":0.12275632455242409,"88":-0.026161861264036114,"89":-0.05632410733136341,"90":0.001495198347500454,"91":0.03478301598228578,"92":0.009957970278145009,"93":0.11505053627231364,"94":0.0955608834563128,"95":0.050837757793155545,"96":0.0987852087371315,"97":0.017908741396564624,"98":0.028840370478032618,"99":0.263772662669307,"100":0.2569840255337146,"101":0.12245654800501163,"102":0.2990404794612873,"103":0.1241687562725282,"104":0.061610105180299156,"105":0.18226423390511115,"106":0.2814999621986878,"107":0.17610622668131487,"108":0.19129002385822363,"109":-0.0959119993295166,"110":0.1258648664266988,"111":0.2319210386550767,"112":-0.012018796018843505,"113":0.04047510482754432,"114":0.14645596528001434,"115":0.06155376838234372,"116":0.021052222749131915,"117":0.026194994118383576,"118":-0.2027641690554922,"119":-0.18955552020729238,"120":-0.11584827552187413,"121":-0.04395700089811381,"122":-0.06101226386060173,"123":0.027133715967307022,"124":0.11160697951610885,"125":0.022816586635768365,"126":-0.018397391303651627,"127":-0.02482288106419836,"128":-0.07799407237689836,"129":0.1132641169869209,"130":0.2440004689629738,"131":0.09318338863463077,"132":0.12242112047791895,"133":0.16453198483279555,"134":0.059596813188987234,"135":0.153061938180025,"136":0.04708982840703141,"137":0.21027290957206984,"138":-0.07406903275629516,"139":-0.13822310708122093,"140":-0.04783666254929779,"141":-0.10831426819362618,"142":0.01307822798728595,"143":-0.09154050588420146,"144":0.1867238853959501,"145":-0.05398577413188759,"146":0.023806340261815155,"147":0.03884323399333,"148":-0.13615547128361633,"149":-0.22334248661124448,"150":-0.006323532923525561,"151":-0.01569793703811084,"152":-0.0834720514542365,"153":0.09020656909075324,"154":0.10639461495098021,"155":-0.0974815420183812,"156":0.0002811978622107598,"157":0.03306744575968027,"158":-0.03018581578956523,"159":0.15665057198551394,"160":0.053643035852246945,"161":0.044677035744717104,"162":0.033522428774958535,"163":0.10779179859537097,"164":0.22373150635871117,"165":0.01733646571664598,"166":0.04333066959252046,"167":-0.011435839859082817,"168":-0.20272869876995006,"169":-0.22790914227584214,"170":-0.06414751722641286,"171":-0.18171409606719904,"172":-0.18483156541606907,"173":-0.1523483620452267,"174":0.1198113834559852,"175":-0.09547614244351557,"176":-0.000029461330001577617,"177":0.03652942128343197,"178":0.04103967936407214,"179":-0.08175994903878757,"180":-0.10103687422204354,"181":0.11622939699903294,"182":-0.01010800690133485,"183":0.0924673781720118,"184":0.08334088656792865,"185":0.09187621590383634,"186":0.12731204797943574,"187":0.17956944204049696,"188":0.044415139973859735,"189":0.12184516307231329,"190":0.2817727245568824,"191":0.1335509003152182,"192":0.13451724547491278,"193":0.17617243531812676,"194":0.3253982258423611,"195":0.06651550918947771,"196":0.18692883221915776,"197":0.13304922958233026,"198":-0.19955331068661467,"199":-0.14656974988041027,"200":-0.08945088451490572,"201":-0.28112445396946434,"202":-0.2229033114827353,"203":-0.1834690557185343,"204":-0.15531066494458062,"205":-0.08312669001422465,"206":0.05351631268577575,"207":-0.17239079443700966,"208":-0.2156938391736728,"209":-0.1287798108142775,"210":0.02782981403944971,"211":0.13776354681076153,"212":0.17574606569632817,"213":0.02406428471373022,"214":0.07509937735721776,"215":0.045901921998002415,"216":-0.0023865069343067076,"217":0.03290808376525095,"218":0.09177546154737039,"219":0.12024710678736958,"220":0.1606722323961524,"221":-0.01876517713427796,"222":-0.14077570958858412,"223":0.06704108061163036,"224":0.15632421036921593,"225":-0.23349619736998092,"226":-0.01574328374248595,"227":0.0011264203784185853,"228":-0.46921431307302286,"229":-0.26451611191403257,"230":-0.21041292495964273,"231":-0.5779521344392847,"232":-0.6542963461639864,"233":-0.41730083632321135,"234":-0.4006976521792262,"235":-0.4407908711304057,"236":-0.17672988101244932,"237":-0.3476463471067923,"238":-0.3309646436067127,"239":-0.26957767253113335,"240":-0.017477265425017832,"241":0.2341001628255313,"242":0.12452159720603528,"243":0.16982666962559828,"244":0.3263529185666141,"245":0.3785383879402737,"246":-0.16302972236747892,"247":0.06137285817972895,"248":0.1484534556533088,"249":-0.13574612697541594,"250":0.042751995868497955,"251":0.06970271025239894,"252":-0.1048361556879703,"253":-0.1055842502445403,"254":-0.029994225772181093,"255":-0.3405430853472852,"256":-0.2566949347711037,"257":-0.20992560723560236,"258":-0.5979875866465155,"259":-0.45521596765658123,"260":-0.2734378594900989,"261":-0.443029236860695,"262":-0.34935302595362155,"263":-0.15321628338206011,"264":-0.46557348367642654,"265":-0.3954394175718997,"266":-0.2217180568196601,"267":-0.15833348685434037,"268":-0.31870030428533697,"269":-0.2094424897567314,"270":-0.11747316090457051,"271":-0.03538941600682341,"272":0.05364350904036175,"273":-0.05806199015961412,"274":0.133630676474007,"275":0.18849841545802337,"276":-0.2633424172657786,"277":0.10281480442004615,"278":0.03204375179254476,"279":-0.20781336831109215,"280":-0.037703204510983225,"281":0.13429381857899797,"282":-0.10954987016391829,"283":0.03883816528949009,"284":-0.012548013286577423,"285":-0.37567297976961767,"286":-0.18109994483118283,"287":-0.06526086210174342,"288":-0.6187282639521874,"289":-0.2098875655927227,"290":-0.21129711168903098,"291":-0.43339641648515587,"292":-0.29249216783753396,"293":-0.238115993445522,"294":-0.5090074831346428,"295":-0.36118079348919746,"296":-0.14233963992082208,"297":-0.33940498818480525,"298":-0.35391815205624205,"299":-0.21751759304975446}},{"sx":10,"sy":10,"depth":3,"w":{"0":-0.03821501842362039,"1":-0.18154416609300925,"2":-0.11161236207613229,"3":-0.26087615392864494,"4":-0.17450981812966118,"5":-0.1259880088592775,"6":-0.16504265216295194,"7":-0.08835599127825736,"8":-0.10418191346374046,"9":-0.07285340258909266,"10":-0.10798769645793077,"11":0.019179123688231058,"12":0.010328135385903109,"13":-0.17954539501558517,"14":0.0281449821127846,"15":9.322387155148919e-7,"16":0.05734035706760791,"17":0.10095738582677721,"18":0.008594396988511431,"19":0.06224820514208133,"20":0.15066185594619916,"21":-0.05684418990808308,"22":0.2989855640455151,"23":0.2692398408592299,"24":0.1729762727895001,"25":0.4287100008353376,"26":0.5342239156414613,"27":0.31765923760230214,"28":0.39356334724454706,"29":0.4638662972982391,"30":-0.16278582587468363,"31":-0.22330020999876637,"32":-0.12042787134518597,"33":-0.40391418043257,"34":-0.20038024635280446,"35":-0.1173422310050233,"36":-0.3245659569396079,"37":-0.3225969303128992,"38":-0.22614827439887647,"39":-0.2347987180405909,"40":-0.25051674974712307,"41":-0.173679884213503,"42":-0.25728582242963205,"43":-0.20459096585149397,"44":-0.01766945740313096,"45":-0.19065707041630306,"46":0.022139136396570634,"47":0.03453679929809274,"48":-0.03640784900703614,"49":0.08896544243023494,"50":0.06224319164700143,"51":-0.1695975131631153,"52":0.12199866865795773,"53":0.11034265993152402,"54":0.015017365088020065,"55":0.3818823968546593,"56":0.30478282678916535,"57":0.1735336369476454,"58":0.239453970955859,"59":0.2464114610473845,"60":0.024052259714534212,"61":0.15929838902144536,"62":0.19596075624158787,"63":-0.018356936426412073,"64":-0.07399633077777029,"65":-0.04741086102035575,"66":0.0677650133056156,"67":0.19241832629681133,"68":0.17416210495782317,"69":-0.07825081301738733,"70":-0.10419698854740553,"71":-0.03524178014491402,"72":-0.19183115344980448,"73":-0.03969913375756731,"74":-0.18445366166668925,"75":-0.2816136116263335,"76":-0.03434711640760225,"77":-0.07370239810349266,"78":-0.3399099607351826,"79":-0.1774132237225508,"80":-0.07265099894579975,"81":-0.3059860649474161,"82":-0.02491779623962001,"83":-0.018823268967112082,"84":-0.16954130492292976,"85":0.07797894020208142,"86":0.09561021465477754,"87":-0.19160034391033404,"88":0.03559450513103361,"89":0.0785087044920491,"90":0.15640057560067672,"91":0.2760479074867612,"92":0.2861293962518047,"93":0.10840331095560796,"94":0.09514576810727286,"95":0.13564117999562744,"96":0.06649838606738333,"97":0.04716274502740905,"98":-0.03352728655305517,"99":0.06295503056402105,"100":0.14381727579581063,"101":0.12002450544970013,"102":-0.4125484039358532,"103":-0.1982516349038619,"104":-0.2725947895797251,"105":-0.617155861088229,"106":-0.4218374075277112,"107":-0.2876908941776026,"108":-0.5987463534417045,"109":-0.36332043511423684,"110":-0.35139506092659173,"111":-0.5135143484621368,"112":-0.24379694400775573,"113":-0.12805648957691387,"114":-0.4798275547679104,"115":-0.12575479023716316,"116":-0.1563231884369197,"117":-0.4113999728916502,"118":-0.2361439296242989,"119":-0.0029111770447128897,"120":0.33453684288033236,"121":0.24244824628179,"122":0.18022669323812943,"123":0.23777954674613655,"124":0.28980545144015657,"125":0.08700170168553642,"126":0.04511423660158185,"127":0.16732670839084285,"128":0.12428905403815392,"129":0.1539257640316953,"130":0.0726595158896233,"131":0.016145251243941647,"132":-0.34553589151619263,"133":-0.19743810804866282,"134":-0.16912080236022342,"135":-0.4568243831747944,"136":-0.389139632394919,"137":-0.21045043510348785,"138":-0.8057893896789724,"139":-0.5312993858386065,"140":-0.3416307965188226,"141":-0.47767235271770625,"142":-0.3446621463235879,"143":-0.2954519474209118,"144":-0.22754309543465412,"145":-0.15409466673586705,"146":-0.04950220906392826,"147":-0.13057193851000917,"148":-0.008657708523137273,"149":0.016184187317203693,"150":0.24716827132605715,"151":0.12969975657855154,"152":0.14041599451956982,"153":0.13394300066053766,"154":0.23406200010010517,"155":0.14218335861805845,"156":-0.03615998305062001,"157":0.10148002573340158,"158":0.015144596692851104,"159":-0.09331432298640233,"160":-0.1476635368908327,"161":-0.04679726181132661,"162":-0.1312383018539034,"163":-0.019066007574991925,"164":-0.11263935846842375,"165":-0.5764092587459645,"166":-0.29543095234212785,"167":-0.2733545076721574,"168":-0.5676897727555074,"169":-0.3503469091199445,"170":-0.25982430632041925,"171":-0.4106828986916288,"172":-0.1811919996254842,"173":-0.1452895744407626,"174":-0.14609693974020221,"175":0.001549830988219703,"176":0.024205027796905546,"177":0.011419948418317557,"178":0.0016624271487648602,"179":0.09948884886592284,"180":0.25707486048376815,"181":0.05051324221850353,"182":0.22116541636269194,"183":0.15114048178996967,"184":0.19440078177845405,"185":0.003040796069864869,"186":0.13242724438484418,"187":0.0014953822427276188,"188":-0.0641316954125067,"189":0.029329221332670432,"190":0.08451884379946897,"191":-0.06039815746072702,"192":-0.28829165389708566,"193":-0.1542875706682423,"194":-0.10087313715620318,"195":-0.24432046186617687,"196":-0.002339558603936075,"197":-0.17386100725973067,"198":-0.21732879925431006,"199":-0.1483704961461763,"200":0.021202672652835534,"201":-0.13747109057766282,"202":0.0052678630242253294,"203":0.0004081894662655899,"204":-0.043743384274917335,"205":-0.023703328750706774,"206":0.19083234849836084,"207":0.1083876344998617,"208":0.27804621094532067,"209":0.18438641030608,"210":0.12007994232445555,"211":0.02048850937005446,"212":0.02035717388084109,"213":0.1282070023136206,"214":0.016980843242482915,"215":-0.01457462441426088,"216":-0.021599588694604828,"217":-0.014230221290266158,"218":-0.013861159625204766,"219":0.04983388074997521,"220":0.04904759880114463,"221":0.1570433744027936,"222":0.059744125877691984,"223":-0.10507961219287591,"224":0.03971919764620266,"225":-0.06029361114549086,"226":-0.09835043204833814,"227":-0.030053188748457475,"228":-0.10291817051583499,"229":0.03304000052043839,"230":-0.07297835568452495,"231":-0.00434881864216201,"232":0.13889851064557626,"233":0.15380394933443517,"234":0.27808341894309074,"235":0.32499880221400057,"236":0.2348662321183791,"237":0.07722651678119667,"238":0.11187491091858495,"239":0.1288455404617207,"240":0.2251905544316672,"241":0.10871170506325634,"242":0.058413184052886945,"243":0.07616990759975267,"244":-0.053807594905107795,"245":-0.05651807990575095,"246":0.10716222472186601,"247":-0.04466515539828598,"248":-0.008837972067852523,"249":0.04673322310543042,"250":0.03362647160991019,"251":0.07417328721217402,"252":0.0514098134820218,"253":0.2276654493805598,"254":0.03400882220006642,"255":0.11672258042581364,"256":-0.008011124781500957,"257":-0.03567398662369454,"258":0.011259667522065924,"259":0.012416922607481996,"260":0.005384529237197722,"261":0.1401745369211498,"262":0.2081366009385472,"263":-0.07007025998395143,"264":0.3377218961666152,"265":0.25066765896111,"266":0.27156500519319704,"267":0.189696669533146,"268":0.21813991094980886,"269":0.17865798659321025,"270":0.28184225386875433,"271":0.17169102466582345,"272":0.032358285712007516,"273":-0.07708464140380282,"274":-0.10386900596174954,"275":-0.08926324347990722,"276":0.1731861506410831,"277":0.043223715918636225,"278":0.030573210765018604,"279":0.2581805011989665,"280":0.11545887936077434,"281":0.15558125011401938,"282":0.24363993945957524,"283":0.13657702413864828,"284":0.12683678190228906,"285":0.08648472693146418,"286":-0.04680983997959909,"287":-0.053414013815096646,"288":0.05491058780917268,"289":0.23653157148789639,"290":0.2363687915277634,"291":0.35326244446709,"292":0.2120908382979161,"293":0.26957949165671014,"294":0.1667993933515101,"295":0.1593026117552675,"296":0.24072913428799186,"297":0.17562382378150174,"298":0.08571304818303489,"299":0.08158243101018653}},{"sx":10,"sy":10,"depth":3,"w":{"0":0.1713834930577783,"1":0.08216629653702691,"2":-0.04018774167185996,"3":0.20033896120932795,"4":0.21040968620099826,"5":0.0503302923554887,"6":0.03671039606668887,"7":0.06179648639918304,"8":-0.04423294438176332,"9":0.16082592867093456,"10":-0.19678478882309475,"11":0.029964024632111095,"12":0.03607148885070087,"13":-0.12419768768010764,"14":-0.06056345577576669,"15":-0.006899909875085068,"16":-0.14420960105747088,"17":-0.10004450193931097,"18":-0.16291915027372886,"19":-0.049075946211060074,"20":-0.03316918319035714,"21":-0.039194798256370525,"22":0.0024751942085317782,"23":0.1376984403850914,"24":0.2736978565549898,"25":0.16149148862540638,"26":0.22242898404177314,"27":0.22139517278858498,"28":0.19850688062140026,"29":0.26643211486474006,"30":0.04213309243937993,"31":-0.057803417449251965,"32":-0.026990881991983164,"33":0.17155747555983344,"34":0.03721364434815204,"35":-0.0785646520953197,"36":0.07489881974622047,"37":-0.15710448824919993,"38":-0.0770455029651358,"39":0.12227448759637863,"40":-0.1680334804250682,"41":-0.02542601654973324,"42":-0.004136272318203024,"43":-0.14597841405644524,"44":-0.04431700691823558,"45":-0.11513051417788202,"46":-0.11551558551654632,"47":-0.08112159971319764,"48":-0.06872483176988661,"49":-0.15510309261546837,"50":-0.04250108588977815,"51":0.10601437633160465,"52":-0.005524139264711972,"53":0.030972372212988993,"54":0.2703779251649678,"55":0.17309004573102046,"56":0.30020113087207617,"57":0.3236238387449402,"58":0.21959777341679845,"59":0.3324006718005531,"60":0.08312824645826387,"61":0.09576940517178524,"62":0.004034554548877603,"63":0.25448691698059617,"64":0.1162627118872981,"65":0.04639464690495679,"66":0.14669104435526067,"67":-0.1823886155607437,"68":-0.07590483941265246,"69":0.15283145621834096,"70":-0.10901730914860064,"71":-0.07522305875787574,"72":0.09582599742176137,"73":-0.06805902549806528,"74":0.0205789964987938,"75":-0.08626560904231773,"76":-0.22336726397457826,"77":-0.051718610519345,"78":-0.00968810612558484,"79":-0.09755648800234741,"80":-0.019397113936733514,"81":-0.04821284602141768,"82":-0.30437496246556334,"83":-0.11161654317573046,"84":0.09954290537261486,"85":0.006806568638049812,"86":0.10534329640299518,"87":0.20980492770894604,"88":0.09217473587741984,"89":0.2271722358207617,"90":0.03433740377141951,"91":-0.16202560162347743,"92":-0.13641332979158424,"93":0.1308732699665793,"94":-0.05016976545047438,"95":-0.10954475040349623,"96":0.1316725182676486,"97":-0.2818927514075265,"98":-0.07236861188299253,"99":0.14215056506716858,"100":-0.3693169137838885,"101":-0.13707125194590591,"102":0.1274423295069519,"103":-0.2009860333880497,"104":-0.013305586645955159,"105":0.10959197659501468,"106":-0.18358534858070066,"107":-0.013231246349153878,"108":-0.0771493023410167,"109":-0.11655713824893929,"110":0.07373913064592877,"111":-0.050039971021042864,"112":-0.14900493630039566,"113":-0.12437621748508867,"114":0.07186083763087951,"115":-0.0852374660409556,"116":-0.0325623699149154,"117":0.06748712150607758,"118":-0.12985238359418944,"119":-0.02718360638069275,"120":0.06079826594327853,"121":-0.19930115936108042,"122":-0.23349640440904718,"123":0.06505906794027227,"124":-0.28569652027453235,"125":-0.2056233401700645,"126":0.1294965873917918,"127":-0.4229841465564715,"128":-0.20385739103608844,"129":0.47018888596434605,"130":0.004930022458315049,"131":0.152897802717885,"132":0.316654103195074,"133":-0.15075314546373722,"134":0.06501664398070824,"135":0.0949572656445512,"136":-0.21430912361064344,"137":-0.06902611838060133,"138":0.0547686332965046,"139":-0.07318395073592922,"140":-0.06361374157670388,"141":-0.14744131657043683,"142":-0.25570036951719516,"143":-0.06550444942819955,"144":-0.052021904720091224,"145":-0.23043465657918627,"146":-0.14421659005047388,"147":0.06627181746715213,"148":0.09057341823903343,"149":-0.07290654605097356,"150":0.18735663504760758,"151":-0.11595394230743651,"152":-0.02635312924130481,"153":0.34626970450271277,"154":-0.040328400899149686,"155":-0.01975742708423779,"156":0.3852454816486458,"157":-0.12002042659835782,"158":-0.022245262880805035,"159":0.4238106695598952,"160":-0.1316687842275778,"161":0.11190938286102216,"162":0.5610574699028334,"163":0.055510899819664825,"164":0.17947599978141068,"165":0.34058928907314767,"166":-0.03354615970354565,"167":0.07672428078252216,"168":0.20101644247096356,"169":-0.19912293950569682,"170":-0.018790443435252043,"171":0.029855958879129743,"172":-0.2566396481374164,"173":-0.11606891596908095,"174":0.12311510416346383,"175":-0.1963396239987312,"176":0.005319930542638114,"177":0.22723031123546134,"178":-0.02703452835270434,"179":0.005512214134313095,"180":0.16630052112636867,"181":-0.19970112416207011,"182":-0.09813121842492555,"183":0.25733115356950326,"184":-0.0950933390305685,"185":-0.12703308059499027,"186":0.3394600336996876,"187":-0.21560658028017293,"188":-0.011372004854412079,"189":0.46444791441744376,"190":-0.0006644019057147186,"191":0.20894944589494147,"192":0.4732786256056902,"193":0.047013557812089726,"194":0.18506020228881284,"195":0.46412238524127924,"196":0.10421848860069334,"197":0.35443047551002405,"198":0.17951712874478354,"199":-0.15419741701683642,"200":-0.1023085583339238,"201":0.0716679279112306,"202":-0.1761575453798357,"203":-0.07957779281816192,"204":0.23032115659598754,"205":0.08708077914630062,"206":0.10111820138034092,"207":0.15723460125927924,"208":-0.1272195189394956,"209":-0.06395119310124195,"210":0.09089514674390439,"211":-0.10423751235431625,"212":-0.08519093888627696,"213":0.01019236400570204,"214":-0.19756470824586145,"215":-0.11265372913928677,"216":-0.028021959373228045,"217":-0.27861409862488973,"218":-0.24070945171084518,"219":0.3495881740923927,"220":0.02687770694754264,"221":-0.00808707581503569,"222":0.2845423337245857,"223":-0.07821126021137474,"224":0.0276046233089348,"225":0.1920086632287185,"226":-0.14104703563939314,"227":0.06290224388110388,"228":0.02602072572645514,"229":-0.13937139902861007,"230":0.06314786731892828,"231":-0.12663252404763745,"232":-0.18902395191259724,"233":-0.03700361494085172,"234":0.07728247521627081,"235":-0.11790735684520312,"236":-0.17247976978098634,"237":0.017117946176172173,"238":-0.14830022382641644,"239":-0.026301249625182047,"240":0.11290104004285541,"241":0.06555363818968418,"242":0.051447766808029566,"243":0.1632299638312691,"244":-0.09814908240426594,"245":0.017195224007369832,"246":0.0007001734408561305,"247":-0.31853385233368153,"248":-0.14016008534003438,"249":0.24218183629707313,"250":-0.06651871856601377,"251":0.08033603428048944,"252":-0.05084059657645779,"253":-0.1589972430573176,"254":-0.06985856845349069,"255":0.0909378196434875,"256":-0.13333899937579488,"257":0.03843169177038037,"258":-0.0500487574535338,"259":-0.15100730050433606,"260":-0.018044427488007466,"261":-0.17460930600760863,"262":-0.14096961260370347,"263":-0.1503133488512977,"264":0.1457048500836317,"265":-0.0019949349615572464,"266":0.074912222863846,"267":-0.14137582791313497,"268":-0.08105496743039924,"269":-0.059196416095504335,"270":0.15437915249454237,"271":0.07195088375296735,"272":0.14101755593445403,"273":0.144004142118007,"274":-0.1160611468663988,"275":0.049260866162782434,"276":0.07641057006595066,"277":-0.11906691619646398,"278":0.07380230170235948,"279":0.18010372265708463,"280":-0.21259704091362702,"281":0.07777732550801436,"282":-0.09611153072311876,"283":-0.32013668402880385,"284":-0.16329649740798688,"285":0.14241742724933054,"286":-0.07640546544335812,"287":0.09154120226646478,"288":-0.19507005248466033,"289":-0.11389118666333785,"290":-0.1286666487594747,"291":-0.313595952520798,"292":-0.36918428193978003,"293":-0.21284642592655373,"294":-0.05214194868750977,"295":0.04614052857905748,"296":0.07390406025220857,"297":-0.20450807720635567,"298":-0.19130977239236094,"299":-0.09977583360556436}},{"sx":10,"sy":10,"depth":3,"w":{"0":0.06995731214915862,"1":-0.05201325937561684,"2":-0.11430247561798024,"3":-0.02439871058989929,"4":0.03303630980289866,"5":0.06891956260210033,"6":0.08068620133081542,"7":-0.0504253511686986,"8":-0.02640121627056021,"9":-0.10543338686557618,"10":0.021772844532147496,"11":-0.02162047971976894,"12":0.02922989326621187,"13":-0.10130177768982458,"14":-0.07840190612392295,"15":-0.056753354873497,"16":0.010204148219520436,"17":-0.051736102279369256,"18":-0.13240005409995548,"19":-0.11158856483245129,"20":-0.07212554840224987,"21":-0.09582326307583305,"22":0.023421048079023683,"23":0.023374899511211373,"24":-0.1225744612883019,"25":-0.2295864221970164,"26":-0.10986933016737578,"27":-0.08094315102966752,"28":-0.12724415585689647,"29":-0.08499713361597033,"30":-0.2726820163163908,"31":0.009283780907929723,"32":-0.08798555438879205,"33":0.0058203075326550896,"34":-0.03208890138179334,"35":-0.10949405555382702,"36":-0.06784201832063491,"37":0.007859037474198308,"38":-0.06627474986661089,"39":-0.049321891344117796,"40":-0.06125383895679078,"41":-0.10730631981766897,"42":-0.048179512910776996,"43":0.025994589348128774,"44":0.02293424772808666,"45":-0.1874633804428159,"46":0.013482303135060105,"47":-0.025400459757431958,"48":-0.19286080270592762,"49":0.012180095442574783,"50":0.0029079135400359338,"51":-0.1003790424006152,"52":-0.01544132805913427,"53":-0.021447873050627175,"54":-0.11011938231804802,"55":-0.10192768766673732,"56":-0.05505614582653718,"57":-0.006619594797586441,"58":-0.18041276080652438,"59":-0.1953737184382793,"60":-0.03994783538095706,"61":-0.0463095884457067,"62":-0.08587582529461682,"63":-0.07527550726126951,"64":-0.1498198460995017,"65":-0.040085707749398194,"66":-0.2236457516095638,"67":-0.1399452014417643,"68":0.033728220292230326,"69":-0.06209157557907118,"70":-0.09421508432570828,"71":0.06046458083332184,"72":-0.09995865398239441,"73":-0.039739392525243514,"74":0.05146286607376399,"75":-0.1041690762581093,"76":-0.05670372871565211,"77":0.08675265070408036,"78":0.00995451282433863,"79":0.01560777510161962,"80":0.2014851839069974,"81":-0.037944694299595925,"82":0.12796405528617388,"83":0.07632683681408221,"84":-0.11600157330483428,"85":-0.06787668421871483,"86":-0.0534512326960084,"87":-0.1546464894676299,"88":-0.0918170746607999,"89":-0.10009371475819925,"90":-0.14162280520816742,"91":-0.09329907947114166,"92":-0.08861200646693654,"93":-0.08013806435380484,"94":-0.1410154525598808,"95":-0.010291887020601312,"96":-0.1259081315750762,"97":-0.012440497722681824,"98":0.06199850315965901,"99":-0.05123582862574996,"100":0.009528873777308822,"101":0.17202025161947646,"102":-0.19230562624814881,"103":0.025848141957020412,"104":0.17702682265641617,"105":-0.27680319878982035,"106":-0.046168743752578185,"107":-0.022916237694727604,"108":-0.13161683182710351,"109":0.09549810514031044,"110":0.0963127562893711,"111":-0.018523417097815357,"112":0.11302371550226073,"113":0.19270004053029843,"114":0.048100663917483244,"115":0.04799490806494225,"116":-0.02508921884585915,"117":-0.08637899311607361,"118":-0.09704618357564922,"119":0.059774312482172624,"120":-0.12035339878833949,"121":0.03915726278102675,"122":0.038356349690521825,"123":-0.07156395670690623,"124":-0.03550130610112194,"125":0.09997919719459579,"126":-0.16402350012730602,"127":-0.02401171469473461,"128":0.06284328293987376,"129":-0.19289983444845923,"130":0.19060083561294944,"131":0.11632788922790833,"132":-0.05035437003934856,"133":0.08701905062927129,"134":0.2253649448775458,"135":-0.0366622714255082,"136":0.08828033425356484,"137":0.19891238311795423,"138":-0.11581069860094252,"139":0.009706286275557877,"140":0.135170357795215,"141":-0.0501320691667191,"142":0.12608254595679472,"143":0.2514736279776734,"144":-0.07352255508177005,"145":-0.03349008623160899,"146":0.1593322837108437,"147":-0.163742713289325,"148":-0.025568261455683184,"149":0.04691998068580405,"150":-0.06274924845421942,"151":-0.06186894731150478,"152":-0.0718997718361275,"153":-0.16131439112135904,"154":-0.06845237705784116,"155":0.1019618667217897,"156":-0.09856532376647116,"157":0.11386199089186688,"158":0.064684468141961,"159":-0.06383547590297631,"160":0.025802876789030475,"161":0.157564699178284,"162":-0.03602021929694148,"163":0.04608585374225989,"164":0.20385404142561736,"165":-0.03569550195259982,"166":0.05308906460644111,"167":0.14676991760996058,"168":-0.06397926784887882,"169":0.14237148761500473,"170":0.16651084907313723,"171":0.04683030174685914,"172":0.17359913477355457,"173":0.19196307862597622,"174":-0.11210869075757034,"175":-0.040485692231188,"176":0.18210418708811088,"177":-0.0046247007506145755,"178":0.009659212820369018,"179":0.15749869218507467,"180":0.03492602999393347,"181":0.0683308126127953,"182":0.11655009030582386,"183":0.0009918070910214405,"184":0.05050353884277201,"185":0.18982257818898005,"186":-0.022643183335890632,"187":0.05420268778689061,"188":0.1453314450807455,"189":-0.06663088739219397,"190":0.1506263525915301,"191":0.27212702807836264,"192":0.20296734019469664,"193":0.11522824656600981,"194":0.2877759519591489,"195":-0.06566297804532553,"196":0.22361236994849132,"197":0.18753479621733252,"198":0.02973460183328047,"199":0.09858346457491769,"200":0.2278146381533097,"201":0.03642258601047768,"202":0.16995694131155273,"203":0.23243001249479203,"204":0.053375731838941724,"205":0.14081242330677182,"206":0.16698942457059976,"207":0.07321445513422865,"208":0.026003464806636376,"209":0.09785790446231973,"210":-0.028836239795933895,"211":-0.033072545729657475,"212":0.08608111356024603,"213":-0.1600464366893741,"214":0.014593008181094868,"215":0.09183755933943034,"216":-0.04078867913891143,"217":0.025253670728557664,"218":0.22865879277724716,"219":-0.07270338307847006,"220":0.1233275447020071,"221":0.15698627761696096,"222":0.0028560177822913612,"223":0.1536460625320717,"224":0.2394619509534106,"225":0.03638824140863447,"226":0.19716177464817333,"227":0.20237387693744074,"228":0.04921687132440147,"229":0.05053363597028454,"230":0.3235866800472758,"231":0.028519683764262126,"232":0.17044846986080253,"233":0.31514886972518963,"234":0.033905419982938924,"235":0.001107672175567981,"236":0.20554968120145947,"237":0.10987301824265057,"238":0.09613637415744651,"239":0.17236329593914437,"240":-0.23599862431251453,"241":0.007744387953654811,"242":0.10188373278457406,"243":-0.10044294810678496,"244":0.05925808723301286,"245":0.10705261175401926,"246":-0.0796409618078044,"247":0.1009643866668416,"248":0.13219899434669274,"249":-0.12103951614144437,"250":-0.12732178880806103,"251":0.10868624459034336,"252":-0.08253978315612016,"253":-0.03334556769638946,"254":0.09550887725062532,"255":-0.09397780304919004,"256":0.04184146718446481,"257":0.12820811241332508,"258":-0.06973511367877844,"259":0.04158183293520923,"260":0.2145790554019891,"261":-0.02914734604937674,"262":0.042189072160343524,"263":0.28585870727440893,"264":-0.03937526304689259,"265":0.03630342104296745,"266":0.10013099115629721,"267":-0.023979054287393164,"268":0.06818230301870443,"269":0.1771062713676498,"270":-0.16465821377616163,"271":-0.09411823552969104,"272":0.0338880678644669,"273":-0.1490877094023133,"274":-0.011591411649993374,"275":-0.07854719533731368,"276":-0.0075352421639308656,"277":-0.02489327680098147,"278":-0.06844988466003196,"279":-0.030888066159404988,"280":-0.13187494513371295,"281":0.06853235236733632,"282":-0.02853369868638191,"283":0.05782236413911029,"284":0.1492357412902003,"285":-0.009684829782934666,"286":-0.04882877649262459,"287":0.09837498331396977,"288":-0.051841051032625866,"289":-0.016280256895186234,"290":-0.000679940450992904,"291":0.030690282981699995,"292":-0.0019534511712251887,"293":0.12784304304307928,"294":-0.08656506685850823,"295":-0.029390936267708587,"296":0.04733734835661639,"297":-0.06978899906521235,"298":0.0012145665420307866,"299":0.01970234557742968}}],"biases":{"sx":1,"sy":1,"depth":4,"w":{"0":0.21438315048898468,"1":-0.1847507843331194,"2":0.2636250362968182,"3":1.1458655571244156}}},{"out_depth":4,"out_sx":9,"out_sy":9,"layer_type":"relu"},{"out_depth":100,"out_sx":1,"out_sy":1,"layer_type":"fc","num_inputs":324,"l1_decay_mul":0,"l2_decay_mul":1,"filters":[{"sx":1,"sy":1,"depth":324,"w":{"0":-0.05492514578552157,"1":0.0440388357282953,"2":0.062331557764586584,"3":0.08135910367028068,"4":-0.020602064043684726,"5":0.13460684800842398,"6":0.005275365264372076,"7":0.09575168542099188,"8":0.0061175300691837225,"9":0.020865683425888355,"10":0.017959984302638704,"11":0.011405022141682786,"12":0.09594982582986887,"13":0.04198073500219128,"14":-0.028340520393687563,"15":0.06847084457791087,"16":-0.10439513730261912,"17":0.03899955534890467,"18":-0.030550154515653193,"19":0.07514487032323396,"20":0.025379779389778017,"21":-0.09298828259757907,"22":0.049489735983837255,"23":0.04398297888010125,"24":0.1490705136359579,"25":-0.16131150464995497,"26":0.01785563640391208,"27":0.006356028443764047,"28":0.1284964536308451,"29":0.08392003748224323,"30":-0.0760676615552647,"31":0.01195647341709805,"32":-0.10995602448850662,"33":-0.05458111166285674,"34":-0.032064583903922694,"35":-0.02946817391320092,"36":-0.07207350844260547,"37":-0.06959390768532037,"38":0.11458857379286344,"39":0.09583930441155288,"40":-0.07267557938481428,"41":0.036568107186592126,"42":-0.008264025134521555,"43":-0.017887640730113293,"44":-0.0914900046197466,"45":0.1274256996672475,"46":0.038218388263688584,"47":-0.031033803001300233,"48":0.08093079816165123,"49":0.012314136703811441,"50":-0.005127042715831419,"51":0.027621911627750986,"52":-0.12852896400239971,"53":0.02843852360759837,"54":0.02526177150218172,"55":0.05401743442283598,"56":-0.02872027150328768,"57":0.017525322280432888,"58":-0.12510634375639632,"59":0.129814415896448,"60":0.009426939571310272,"61":-0.14719886704576662,"62":-0.09955646838085976,"63":0.05595923445884257,"64":-0.14836537753131132,"65":0.06368316181794753,"66":-0.028143407571983952,"67":0.0002022500489051894,"68":-0.11511126993745202,"69":-0.07276229054848626,"70":-0.06737580711801763,"71":0.045571271034414836,"72":0.207428104897523,"73":0.020363369483736873,"74":-0.05697412576199683,"75":0.06514002632116658,"76":0.16537993835258188,"77":-0.15236479024090566,"78":0.11493005426110006,"79":0.02004382552667389,"80":-0.09461674675696123,"81":0.12810645450486569,"82":0.04646561852526126,"83":0.016644924006871866,"84":0.02596945352407987,"85":0.1603991820954286,"86":0.08060507626041573,"87":0.0978788843963365,"88":-0.035091918282451166,"89":0.09066273668182204,"90":-0.0185030428894947,"91":0.0667468088457081,"92":0.06986052503134112,"93":-0.0664735618015037,"94":-0.05604964316859621,"95":0.0509973526258834,"96":0.06609089405123657,"97":-0.029230293336756124,"98":-0.09695501549161271,"99":0.012248933433947257,"100":0.04102146885334045,"101":0.06259495778711723,"102":-0.03546240041360363,"103":0.060736210612850776,"104":-0.01708497176260323,"105":-0.12337750397832682,"106":-0.04090792383743219,"107":-0.012950407271307245,"108":0.16597912756668926,"109":0.011085665556429074,"110":0.010510417278874971,"111":0.04396085016351601,"112":-0.04710692681650294,"113":0.08777175120608327,"114":0.005443365797202803,"115":-0.04113656797266613,"116":-0.003312381610658442,"117":0.01221915253517656,"118":0.03505534876558926,"119":0.029914591422945554,"120":-0.00014557681160952006,"121":0.04428181905525391,"122":0.08929255041381075,"123":-0.003410719411326305,"124":-0.015261013370975046,"125":0.17475652915851084,"126":-0.02870607199021986,"127":0.035234166865132144,"128":-0.003773874255232165,"129":0.04024324571848905,"130":-0.05994706949753657,"131":0.1083926254543385,"132":-0.009088935353007982,"133":-0.04796016024648181,"134":-0.08209297710229164,"135":0.047165681923175815,"136":0.05383860403123969,"137":0.028410669693530472,"138":-0.03239465531627251,"139":-0.019129127208889887,"140":0.026063851923854565,"141":-0.10372446377711407,"142":0.017689072354357724,"143":-0.05605734431741018,"144":0.04229941018192545,"145":-0.012902333743468813,"146":-0.0054645942828834065,"147":0.05711415608434822,"148":-0.052430588413578116,"149":0.033031433639129436,"150":-0.03214554386116506,"151":-0.02276884848906,"152":-0.01464701609725996,"153":0.10574070219748419,"154":0.011949689676582605,"155":0.01402939314447914,"156":0.004648402346419323,"157":0.038038071077735894,"158":-0.10323176669430575,"159":-0.013337603445575738,"160":-0.1200037128134137,"161":-0.11303590211722842,"162":0.008755105542831685,"163":-0.011717027672543793,"164":-0.020300588842657324,"165":-0.05775233701260609,"166":-0.1273830478592942,"167":-0.14157826224280567,"168":-0.11785119524485117,"169":0.07645523298763031,"170":-0.07255421753336204,"171":0.08982582091808926,"172":0.05138581046962289,"173":-0.11266402610344682,"174":-0.020054341618262583,"175":0.06783575949033384,"176":-0.018545715381390465,"177":-0.05255349342723646,"178":-0.011441138466063639,"179":0.04840437873877447,"180":-0.09972911758764978,"181":-0.03004326026337651,"182":0.07406008906821607,"183":0.05710993749124971,"184":-0.032913056477079795,"185":0.027681367688582263,"186":0.030173127132600282,"187":-0.010873418201970677,"188":0.044328598457814804,"189":0.20888782146189175,"190":0.1031194796259513,"191":-0.016998991409682612,"192":0.03561257450225216,"193":0.1471425075173684,"194":0.01932496236096402,"195":-0.08114046714394346,"196":-0.022739391197049406,"197":0.07934909952766307,"198":-0.010541083616254535,"199":-0.06285099505387055,"200":-0.046179353167616545,"201":-0.08897308152644595,"202":0.048750911992094116,"203":-0.019114866509721065,"204":-0.1284577963228747,"205":-0.04005371213638235,"206":0.04620287264507814,"207":-0.05168799604154319,"208":-0.05188548028137302,"209":-0.11418799758644786,"210":0.037172178890508806,"211":0.043121263688799386,"212":-0.08906271008442877,"213":-0.0752331379810801,"214":0.07466421224165998,"215":-0.08183673789327045,"216":0.04790742506582103,"217":-0.049847918876625416,"218":0.0771313308901961,"219":-0.04804703969218861,"220":0.04478910173272811,"221":0.009230916531454995,"222":-0.05956982259463953,"223":-0.06952885114325127,"224":-0.0452969946202462,"225":0.00998920626022756,"226":0.09897483264668809,"227":-0.00864657177412434,"228":-0.0012338674693990978,"229":0.060658561547299046,"230":-0.05987768334902009,"231":-0.031365670762970595,"232":0.06732739353783708,"233":0.012029114878037596,"234":0.03860474088585712,"235":0.0673730725151427,"236":-0.046412892616320076,"237":0.06475115636494592,"238":0.09772027286759721,"239":-0.056248718373301546,"240":-0.08652421969794691,"241":-0.010937286183727416,"242":0.03988266864681584,"243":-0.08390055580194229,"244":-0.046597311194500925,"245":0.003673768485523791,"246":-0.04688295929990543,"247":-0.0028356513835677984,"248":-0.13207421816006287,"249":-0.18265328302629624,"250":0.11889173614939715,"251":-0.06920627525298209,"252":0.03983915856837958,"253":0.020442138216841453,"254":0.01302498517546667,"255":-0.1387274075132552,"256":0.053364722473669,"257":0.04439474521571482,"258":-0.07570344152031887,"259":-0.03322046859968041,"260":-0.1945910449811279,"261":0.11709684126585596,"262":-0.007377785536994433,"263":0.08837033233637992,"264":-0.021875006323740856,"265":0.058458741711890826,"266":0.07833045315524148,"267":0.011411298213248343,"268":-0.029808755036745113,"269":-0.03142683247619036,"270":-0.014011765145624027,"271":0.09103797977702137,"272":-0.027133199490438,"273":-0.10143804703491364,"274":0.06458642094906379,"275":-0.09292186502652715,"276":-0.1379976417019878,"277":0.03167638924395633,"278":-0.000572312283989788,"279":-0.020609213846667838,"280":-0.04785473711192453,"281":-0.03825874126197468,"282":0.10082760138484213,"283":0.07023066108641088,"284":-0.05923873467116653,"285":-0.2011459316595464,"286":0.07271834219089934,"287":0.05687559020283018,"288":-0.1554981576226392,"289":0.05769015092857724,"290":-0.014365801270798485,"291":0.07365677332545677,"292":-0.10484554996628746,"293":-0.041767854704444676,"294":-0.0006095943798083906,"295":0.10511325368515917,"296":-0.09521633901913024,"297":-0.050696518185566926,"298":-0.006081005723365137,"299":0.0323919178468061,"300":-0.08148677236053511,"301":-0.012961155964838364,"302":-0.02439176672021935,"303":-0.13370213978842452,"304":-0.061596628442225625,"305":-0.13679191607616198,"306":0.004326140622240954,"307":-0.0193537182444374,"308":-0.0772863605591635,"309":-0.014661760962627902,"310":0.09673741430898922,"311":0.12220368648756709,"312":-0.07042542314515471,"313":-0.03469697976924377,"314":-0.028563537461949416,"315":0.04388209823565865,"316":-0.2722804169611001,"317":-0.14050669697707624,"318":0.09286422430510584,"319":0.07824715911337797,"320":-0.17560215623285427,"321":0.03993256298801585,"322":-0.02573637841106211,"323":0.014251461891578011}},{"sx":1,"sy":1,"depth":324,"w":{"0":0.000747028042098343,"1":0.06544696643311862,"2":-0.02408253634511324,"3":0.02628661243672518,"4":-0.04158037640147195,"5":-0.015568200766857014,"6":0.06417822308235156,"7":-0.007867610456604548,"8":0.08368996108381375,"9":-0.04113042236460365,"10":0.06056624813274658,"11":0.050722120478079474,"12":0.07532578840421726,"13":-0.0693626877103243,"14":-0.16924034704509278,"15":-0.1617538443553797,"16":-0.04493615387639905,"17":0.03434643716122938,"18":-0.04361396937565001,"19":-0.026006309991462813,"20":-0.01823106713521377,"21":-0.036503006919398444,"22":0.04882008755880513,"23":-0.039832284667273274,"24":-0.08934020443513446,"25":-0.023756038836491692,"26":-0.0332999276414982,"27":0.012459750620939345,"28":0.007731049387004654,"29":0.03505191559114869,"30":-0.014884392649723938,"31":-0.05338408254617004,"32":-0.13759211336919613,"33":0.021119711931941905,"34":-0.07765249812264823,"35":0.028233107252627003,"36":0.021828717987681986,"37":0.09600964801441829,"38":0.053387342913660096,"39":-0.028380034480668,"40":0.014329486395868415,"41":-0.03144191621534538,"42":0.031654902130828666,"43":-0.044125133879324825,"44":-0.051885619934340335,"45":-0.051791920431222195,"46":-0.019972344612509,"47":0.07796604604088542,"48":-0.057637248612137294,"49":-0.15866744670579586,"50":0.0870619423267913,"51":-0.01484239629676659,"52":-0.003058299636454997,"53":0.03403860906950154,"54":0.007884644554133138,"55":0.04632941967524495,"56":-0.04166899489417504,"57":-0.036097460535107886,"58":-0.0058910999923805505,"59":-0.009121196684145868,"60":0.053128714688202905,"61":-0.039455672962945255,"62":0.10332701400958202,"63":-0.0344032110026636,"64":-0.06670971684931273,"65":-0.0585874830116951,"66":-0.07464762889687525,"67":-0.016340220063562776,"68":0.08952370392974165,"69":-0.014442567698407327,"70":-0.13078145942187777,"71":0.07851383038094205,"72":-0.040566718851039976,"73":-0.01568843085619328,"74":0.08519143146516038,"75":-0.050318205237607334,"76":-0.09650009826679873,"77":0.05467796035133468,"78":-0.07686259814170647,"79":0.07993771630063018,"80":0.016160053712029516,"81":-0.0032439787560099523,"82":-0.041342951574801085,"83":0.012752623454257025,"84":0.06560312044249426,"85":-0.06967639750810692,"86":-0.027907978224302042,"87":-0.05010398592819236,"88":-0.05418109202369744,"89":0.027787546398748326,"90":-0.06424837365780851,"91":0.017145942235155896,"92":0.060940763713207655,"93":-0.00878035677381092,"94":-0.03607399591406582,"95":-0.08063703196346866,"96":-0.08002160994933853,"97":-0.08994210171893824,"98":0.05449108358337314,"99":0.014515643067858908,"100":0.02236599422536052,"101":0.04815770593885144,"102":-0.01691622602229151,"103":-0.0028024790282561033,"104":-0.00893011077539437,"105":-0.07270502974832932,"106":0.0002493767579644841,"107":0.017718949126447715,"108":0.0264830213030377,"109":-0.08436240807711547,"110":0.04315010938317257,"111":-0.0019407198001859525,"112":-0.017596244820887515,"113":0.05822918302228299,"114":-0.0702869464496915,"115":0.028320098653523872,"116":0.08986198067033734,"117":-0.018707366649580934,"118":0.012522094596508875,"119":0.00034742611298255584,"120":0.06317884293608027,"121":0.07587189875946265,"122":0.014026885813395102,"123":-0.06551154499336607,"124":0.06249833764761579,"125":-0.014389177820212757,"126":0.040727337420206206,"127":0.011787936209210275,"128":0.010578953477169037,"129":0.026510558175817173,"130":-0.0056173544813888825,"131":-0.028386258955749952,"132":-0.02146726905071339,"133":-0.07274722293984592,"134":-0.07250060429060765,"135":-0.07236794497871908,"136":0.05544145893632152,"137":-0.0617366190654451,"138":0.03824155261434205,"139":-0.05903336053398487,"140":0.07768795013652931,"141":0.009791632979264494,"142":-0.07807360292803789,"143":0.006052487190610506,"144":-0.046483230751481884,"145":-0.1095392199979044,"146":-0.010795287332831527,"147":0.09841649215584959,"148":-0.023548138324163317,"149":-0.024782746004210564,"150":-0.0739504745823519,"151":-0.044940851430892687,"152":-0.021453376021775127,"153":0.052803380012976506,"154":-0.017591526208177197,"155":-0.05183821143482479,"156":-0.029282947190721206,"157":0.012049614469035054,"158":0.04714700339974232,"159":-0.03957860071345495,"160":-0.04455471028610135,"161":0.08535227706519408,"162":-0.02145007222746341,"163":-0.07173208938395688,"164":-0.046373735812751365,"165":0.008916808952647256,"166":0.009452336832882978,"167":0.05263677333383587,"168":-0.02968018688795674,"169":-0.1386037134999796,"170":0.0022242771810241546,"171":0.031508064650210534,"172":0.08056433357791948,"173":-0.0784177898500241,"174":0.04469652322321025,"175":0.06233676474570288,"176":0.0933476201429115,"177":0.04838827217283592,"178":-0.03423780724006848,"179":0.009033236396308252,"180":0.035079093970692365,"181":0.015910167957234708,"182":0.03519538060295339,"183":-0.09918932407204395,"184":-0.000497288799752352,"185":-0.05796514981541431,"186":0.005666903221771832,"187":-0.0878176966429523,"188":0.029031015715855958,"189":-0.049905807224495405,"190":0.06383778444467285,"191":0.0718433007101575,"192":-0.045148008965541137,"193":-0.032567890311028656,"194":-0.07602909480137236,"195":-0.025201998175359317,"196":0.011141512469146811,"197":-0.06603856402659947,"198":-0.04329944843604943,"199":-0.01969232980024458,"200":0.0718734790924139,"201":0.028308949114442157,"202":0.019539029380946038,"203":-0.0632789464767196,"204":0.09433688142506774,"205":0.04573234841047017,"206":-0.07087221866320141,"207":-0.011743274611633424,"208":0.012733203188782167,"209":-0.057420588325929736,"210":-0.05557049308336541,"211":-0.05901702966164912,"212":0.03275274413861667,"213":0.03363967073933253,"214":-0.02076509738078753,"215":0.03636064235969406,"216":0.07017969963056489,"217":0.003246354136272391,"218":0.024437359226677727,"219":0.00438949269475701,"220":-0.012737536055264355,"221":0.016638441544326785,"222":0.03937317500494625,"223":0.06664898923847315,"224":0.12080211954375954,"225":-0.03131139248104605,"226":-0.09343081678297714,"227":-0.04343356921316685,"228":0.0005513943091232469,"229":-0.05458100832103706,"230":0.04279456524302495,"231":0.0521823297205563,"232":-0.024806432698323964,"233":0.0016743903636731513,"234":-0.05329871732170553,"235":-0.000302899604953152,"236":0.011233226785826235,"237":0.030390950974540615,"238":0.013922995775968545,"239":0.004741178812553434,"240":0.044208144609613434,"241":0.06611855022394876,"242":-0.04036723900737859,"243":-0.0025492884141651594,"244":0.06653096049213199,"245":0.08186107064912053,"246":-0.021303917685927355,"247":0.0028223475997608523,"248":0.0940792140591731,"249":0.030676687721114378,"250":0.009180184846620401,"251":0.033028229217130105,"252":-0.020277652696642456,"253":0.1436480532321219,"254":-0.023760902813076825,"255":-0.0835720659626321,"256":-0.038228810659709095,"257":0.02455496009682916,"258":0.04699761125530846,"259":-0.09473501749461871,"260":0.024457805739840778,"261":0.044374347534825644,"262":0.027058909393315945,"263":0.04204050040033962,"264":-0.03732070594134599,"265":-0.0320706308340012,"266":-0.06098426200728113,"267":0.05683812671109548,"268":0.034281727420154985,"269":0.1047884814112383,"270":-0.024431402191916717,"271":-0.12451306783768287,"272":-0.028420713828951467,"273":-0.05884296286668351,"274":-0.05440242923838521,"275":-0.03367194980980392,"276":0.029580309382897234,"277":0.058784231788955595,"278":0.010200042007748428,"279":-0.09438174067832049,"280":-0.016653719770700112,"281":-0.02673872281888299,"282":-0.07973218621110632,"283":-0.03231182087706458,"284":0.048367190152330146,"285":0.023344625689003674,"286":0.03365261265363144,"287":0.13431784639445465,"288":0.00629978004783813,"289":-0.022601699936386808,"290":0.01480350440621636,"291":-0.06522185830707239,"292":-0.016238958920202006,"293":0.05301841771967089,"294":0.007007879764445854,"295":0.05600839066724965,"296":0.03087547350431632,"297":0.06147080509976914,"298":0.02499592826653726,"299":0.1368832452943223,"300":0.01757648742273892,"301":-0.009222749696441119,"302":-0.06906931467094356,"303":-0.030920057772512218,"304":-0.01711797466415505,"305":0.020528533115339646,"306":0.015837535724411916,"307":-0.08546657163295919,"308":-0.049525659012916515,"309":-0.08810776942139703,"310":-0.08588087570912194,"311":-0.0028129958887326135,"312":-0.01974464933420867,"313":-0.03510006064870616,"314":0.0012534540143030743,"315":0.0471967151641631,"316":-0.05444899210485745,"317":-0.018504920162521792,"318":0.003200913103942003,"319":0.03388942800684205,"320":-0.04222371072214317,"321":-0.0013531781605163244,"322":-0.03316998327035762,"323":-0.012909458672317258}},{"sx":1,"sy":1,"depth":324,"w":{"0":-0.04926002675140648,"1":-0.006336429082887481,"2":0.24625057854119048,"3":0.020493352866102776,"4":0.02397597378142091,"5":0.09766770187491355,"6":0.018702389370013776,"7":-0.04703087096198712,"8":0.07383893219618072,"9":0.03898183875957035,"10":0.0699926519764295,"11":-0.0071999622950448755,"12":-0.06604205684682242,"13":0.12436741927225728,"14":-0.04715753867702427,"15":0.018348066372818467,"16":-0.1008866278927441,"17":0.019539604219006513,"18":0.045788312693523917,"19":0.044975897134880705,"20":0.06797674578799957,"21":-0.034281452613991195,"22":-0.060655568539155186,"23":0.15070166593689663,"24":0.1436361542376654,"25":-0.016298177200030763,"26":0.05353567241227345,"27":0.042960737920902714,"28":0.11732029518861219,"29":0.1716355831815709,"30":0.02528162101097337,"31":0.04786556012124948,"32":0.08217241229101768,"33":-0.0023311810423574763,"34":-0.04076329598331011,"35":0.03572460470442725,"36":0.13103739946126222,"37":0.05245179194612643,"38":0.14298554835946414,"39":-0.045723976905503394,"40":-0.06166515208731351,"41":-0.23909245106681204,"42":0.01270869920332832,"43":0.12503340670997323,"44":-0.11180248197958187,"45":-0.04042683441938858,"46":0.0806832149281577,"47":0.026067711972562913,"48":-0.004087890306395195,"49":0.06410322155662393,"50":0.020900229356415344,"51":-0.003780151654325054,"52":-0.06348717509331492,"53":-0.08085065253529176,"54":-0.07203802617604992,"55":-0.07944092449870431,"56":0.17777958045162723,"57":0.01599791684283036,"58":0.0680220378512405,"59":0.003526036469486927,"60":0.12258406416877257,"61":0.0032726030678735607,"62":0.007482449812067994,"63":-0.09918321148575653,"64":-0.09625619524913391,"65":0.1264041937393295,"66":-0.07263990216134292,"67":0.10585428093493449,"68":-0.11607583641832761,"69":0.056183889071570944,"70":0.004562384867232014,"71":0.04776114701245298,"72":-0.0005443240980450852,"73":0.054563578629629524,"74":0.06552596721639904,"75":0.025662796252152287,"76":-0.04896941826477908,"77":-0.22944766460611082,"78":0.036212066293532796,"79":0.0435727435357806,"80":-0.010852006056768317,"81":-0.11299346081394769,"82":0.06061864948469637,"83":0.022050630999677436,"84":-0.06855523595114124,"85":-0.004136762486066098,"86":0.05386347895463251,"87":-0.07200676922566449,"88":-0.023496228798397523,"89":-0.019296194949497372,"90":0.0776727819492016,"91":0.059827335469460355,"92":-0.051788954572761184,"93":-0.10222957655999328,"94":0.009097471101275924,"95":-0.07412593783839153,"96":0.05734515554124518,"97":-0.05909901178659046,"98":-0.1301163606658225,"99":-0.03841638491269222,"100":0.06627107999193614,"101":0.04224112838758018,"102":0.052085955941181185,"103":-0.05410871732730092,"104":-0.12277227522199288,"105":-0.062570631316651,"106":-0.05432384841208446,"107":0.008228463682650126,"108":0.17679149790961213,"109":-0.10719772077930674,"110":0.06884046598751678,"111":0.027558811628210788,"112":-0.009714259617140486,"113":-0.05620620319552081,"114":-0.06759784984675167,"115":0.03566346757605965,"116":-0.22490425441446782,"117":-0.1327385915390387,"118":-0.011920171169030663,"119":0.06499883004903334,"120":-0.19344110831382857,"121":0.051030201732740636,"122":-0.11138475413260071,"123":-0.06523812481819816,"124":-0.13589289834007154,"125":0.004145712966230407,"126":-0.10544660272475367,"127":-0.02746069023580188,"128":0.06380949835965513,"129":-0.004293778833609247,"130":-0.04202794349231745,"131":0.016095327580928697,"132":0.03358635082420427,"133":0.0164963535033498,"134":-0.07912090491126926,"135":-0.02951319326114922,"136":-0.06484884712561416,"137":0.13333466860789325,"138":-0.11744577128638482,"139":0.0670814580008813,"140":-0.04966783389880217,"141":0.04907694961812425,"142":-0.07872050550801189,"143":0.023634520681180615,"144":0.09760049674431648,"145":0.07331911434649092,"146":0.11620171643124592,"147":0.0678463567876641,"148":0.0716870562226151,"149":-0.13484270241591975,"150":-0.03531158952956417,"151":-0.037518603700838385,"152":-0.0028250708052038414,"153":0.030773299061169265,"154":-0.00906714554189293,"155":-0.09626888408845911,"156":-0.06685233842348803,"157":0.08626869707386724,"158":0.08428290882746378,"159":-0.05476709967599781,"160":-0.011763477999799548,"161":-0.04579113693448107,"162":0.0010230487196560183,"163":0.00012125484233393054,"164":0.08590941891071441,"165":0.028832942906221803,"166":-0.02317506657194667,"167":0.09110828101049899,"168":-0.017559368676212134,"169":0.16323245154275814,"170":-0.013693110731180172,"171":0.18538131896292967,"172":-0.06437264021839387,"173":0.14774708450737895,"174":-0.018754619690773976,"175":-0.003782945456798017,"176":-0.03632326933473655,"177":0.026571232280748012,"178":0.0020952376937308794,"179":-0.012635787292884892,"180":0.006694648491770945,"181":0.15366480414354067,"182":0.009573441057191183,"183":-0.012075449489592775,"184":-0.04735389652963995,"185":0.08267987579761817,"186":0.0010009296608885368,"187":0.1334773978743156,"188":0.09110372405536074,"189":0.09206101425414835,"190":0.05459221880827623,"191":0.07022500309071372,"192":-0.0940926094685404,"193":0.01932455637149859,"194":0.07159654101961829,"195":-0.10581340473287067,"196":0.06672808176744982,"197":-0.15524952048737004,"198":-0.0253592096258509,"199":0.04860112287442607,"200":0.03589598788511767,"201":0.002688499002330511,"202":-0.08677129314894604,"203":0.028227174215148053,"204":-0.02303217070506768,"205":0.04397334616172854,"206":-0.031375528260077605,"207":0.13026576529768102,"208":0.0028951007323859594,"209":0.013881847053621084,"210":0.02071433755763908,"211":0.031363177252663556,"212":-0.15113898818327626,"213":-0.04678686755695848,"214":0.04793081792393093,"215":0.01959035291007429,"216":-0.05113441754203975,"217":0.09087455919126235,"218":-0.09537785190730826,"219":-0.1254326983950407,"220":-0.13613257386990904,"221":-0.041291818461433386,"222":-0.0889018981981086,"223":0.06959045093926,"224":-0.10351207014121311,"225":-0.008534688474176908,"226":0.00357137911472532,"227":0.056923840643121996,"228":-0.14193886718552873,"229":0.11630143848797893,"230":-0.11064865978935723,"231":-0.03849326558978598,"232":-0.10820040599508678,"233":-0.06008488714560982,"234":-0.06123644421955342,"235":0.04161372230049353,"236":0.021921463686821695,"237":0.15588138507289306,"238":0.06166238385880166,"239":0.03853724075881598,"240":-0.04896229695460646,"241":0.14511826182178195,"242":-0.01752256454181308,"243":0.06820758072496434,"244":-0.07950261805214806,"245":-0.0008078082145639786,"246":-0.004622098429685599,"247":0.04522078017521177,"248":-0.12412121217604566,"249":-0.15383343630096077,"250":0.1257435692416539,"251":-0.08134509870958012,"252":-0.10823049318674127,"253":0.054260077677190106,"254":0.006829899115418604,"255":0.049290310316496236,"256":-0.06541153136723103,"257":-0.040900075912504275,"258":0.05929721761274717,"259":-0.023702130022368147,"260":-0.18188721257837612,"261":0.08399302367396148,"262":-0.06029859136515579,"263":-0.0215553153027371,"264":-0.13451517385699513,"265":-0.09175668374040165,"266":0.027027833011215453,"267":-0.023207088813887725,"268":-0.0515640539152139,"269":-0.21556909175385935,"270":0.06345998235409177,"271":0.1232598952867646,"272":-0.010917498393770635,"273":-0.012035741403467555,"274":-0.0026302091207046027,"275":0.02427733202041341,"276":-0.03247538556810345,"277":0.026880041222833193,"278":-0.08497568944982072,"279":0.011644029846501128,"280":-0.038733942394997965,"281":0.0292225301256808,"282":-0.03865826430621032,"283":-0.0035279434629721883,"284":-0.0065445610248189845,"285":-0.12960009870898434,"286":0.042150933219018145,"287":-0.1902714584263518,"288":-0.3177662360719631,"289":0.03306416943452694,"290":0.002360326962839751,"291":-0.03028245148061647,"292":-0.17312173994560912,"293":-0.28705541550356933,"294":0.11938820857348195,"295":0.07717674689861642,"296":-0.09613050164951421,"297":-0.0041738793265611385,"298":-0.03597658055227001,"299":0.017146262476200012,"300":-0.11577368592586876,"301":-0.12314938196294074,"302":0.10537872771956117,"303":0.13070169886545063,"304":0.08375425520270606,"305":-0.15118927231192825,"306":0.07869251935381409,"307":-0.038422270451362865,"308":0.006139738930778888,"309":0.06443710759869913,"310":-0.04592432219015282,"311":0.08963536468252184,"312":0.13585423976742364,"313":0.1200741830169091,"314":0.08572986544090516,"315":-0.007375841157687399,"316":-0.1288508755335052,"317":-0.02489879250689759,"318":-0.06902171261451427,"319":0.07583351512979472,"320":-0.1088218771490492,"321":-0.03918436885557591,"322":0.02995251767889614,"323":-0.03924086142871542}},{"sx":1,"sy":1,"depth":324,"w":{"0":0.04411883576982574,"1":-0.10111849451581033,"2":0.04993619836194679,"3":-0.02883743792789731,"4":-0.04389363081227901,"5":-0.03389015152086768,"6":0.047656829836654646,"7":0.015411807923175194,"8":-0.026354036286431782,"9":-0.04444173044052557,"10":0.04966789148317456,"11":0.02758064765365221,"12":0.11633546964767062,"13":-0.10093731206886424,"14":0.011239737980268482,"15":0.07466375182916969,"16":0.019577568019185233,"17":0.0869686431521754,"18":0.06445823766215257,"19":0.008764184980855717,"20":-0.0026017880849565863,"21":-0.03627382300508194,"22":0.05571629608314787,"23":0.007748081111493125,"24":-0.0010317700313318503,"25":0.0119078947609163,"26":0.015864406365322235,"27":0.019992854526237742,"28":0.06298444791320061,"29":-0.11864052062059476,"30":0.023215216353672487,"31":-0.06015757530999167,"32":-0.028589311902167357,"33":0.0005250247455483539,"34":-0.05036443197321151,"35":0.11922885868184775,"36":0.012546545121717897,"37":-0.004339226903510859,"38":-0.03375425985965622,"39":-0.08544679762220067,"40":-0.11897737637552819,"41":0.0010986739314851576,"42":-0.03752353746514172,"43":-0.1012526174285361,"44":-0.1222130348295297,"45":0.06489803074749967,"46":0.03711495676745567,"47":-0.014955275183196332,"48":-0.023890562486542144,"49":-0.0013020709940159225,"50":0.014227825876860214,"51":-0.11969408309818616,"52":0.12345993439137316,"53":0.08063798587589276,"54":0.040649745895476756,"55":-0.11813369283556058,"56":0.02654838941787022,"57":-0.05830813830722812,"58":-0.019385508590628618,"59":-0.016059721408287226,"60":0.04411086062748917,"61":-0.057934592848536505,"62":0.016927161683021514,"63":-0.011178708030176463,"64":0.018484147169576054,"65":-0.0024148544699611548,"66":-0.055098190832438276,"67":-0.009552752879076323,"68":-0.04115451649757669,"69":-0.07705462218921798,"70":-0.065041239248919,"71":0.03812046174208045,"72":-0.008758071282269105,"73":0.006979400664810955,"74":-0.0006207903245001854,"75":-0.0038768243464180445,"76":0.07253371631120141,"77":0.015024746604630951,"78":0.027204856415910566,"79":-0.03390712311652416,"80":0.029770741996874243,"81":0.07598296254384405,"82":-0.13833597299062636,"83":-0.07710475387028462,"84":-0.1023123498049138,"85":0.029604604502637268,"86":0.0006161189888628715,"87":0.06137599206401504,"88":0.012363945186125599,"89":-0.11935959403807472,"90":0.055149019863594814,"91":-0.03699499886360867,"92":-0.0246576782324612,"93":0.058463687486661746,"94":-0.07901600560817675,"95":-0.03698375380649143,"96":-0.012847625952070342,"97":-0.03758366487804652,"98":-0.021598113938102903,"99":-0.036769337655515516,"100":-0.027893058276437864,"101":0.10151284737085403,"102":0.047012337414093004,"103":-0.04055948856277675,"104":0.054363252948176295,"105":0.01883280693629665,"106":-0.0580010323226564,"107":-0.04565547075624724,"108":-0.10927794398438308,"109":-0.04248935729187457,"110":-0.004464063444571472,"111":-0.0016467664007821146,"112":-0.11768908761426178,"113":0.06820592043701294,"114":0.07300914655377258,"115":-0.07450680436820578,"116":-0.025627615445544448,"117":-0.08371018226733141,"118":-0.011446579083591363,"119":-0.05688679572149759,"120":-0.09771700443951684,"121":-0.012818678848164377,"122":0.08398663429904238,"123":0.01649584144324617,"124":-0.03531428334604964,"125":0.023874272302104264,"126":-0.04665873105125461,"127":0.056892791713503955,"128":-0.04116392254186415,"129":-0.04302915670387104,"130":0.018872041216462063,"131":0.05720950105112561,"132":-0.09571020806757932,"133":-0.09324053055884864,"134":-0.06997076060253882,"135":-0.05072659761289306,"136":0.023799529766495863,"137":-0.02244857519009711,"138":-0.050575726643495696,"139":0.02160434141599497,"140":-0.006123168509099921,"141":0.1081816042147136,"142":-0.049517529721411366,"143":0.08180086116668107,"144":-0.04324866378194507,"145":0.03227670390935751,"146":-0.10635205446255301,"147":-0.09754352144185452,"148":0.06674840389584358,"149":-0.0647523227021477,"150":0.027608839864754545,"151":0.06288491378240135,"152":0.05123449490908458,"153":0.04276062534516302,"154":-0.023966105237404143,"155":0.07341564583451696,"156":-0.03157826030235025,"157":-0.005389965465274584,"158":-0.06869047900198495,"159":-0.04187640690874904,"160":-0.03353549519685404,"161":-0.022477259836021134,"162":0.02586827415299712,"163":-0.015791469100447732,"164":-0.00487923679950879,"165":-0.06035683562591127,"166":0.004361916858374756,"167":0.04707339850373388,"168":0.05077314963123479,"169":0.013700347629931716,"170":0.04256236219704927,"171":0.03607208376752843,"172":-0.06615960377737246,"173":0.024368057707467913,"174":0.038256997335477355,"175":0.031928003305169185,"176":-0.15777612724984366,"177":0.05032717382875909,"178":-0.06162373160690508,"179":0.007023933616138747,"180":0.06435660360496302,"181":-0.028666918641430846,"182":0.04756673632970054,"183":0.03011631402468588,"184":-0.03706441821108293,"185":0.05988089164784038,"186":0.018023947912597364,"187":-0.08724085194238772,"188":0.010444973381864264,"189":0.0028672443267510573,"190":-0.029057231652098826,"191":-0.039134767078627675,"192":-0.03870646366916952,"193":0.08741399262862276,"194":0.05486284546759055,"195":-0.01116889415578945,"196":-0.024149900979838407,"197":0.01634775387100217,"198":0.030472758751267977,"199":-0.024143915769600285,"200":-0.05210515112189576,"201":0.02194608426750599,"202":0.006174392085135248,"203":-0.04935670172330596,"204":0.04241548906578213,"205":-0.0629743540327231,"206":-0.09382074832622556,"207":-0.006568984932521305,"208":0.0257126991214261,"209":0.14246396808255218,"210":-0.04984950229232422,"211":0.002281378738827971,"212":0.03156981332076389,"213":0.09144229241405605,"214":-0.03690307511529928,"215":0.0631568495402265,"216":-0.034154483597623415,"217":0.003856024064347854,"218":-0.019875766366549065,"219":-0.024883942064420746,"220":0.1001193999712626,"221":-0.037950789780884224,"222":0.05500902142194177,"223":-0.0144292920311999,"224":0.08474000810622112,"225":0.031109848911209326,"226":-0.06261159975282277,"227":-0.058668298376803395,"228":-0.009701339695875815,"229":-0.06683624251332672,"230":-0.041354407392765205,"231":0.1916517204158326,"232":0.08531141381015414,"233":-0.06991784887311303,"234":0.025468579310844935,"235":0.03259598356067355,"236":0.08180753820986073,"237":0.014561210669741836,"238":-0.03773338982616102,"239":0.024062119760103837,"240":-0.05772554350544535,"241":-0.03710537169993407,"242":-0.09935227896063624,"243":-0.05200456426592916,"244":-0.10680975893520533,"245":0.04287730599546569,"246":-0.03080326614836891,"247":0.049012820982086015,"248":-0.02305042677207866,"249":0.0653964178821395,"250":-0.05011911072997384,"251":-0.047331359244813596,"252":0.011283001646959097,"253":-0.07664173827632569,"254":-0.09519359615726097,"255":0.004960132473735788,"256":0.06828565263881026,"257":0.00775192917360164,"258":-0.021887790391078146,"259":0.0004607149422498129,"260":-0.06727872319426156,"261":0.09177900534049954,"262":0.06425287914076616,"263":0.024799435919359968,"264":-0.09538151007284792,"265":-0.011624672629272612,"266":-0.003947455660958917,"267":0.018915105057415272,"268":0.004926067361061413,"269":-0.024947596417241674,"270":-0.053226682919613036,"271":-0.030529677966643774,"272":0.07293142036760428,"273":0.02208548018564206,"274":0.051712024416860916,"275":0.004646814674483708,"276":-0.017175834604511348,"277":0.022277139720338235,"278":-0.08505757175954555,"279":0.056218930572057624,"280":0.003362622335109084,"281":-0.1258548918120624,"282":0.03173514857765879,"283":0.030594824553819636,"284":-0.09509644261936523,"285":-0.03038371813315208,"286":0.09139919202780167,"287":-0.0430984002688792,"288":-0.026214112779750737,"289":-0.013382576746380534,"290":-0.12851309470074573,"291":0.006808740237626336,"292":0.033752239782523195,"293":-0.017621884425545516,"294":-0.03046639640735862,"295":-0.029597313049040553,"296":-0.023780333074457524,"297":-0.11542987131495762,"298":-0.003895136901341774,"299":0.035435802539259514,"300":0.08050454235277803,"301":-0.025479218887899297,"302":-0.05307618661585724,"303":-0.05186817896372792,"304":0.01812355849204978,"305":-0.026917029028181865,"306":0.0976581560821676,"307":0.08694767062688638,"308":0.06021555622029023,"309":0.023176613439173786,"310":0.14250109963710164,"311":0.02578214463565507,"312":0.04589345595870436,"313":0.008384108479873753,"314":-0.11425440675346332,"315":-0.04765857863398951,"316":0.01558950375114943,"317":0.012005978227869451,"318":-0.029211595479061884,"319":-0.0022662515040410567,"320":-0.04443487824855633,"321":0.012815756549052803,"322":0.08984633679401359,"323":-0.09095589659098886}},{"sx":1,"sy":1,"depth":324,"w":{"0":0.08666503110132477,"1":-0.0015230040402514089,"2":-0.06303675361842229,"3":0.019961101424105242,"4":0.01425324580502407,"5":0.0663692452719714,"6":-0.0004149590181590555,"7":-0.04746483999966384,"8":-0.031025591108556263,"9":-0.07148435860412267,"10":0.01130882707539233,"11":-0.03247923127259761,"12":-0.015490723578026586,"13":-0.03605545015524765,"14":0.02865358377611075,"15":-0.02424248599637351,"16":-0.04604778367520612,"17":0.014975009921974359,"18":-0.03351554908126828,"19":-0.1434941330986036,"20":-0.023111002607735034,"21":-0.035741284592931855,"22":-0.0034078689715691802,"23":0.02404214022205533,"24":0.02437401166935871,"25":-0.09772669198000822,"26":0.10194712992342392,"27":-0.08852640619416771,"28":-0.06594642007977246,"29":-0.05874260606245545,"30":0.12193411649256362,"31":0.1062982281637802,"32":0.019936169388533168,"33":0.04032537627646319,"34":0.1066818732107988,"35":-0.024041892658007987,"36":-0.028008434800793205,"37":0.042170128702300164,"38":-0.04867159668883026,"39":-0.019833928586056235,"40":-0.025689003969248256,"41":0.045208428057758925,"42":0.02482651551514418,"43":-0.009627425137375708,"44":0.11112030148348927,"45":0.10249423456101908,"46":0.010304277779250831,"47":0.05441400861302704,"48":-0.005342405418327384,"49":0.042157144467402326,"50":-0.0018987515442652771,"51":-0.049206478473364124,"52":0.044170000675082206,"53":0.10891247141831475,"54":0.003906333198088244,"55":0.018426125308996965,"56":-0.019329574341844236,"57":-0.04095518788844538,"58":0.026440787033627684,"59":-0.02736984587979134,"60":0.026758624903714102,"61":0.123812018174392,"62":0.02818679946875661,"63":-0.056296221166841146,"64":0.01030898926121348,"65":0.050199635847793744,"66":0.022879252571735644,"67":0.038102127357632756,"68":-0.031492787891155095,"69":0.08604849152204884,"70":-0.05046872331076461,"71":-0.07709890131857208,"72":0.05198952669872802,"73":-0.021277644068768378,"74":-0.048914574294734496,"75":-0.027183095933653555,"76":-0.03807805476214145,"77":-0.022433734787847864,"78":-0.0028074404573544738,"79":0.03865603330037613,"80":0.1074160535184638,"81":0.03667098935770608,"82":-0.02594499131699235,"83":-0.0070197883093814735,"84":0.0011352788606060918,"85":-0.07164442384392068,"86":-0.05169419304024373,"87":-0.05901831215846358,"88":-0.0007534686762556231,"89":0.07770256257697435,"90":0.04612589925914508,"91":0.02524018235357941,"92":0.016393304390026998,"93":0.07732229714774244,"94":-0.0004637881346705797,"95":0.07126219662193933,"96":-0.0354677327853724,"97":-0.03637089104273584,"98":0.034374898501417596,"99":-0.02952112384125018,"100":0.052158333721530434,"101":0.016968295470430925,"102":0.050313743897515056,"103":0.029836100951519402,"104":0.10817369699024658,"105":0.028685143243247998,"106":-0.028145122352321632,"107":-0.045638698940105256,"108":0.11475329738251792,"109":-0.09669796820141273,"110":-0.09006498196667706,"111":0.0355555358246519,"112":0.04109299115657505,"113":0.03312231431166052,"114":-0.03405885714849574,"115":-0.042796464581445606,"116":0.02496534813589518,"117":0.026134184303101982,"118":-0.0877147451110395,"119":0.1224059266462743,"120":0.08172484798433015,"121":-0.04022576337995606,"122":0.04266712982421826,"123":-0.09255191236971738,"124":0.07271853502545833,"125":0.05268796422613777,"126":-0.039577886576941314,"127":-0.04288520501377117,"128":-0.0202363345954196,"129":0.00996834326811505,"130":-0.0029161709472258573,"131":0.02091307631239682,"132":0.016707565774886537,"133":0.04844809524955935,"134":0.08668426756452975,"135":-0.021937482719765835,"136":0.06317123404771749,"137":0.11679177633629406,"138":0.018299102633466666,"139":0.07416970733681916,"140":0.0346171887453599,"141":0.01668199001286214,"142":-0.009301796773944892,"143":-0.04786618709417975,"144":-0.007882169737928381,"145":0.09416774644904108,"146":0.003112322080861,"147":0.03339226076618232,"148":0.07804549920892444,"149":0.009520154541718236,"150":-0.0030086583825554717,"151":-0.00021896447894396905,"152":-0.026880520910851243,"153":-0.03857408615592128,"154":0.03994729835996567,"155":0.06940241413147934,"156":0.07842931591078257,"157":-0.046380811700039985,"158":-0.03585119196365593,"159":0.011391941790697607,"160":-0.09322151833912404,"161":0.03773810537262096,"162":-0.04064807759772632,"163":0.06001739687009707,"164":-0.01600574568056654,"165":0.006724827920402393,"166":0.05861446201309153,"167":-0.06370389201504076,"168":0.02524471388621954,"169":-0.06535530862144938,"170":0.015725099443630753,"171":-0.04589607703687525,"172":0.05291678034817534,"173":-0.05839653935932218,"174":-0.0034320851912523665,"175":0.04429077632219302,"176":0.0045271725151074475,"177":0.03763105664288615,"178":0.01369235359138002,"179":-0.06214032822450576,"180":0.007588236915347065,"181":0.021742194850110336,"182":-0.027766102372370382,"183":0.06922877584613184,"184":0.061984178975601836,"185":0.046136482858272626,"186":-0.04496173303875515,"187":0.03431362580639336,"188":-0.046685509317548675,"189":-0.020727386620497477,"190":0.0019605935376630396,"191":-0.0696724625173374,"192":0.11973272528702951,"193":0.022442329918310557,"194":0.03163988725314572,"195":-0.014259115419938044,"196":0.06382789500717705,"197":-0.12679302067908066,"198":0.11146129456181099,"199":0.00535206891800981,"200":0.01695576894065424,"201":0.006529015717111956,"202":0.09059872580159975,"203":-0.032816798801328255,"204":-0.03542905720988147,"205":-0.005236520046910833,"206":-0.006441384486904075,"207":-0.08022072080725161,"208":0.11228742807004867,"209":-0.005732809982753447,"210":-0.002147372476693962,"211":-0.05952754895341802,"212":0.022106319049152563,"213":0.012890036862133303,"214":0.11335783381676857,"215":0.0719733635134783,"216":0.04446046553001653,"217":0.03712146798909027,"218":0.017356461136941077,"219":0.09932395001021158,"220":-0.07066350573745345,"221":-0.06672809430479852,"222":-0.011552505229564405,"223":0.048318028491641914,"224":-0.033307878691119605,"225":-0.005163052388851589,"226":-0.012710898304704482,"227":0.07925932824186839,"228":0.06488250744077553,"229":-0.003454419981307272,"230":0.04028993634712453,"231":-0.02533160761538398,"232":0.061049585611598976,"233":-0.05798031751898653,"234":0.020924365418988306,"235":-0.04941158506607351,"236":-0.07677310349032204,"237":0.024557658133625163,"238":0.0029804912598064524,"239":0.08419974616860039,"240":-0.0342991126455551,"241":0.043574408812663924,"242":-0.005611618909198496,"243":-0.001842072227006692,"244":0.06952654934181693,"245":-0.012970230222496508,"246":-0.023681053611644676,"247":-0.05171214781554254,"248":0.10066823634171723,"249":0.016488541185644627,"250":0.04225536238076606,"251":0.07624731011986431,"252":-0.001363303344601348,"253":-0.04045455796142127,"254":0.02496899377650854,"255":-0.02701540781919509,"256":0.025856685982066932,"257":0.022556562463232413,"258":0.04648302643629477,"259":-0.04121744616187865,"260":-0.07218030914843711,"261":0.08385260147232887,"262":-0.021504968571461874,"263":0.03317230810097655,"264":0.028416236344166578,"265":0.022072493647352497,"266":-0.02309797745814702,"267":0.07782133770494584,"268":0.022887292705166495,"269":-0.007213315717616068,"270":0.054980675014592285,"271":0.02404985444918315,"272":-0.026499409383902703,"273":-0.04156760767332195,"274":-0.07466611274093983,"275":0.07163892289084807,"276":0.04470135423939279,"277":-0.10175986173686104,"278":0.1093788747067068,"279":-0.03720553505174726,"280":-0.021274796023786364,"281":0.01962847606306623,"282":-0.022962944774574966,"283":-0.0014401545141186215,"284":0.14125005570126467,"285":-0.025339021673388598,"286":-0.08702274452672341,"287":0.04383415395309985,"288":0.0232834089595065,"289":-0.0028273263067977407,"290":-0.01664531559502749,"291":0.018933540132969887,"292":0.01756624384833138,"293":0.003827712628463933,"294":0.019261336790442705,"295":-0.056630725675399084,"296":-0.06603089842967995,"297":-0.016979652413038674,"298":-0.05360404399001047,"299":-0.034637949904022906,"300":0.0875729820842633,"301":0.02783369997010899,"302":-0.06538514633271583,"303":-0.046010920708262605,"304":0.07098876730576427,"305":0.03923141174698902,"306":0.015610869192707487,"307":-0.03546773180954997,"308":-0.011052804598100997,"309":-0.07433974918788362,"310":0.05723704527267132,"311":0.010643801893183499,"312":-0.03354142481981494,"313":0.09690007072011388,"314":0.015093242540681938,"315":0.060857079059374077,"316":-0.02086562361851204,"317":-0.08370781330071875,"318":-0.04652864263266755,"319":0.043134941723749494,"320":0.09381013136889356,"321":0.05370611529121758,"322":-0.05207829121708828,"323":-0.02988604089998291}},{"sx":1,"sy":1,"depth":324,"w":{"0":0.09313125707341229,"1":-0.11353048059334266,"2":0.08608005303600998,"3":-0.0821309516767907,"4":-0.10091670574583385,"5":-0.0353482142975418,"6":-0.06026163096630054,"7":-0.08709129070331678,"8":-0.03507860474394423,"9":-0.017301679425840762,"10":0.04437343763021615,"11":0.05431814866724124,"12":0.0126335139769859,"13":0.040252259958875075,"14":0.052613707724586754,"15":0.028980756196508237,"16":-0.026503120004470856,"17":0.011426409424230856,"18":-0.03522551922527329,"19":-0.056961374440416504,"20":-0.0016973335826857654,"21":0.05271074431774861,"22":-0.009484235339015934,"23":-0.06253404219579581,"24":0.028743672985711954,"25":-0.012552934817070876,"26":0.03594799971268581,"27":-0.05994991711558958,"28":0.08463972236600685,"29":0.061173176682722444,"30":0.012706469346563644,"31":0.018768923867470998,"32":-0.02169054676851799,"33":-0.04863457275557436,"34":-0.013069823647114183,"35":0.0005435899885755453,"36":0.044220601399016624,"37":-0.009798629188368749,"38":0.03234557457050044,"39":-0.042195631705465385,"40":0.03720671689216554,"41":-0.04595311786517937,"42":0.007080791954965555,"43":-0.06908572334694911,"44":-0.006901675677543272,"45":-0.008082609455897017,"46":-0.1187021344536291,"47":-0.07230387125693287,"48":-0.07084337315363261,"49":0.1282409961251545,"50":-0.01838883277090238,"51":0.04667809506189775,"52":0.009287099023954191,"53":0.022479124275959758,"54":0.035916821460249305,"55":-0.05843136073360087,"56":-0.028121653918573297,"57":-0.021072602078784825,"58":0.07326512927201213,"59":0.0643061360650266,"60":-0.07754771148046417,"61":0.054306783160001766,"62":0.036341820969292796,"63":0.12775637294058823,"64":0.045384750747477984,"65":0.047159252311013825,"66":-0.006551156898995524,"67":0.04773160960321297,"68":-0.031128272187041513,"69":0.0026347778927566816,"70":0.024367314305912866,"71":0.11934136090576317,"72":0.008708262980440924,"73":0.013921305122870223,"74":-0.004642393998462424,"75":-0.01773852612974549,"76":-0.09596204651709575,"77":-0.05132703926472401,"78":-0.017992142216558257,"79":0.0031149710500373924,"80":-0.10692772388797825,"81":0.07843199388442156,"82":0.07026700202759927,"83":0.08418323547543746,"84":0.06570727677796497,"85":0.019620059931336798,"86":0.030588052358257872,"87":-0.002440952757529052,"88":0.07551992016101193,"89":0.010311164883159729,"90":0.05989302507114828,"91":0.040815466711858074,"92":0.07593773157994847,"93":0.009435596657550257,"94":0.02933062769415149,"95":-0.05066072301544838,"96":0.04115221712984999,"97":-0.09085671919928794,"98":-0.0052427620121763135,"99":-0.10115608122550868,"100":-0.009065830597078297,"101":0.0012564057648485286,"102":0.017925589473718005,"103":0.029086077736860172,"104":-0.024588288437625984,"105":0.053759471347466455,"106":0.08700240519201254,"107":0.011927078989357683,"108":-0.0017408634147813922,"109":-0.07636070889989496,"110":0.020331258938721616,"111":0.07882403545146048,"112":0.03162264104149759,"113":-0.0238520428407473,"114":0.02829197336171281,"115":-0.0014865715913294762,"116":-0.015540172771668867,"117":-0.02852623529641549,"118":-0.007941551557828087,"119":-0.11351581337058772,"120":0.06206576087893688,"121":-0.10757930846271878,"122":0.06891763647553058,"123":-0.043261045475830685,"124":-0.006307775366402448,"125":0.015974600551343764,"126":-0.05051495306825454,"127":-0.07828080018689793,"128":-0.026936918853490525,"129":0.052870956932414274,"130":-0.015300199078232163,"131":-0.02432183124420671,"132":0.014802380586096854,"133":0.035713291530441796,"134":0.014832131640820105,"135":-0.007080819833149417,"136":-0.04384785863814721,"137":0.008898456528597021,"138":0.0002647999900744972,"139":0.03345284979121759,"140":-0.026871565626557334,"141":-0.003551332014334912,"142":-0.08562593677912238,"143":-0.02509398155254574,"144":0.028972988904658988,"145":-0.06062617752305836,"146":0.011788376678576755,"147":0.004788645122305145,"148":0.040621690668476144,"149":0.0012390022454598188,"150":-0.03489100257583894,"151":-0.048111747273889435,"152":0.0161630358296905,"153":0.010961696832036367,"154":-0.0004910372177199823,"155":-0.08637412721561898,"156":0.0038991685597564033,"157":0.03426116120076781,"158":-0.06053139843890132,"159":-0.12341942890516056,"160":-0.058939211491281826,"161":-0.0009997266877440852,"162":0.04597974706432316,"163":0.057963875427141126,"164":0.02444876712220773,"165":0.051003436739857334,"166":-0.053501596097601724,"167":-0.04687792655967069,"168":-0.06354105989221874,"169":0.013677764856747612,"170":-0.020719457043027238,"171":-0.011394079753902263,"172":-0.0937092995735536,"173":0.08139776085058767,"174":0.02835883670555652,"175":0.059988071726214696,"176":-0.00803422297300289,"177":0.014632981658488503,"178":0.09149048112835872,"179":0.04409575006270999,"180":-0.05662074220663293,"181":0.04609277959594705,"182":0.020383671805648124,"183":0.007589542674149217,"184":-0.029764634324109192,"185":0.03254711322509712,"186":-0.015545243923365381,"187":0.02448144472622007,"188":0.0023094289583406504,"189":-0.03233501318475492,"190":-0.016229250992801016,"191":-0.005398966995293322,"192":-0.047314705880394575,"193":-0.09368156821831916,"194":0.007644165037460312,"195":-0.028159574167848426,"196":-0.045675765309431,"197":-0.02297972042278941,"198":-0.023459292409476258,"199":-0.03822035652740356,"200":0.005657910334203749,"201":0.024809400213156328,"202":0.04550945352726581,"203":-0.1492959274964842,"204":-0.03991191068307346,"205":0.04159779684810904,"206":0.04892293110455626,"207":0.0025776407070376792,"208":-0.07572363211571294,"209":0.0783164884233071,"210":0.08684120168057492,"211":-0.03379168687351249,"212":-0.06304160791409219,"213":-0.033809399333419164,"214":0.09917120189025412,"215":-0.010424172597869999,"216":0.15515035954796538,"217":-0.06640559899520923,"218":0.013821914911675965,"219":-0.1269386967542485,"220":-0.02229158934940667,"221":-0.06877280157913256,"222":-0.008639449813925275,"223":-0.10249361141227352,"224":-0.05471964948128128,"225":-0.10137494841620882,"226":0.020629316290596417,"227":0.025695255977486245,"228":-0.005849544806873242,"229":-0.051271224869223794,"230":0.02165028548434242,"231":-0.04150886158357012,"232":0.10234665236171614,"233":-0.031982785501338755,"234":0.056719568857597984,"235":0.05166165281285498,"236":0.01199886597510889,"237":0.0439498708514571,"238":0.026851664959339275,"239":-0.06780321201437077,"240":0.015807704628919634,"241":-0.02233968668535107,"242":-0.05312558381351287,"243":-0.03234432191450954,"244":-0.06524002203672002,"245":-0.1213833165730372,"246":-0.04867379206988965,"247":-0.0740927786267374,"248":0.03811422915634102,"249":0.04733367083031207,"250":0.00024510671878621483,"251":-0.14035226394254657,"252":0.010365055622898628,"253":-0.07732088597570752,"254":-0.041938396993894775,"255":-0.12677488693802633,"256":0.1236025220446672,"257":0.04749921613371082,"258":0.023677232404871167,"259":0.0009465635790499255,"260":0.03563308005424529,"261":-0.016243786707069795,"262":0.0587204743513442,"263":0.052675449371426576,"264":-0.0678038302334582,"265":-0.037174324409358014,"266":-0.021237138805668472,"267":0.06930676643367163,"268":-0.0026035410861834614,"269":0.0271305595109848,"270":0.07074229468577885,"271":0.03731937168623624,"272":-0.022378764568321698,"273":-0.07504411349490615,"274":-0.010670330834752733,"275":-0.054319792619005255,"276":0.05863550787908693,"277":-0.06197430134714594,"278":-0.05978115275042265,"279":0.0018562941187616334,"280":0.03585781416650941,"281":0.0581251076237537,"282":-0.09954796546707122,"283":-0.0006682361686599713,"284":-0.0592601636623371,"285":0.017590540746409773,"286":-0.026186061552800982,"287":-0.0452925344798016,"288":-0.014649842792045018,"289":-0.006228171119645323,"290":0.07317999638966076,"291":0.07615151968846082,"292":0.028497011083988923,"293":-0.0009534624431395198,"294":-0.0707956933694939,"295":-0.0197888338592625,"296":-0.012112411118133127,"297":-0.051882458604200044,"298":-0.08516036047308159,"299":0.062435731928203494,"300":-0.09594053944471082,"301":0.0821837354634237,"302":0.09916992264311779,"303":-0.0003275141062288361,"304":-0.00749986228167308,"305":0.0040929176970017234,"306":-0.08452420034238088,"307":0.05299877984312497,"308":-0.049066941621916174,"309":0.043321759315995086,"310":0.0337766736990179,"311":0.020236437987084018,"312":-0.021430589259197125,"313":-0.022707706900546472,"314":-0.029630538118514422,"315":-0.02663053310885631,"316":0.014719955036897773,"317":0.0034793675759220185,"318":0.0012118676756826697,"319":0.08283371016542669,"320":0.013961399682543337,"321":-0.06553772787562838,"322":-0.00585038535957203,"323":0.04583944504843153}},{"sx":1,"sy":1,"depth":324,"w":{"0":-0.08825346990077063,"1":-0.018091482386034224,"2":0.029844193874937808,"3":-0.09813750948852407,"4":0.02798584078941068,"5":-0.008775838445386482,"6":0.020383719843054288,"7":0.0076727675459589036,"8":-0.04550135792344188,"9":0.034703299073672755,"10":0.03008645323876742,"11":-0.143560994733998,"12":-0.04818064261915127,"13":0.1267703087863273,"14":0.05301523547069428,"15":0.0021983458324191423,"16":0.08719307919770977,"17":0.01765291204315865,"18":-0.035594123942818565,"19":-0.042696789654250174,"20":0.035538684247682514,"21":-0.020424789070509097,"22":0.015037296921983875,"23":0.04137792931458784,"24":0.03501144586634088,"25":-0.00458075195199565,"26":0.06015919875759368,"27":0.015468197523938304,"28":-0.0698891260802221,"29":-0.11833822006406136,"30":-0.163023044129472,"31":-0.07348943321488069,"32":-0.017092253301726156,"33":-0.08445274383735688,"34":-0.04242916107092091,"35":0.015862617755585402,"36":-0.009573358125397714,"37":-0.10762197084306882,"38":0.05311683816432454,"39":0.005226991133784,"40":-0.003189308132351454,"41":0.15755294262989164,"42":-0.013859718069902648,"43":0.013795875809735111,"44":0.01760082177303941,"45":0.04087716359386901,"46":0.0110111725996531,"47":-0.02418490292067779,"48":-0.008148440936459894,"49":-0.0049559650556523305,"50":-0.1006991430069557,"51":0.15236526987121682,"52":0.04324678623461327,"53":-0.023615725612508447,"54":-0.027856815089642082,"55":-0.06016523661714795,"56":-0.03756143709499518,"57":0.014334267426636129,"58":0.011507496325861986,"59":-0.05173611509545002,"60":-0.05167868703336923,"61":-0.05785558327418715,"62":-0.019358757199799636,"63":-0.03540543460317255,"64":-0.005568824456150928,"65":0.05317881716780679,"66":-0.018958434029418436,"67":-0.028357667176018966,"68":0.06696875311343597,"69":-0.07506780125644927,"70":0.03710209618334028,"71":-0.055716152923260466,"72":0.010846453209748917,"73":-0.07633953760429446,"74":-0.003612504776152048,"75":-0.04156128158177434,"76":-0.010862441343014444,"77":0.0202364455319484,"78":-0.050569337973411614,"79":-0.049020810113790364,"80":-0.10437417454665439,"81":-0.024810073375399283,"82":-0.0359398968426872,"83":-0.06552773846125308,"84":0.03919039491706711,"85":-0.0023753927940564096,"86":-0.026608566656979697,"87":-0.03581730563892848,"88":0.03282727079321518,"89":0.09418910388389273,"90":0.04815445645070394,"91":0.051576579352290666,"92":-0.032472207282487314,"93":0.04823222853089301,"94":0.013008941375470083,"95":-0.050159175689249345,"96":0.05736403467015937,"97":0.06289604597510896,"98":-0.019030366385529397,"99":0.01867875114589912,"100":0.07192610506786633,"101":0.02278471026468644,"102":0.03615092126141617,"103":0.007080214944972841,"104":0.025966514137141617,"105":-0.019549329995403774,"106":-0.01450594039747075,"107":0.016357437045774297,"108":0.004669401317613921,"109":0.005215830936161745,"110":-0.0530186365884664,"111":-0.00998816979649529,"112":0.10618223447126687,"113":0.024276937837292685,"114":-0.02561056533685874,"115":-0.0321959882644725,"116":-0.014804144228566796,"117":-0.09865383872885856,"118":0.07212563763215786,"119":0.0019632135895326416,"120":0.006100686281351385,"121":-0.030656555353226075,"122":-0.049131204144315745,"123":0.004846432431806967,"124":-0.01664718150191862,"125":0.015379262829359846,"126":-0.10438670120024762,"127":0.03492083527049022,"128":0.09618929804995556,"129":-0.11343109365533716,"130":0.05377950666395648,"131":-0.10096311276732442,"132":0.004918349313523817,"133":-0.02899350430388362,"134":-0.007248635246818096,"135":0.008560071556405273,"136":0.0136825740731914,"137":-0.052718171310088796,"138":0.003909539280145041,"139":-0.04699277697930371,"140":0.046012999318105,"141":0.035985905351665994,"142":-0.005653883907760656,"143":0.007098078243079834,"144":0.011886751467145894,"145":0.041347757582057845,"146":0.015987499470384112,"147":0.00668432443817106,"148":0.0545411360816793,"149":-0.04044934349946007,"150":0.0660176548895515,"151":-0.043040868055576366,"152":0.06403836435808573,"153":-0.09312057759324147,"154":0.048848558892099714,"155":0.04427436122261262,"156":0.13760339690180465,"157":-0.007900467683662916,"158":-0.01958953835392221,"159":0.0030162466179680532,"160":0.07366442311897055,"161":0.0659828536529563,"162":0.0766039861004667,"163":-0.15155592704354753,"164":0.049459700913978305,"165":-0.15348466962354645,"166":0.007836691901328931,"167":-0.010643240262189832,"168":0.029032392803295077,"169":-0.0351797756395622,"170":-0.00829407718817388,"171":0.03599055359140107,"172":0.014439397905833139,"173":0.06559780895947187,"174":0.046308317467238756,"175":0.029144163727021413,"176":-0.07959523563705888,"177":0.01743152924541425,"178":0.026784898753381425,"179":0.04258033544379997,"180":-0.028946389652071695,"181":-0.03536328084259539,"182":-0.018796491558307423,"183":0.012988108081500147,"184":0.07497453128769116,"185":0.038033048757887794,"186":-0.03228336396801069,"187":-0.039766188341340734,"188":0.04857436625210106,"189":-0.06914569939169156,"190":-0.017622293983859606,"191":0.02536887359656597,"192":0.017172762285441796,"193":0.04149670894850432,"194":0.022757469120711527,"195":-0.06228262695108083,"196":-0.08367751315760441,"197":0.03819227380907391,"198":0.07999014184729619,"199":-0.1278582350034986,"200":0.03939650823445813,"201":0.0305933804170234,"202":0.044837797821407135,"203":0.04565852616792059,"204":-0.017278654584684777,"205":-0.007333428665215174,"206":-0.051720743986046,"207":0.04245183862084025,"208":-0.08806385638078296,"209":0.07928796756807371,"210":-0.0143133258927264,"211":0.04220728629615665,"212":-0.06262304092663094,"213":0.05726343406459628,"214":-0.012889905497249088,"215":0.03257731405966504,"216":-0.02080722856922768,"217":-0.08684293970929309,"218":-0.037845860523973957,"219":-0.0670870041437369,"220":-0.0480850299662826,"221":0.0011092369456564997,"222":0.01354277227543237,"223":0.01177775634285398,"224":0.0019741655572984482,"225":0.026306613633075515,"226":-0.014455822179268408,"227":0.01971886206452127,"228":-0.006575241567408725,"229":-0.024693283223361992,"230":-0.006529845583108119,"231":0.10179081200334725,"232":0.020437862561521983,"233":-0.021665913776720457,"234":-0.007813281403904944,"235":-0.00296116988692073,"236":0.04585862948409735,"237":-0.026461935875778903,"238":-0.027172196697660914,"239":0.1130427106121005,"240":0.013432709021355389,"241":-0.07543884294214732,"242":0.04379581323627925,"243":-0.02056137806098606,"244":-0.07110271688036181,"245":-0.16472564770936518,"246":-0.000048102270400906894,"247":-0.0006360737222635031,"248":-0.08766736665956197,"249":0.10118841494638463,"250":-0.13174528907121136,"251":0.10168068503813542,"252":0.07424851622382368,"253":-0.0752866084974965,"254":0.028346479830036346,"255":0.033996071415990904,"256":-0.07937267328886098,"257":0.1045073594204739,"258":0.03199063182578043,"259":-0.10869048388922734,"260":0.09638629388309397,"261":0.028347705750580165,"262":-0.01302467832228652,"263":0.036992072110226586,"264":0.01238241688451296,"265":-0.11331662552087662,"266":-0.025992845348122733,"267":0.06570464261026221,"268":0.10688970049280497,"269":-0.03457040454806707,"270":-0.004446266015986979,"271":0.0043154595651959645,"272":0.047870810773110756,"273":0.0024365465433794473,"274":0.026757477233686832,"275":0.01208032549138146,"276":0.03956000271894806,"277":-0.08020289120585258,"278":-0.07269000581688052,"279":-0.03296249363405901,"280":-0.09417820124475246,"281":-0.044955480980732584,"282":0.041141721925450264,"283":0.08545256280968487,"284":0.1155467824241152,"285":-0.09725100176706293,"286":0.024718224544115586,"287":-0.02617295064706897,"288":0.06954456214427167,"289":0.06969546058324963,"290":-0.045940928099442654,"291":-0.07032103371294737,"292":-0.08876449354249916,"293":-0.0011807468736991045,"294":0.05101623234729463,"295":0.004030186237952361,"296":-0.06433848011361258,"297":0.07451576766777585,"298":-0.04933685499890624,"299":-0.005796852559935741,"300":-0.11400734212632586,"301":0.048711713762735954,"302":0.07360705761776097,"303":0.10147117003736934,"304":-0.014704721381032914,"305":-0.08906767300393345,"306":0.10202113809528093,"307":0.026432800634681695,"308":0.10341989192152512,"309":0.08305239888463847,"310":0.05692809922523441,"311":0.053417691068964525,"312":0.05212306813416328,"313":-0.06163544071184754,"314":-0.03541372317453112,"315":0.07969120929500105,"316":-0.012453658083252021,"317":-0.05561337757000585,"318":0.01078942748558722,"319":-0.022328959168775434,"320":0.007118867664686684,"321":0.0037600392749457803,"322":-0.008966547279969591,"323":-0.02830139023022176}},{"sx":1,"sy":1,"depth":324,"w":{"0":-0.09206829928376185,"1":-0.05186992261735347,"2":0.06001988376084862,"3":0.033406235429234536,"4":0.020592153666210564,"5":-0.036968768366411546,"6":-0.09009562275653284,"7":0.0662151265041024,"8":-0.07670752552538991,"9":0.0031160005047936794,"10":0.001077160123231964,"11":-0.028397497974561984,"12":0.007181067111417774,"13":-0.027596357338587403,"14":0.03432885866782628,"15":-0.0028531813565215833,"16":-0.048520852288534345,"17":0.03518223688560316,"18":0.025647366944569136,"19":-0.034130789840341874,"20":0.05681739706557009,"21":0.061746485768813315,"22":-0.036378690415880155,"23":-0.021738036086961128,"24":-0.11435920973509349,"25":0.009897658870615136,"26":0.01786987199072031,"27":-0.07865905669932148,"28":0.04354433159604598,"29":-0.01442366464533352,"30":0.0269314307700312,"31":-0.048573140790285796,"32":-0.14579597712225473,"33":-0.0491624955152734,"34":-0.0277579500677812,"35":-0.039636561185655145,"36":-0.013236103976752895,"37":0.08026295139992498,"38":0.0727526609655334,"39":0.027845945673357932,"40":0.11434248061695422,"41":-0.07017472051248394,"42":0.020447543577721782,"43":0.05925855938675593,"44":-0.05751598925966239,"45":-0.058194566664658234,"46":0.04203370979517619,"47":0.01726525081306631,"48":0.10270984558798019,"49":0.07077592354131866,"50":0.015276940854946821,"51":0.07236962714907716,"52":-0.05405320949794864,"53":0.09295300513747075,"54":-0.01148432015930643,"55":0.08742209790095487,"56":-0.05940261173997601,"57":-0.05810454391373293,"58":-0.152731251451846,"59":0.03938189990112465,"60":0.05732079671406006,"61":-0.04647517775448995,"62":-0.0020627889785217904,"63":-0.029303412197652628,"64":0.02870098872675121,"65":-0.1499336882885859,"66":-0.03436534000623488,"67":0.052614610663464165,"68":0.06825418758651046,"69":-0.13444525718075065,"70":-0.024004185790841768,"71":0.005472032997166256,"72":-0.05270060413322119,"73":0.056726891243791204,"74":-0.018342645439785657,"75":-0.09125131266058194,"76":0.07587420492307938,"77":-0.08637138552433331,"78":-0.03566860923610309,"79":0.003771746715269008,"80":-0.09562690477094672,"81":-0.013086514930360798,"82":-0.007084401724748514,"83":0.1103776197048712,"84":0.09283194636204854,"85":0.01738867889872088,"86":0.022370312842888367,"87":0.032757739320745785,"88":0.11751063068515626,"89":0.05876597557760461,"90":-0.0147286111082102,"91":0.017463817721096647,"92":-0.04964400115635376,"93":0.005829925324491705,"94":-0.053433193014289754,"95":-0.06346032457373535,"96":0.1346247731535584,"97":-0.04404007744125317,"98":0.053174626482475944,"99":0.06237564701676743,"100":0.01719010923292257,"101":0.06845840157814252,"102":-0.04298914989242749,"103":-0.02827071916681727,"104":0.008277761461849806,"105":-0.016096303890669295,"106":0.03179309856436286,"107":0.017910194998466494,"108":-0.0897624967735983,"109":-0.006379193926426329,"110":-0.0913689812745182,"111":0.021404073154798895,"112":0.053539529936116756,"113":-0.005091185126529947,"114":-0.09172264045065925,"115":-0.004749599322880607,"116":0.06923498360763247,"117":-0.016343788997453767,"118":-0.03872468980033537,"119":-0.07869485706165938,"120":-0.034432506636535784,"121":-0.036808313247654816,"122":-0.025492855963894504,"123":-0.026516275050657248,"124":-0.043716233579377185,"125":0.06699942184894227,"126":-0.14381260805551888,"127":0.00834356473009388,"128":-0.04520478850260595,"129":-0.07590678334018423,"130":0.004600747171960201,"131":-0.013710758679865697,"132":0.053858012638402473,"133":0.009309834976963945,"134":0.034302040948949404,"135":0.028018042509805975,"136":-0.012596518538652485,"137":-0.025730988653171444,"138":0.012775640167659193,"139":-0.04204235653454032,"140":-0.04302526664284505,"141":0.06233639056377773,"142":-0.0053676574328442245,"143":0.017624418571648093,"144":-0.022361294645414163,"145":0.041737789045766555,"146":-0.002607863058903982,"147":-0.028706746915988582,"148":0.051056040907515504,"149":-0.04410621901611196,"150":-0.10606532130385299,"151":0.07537799424737268,"152":0.01751836480009562,"153":-0.02437934620832923,"154":-0.09448279268516875,"155":0.07954557842477887,"156":0.0648469269935965,"157":-0.11813407005127241,"158":-0.14973437094893036,"159":-0.033220114240860674,"160":0.0015254857553383583,"161":-0.06424707023988412,"162":-0.03429075629609284,"163":-0.01848317481799009,"164":0.08747922505029326,"165":-0.0605401556923929,"166":0.0039447043872633996,"167":-0.15898878381452256,"168":-0.0005357426861096496,"169":-0.01575496955749231,"170":-0.08699713357628948,"171":-0.043938343745892214,"172":0.032586281223166376,"173":-0.10592812878015026,"174":0.006209176196751046,"175":-0.007114044714934918,"176":0.0021213652330629796,"177":-0.016166457018475487,"178":-0.026414058848976314,"179":-0.028898388461456318,"180":0.05481017650082738,"181":-0.062300103266267254,"182":0.056689700734278405,"183":0.011143289173331032,"184":-0.020878254077170397,"185":-0.09870779298631183,"186":-0.034755548445445775,"187":-0.0345492637971207,"188":0.05990083963274333,"189":-0.00042694412015185755,"190":0.004192369538123318,"191":-0.0016710105585899951,"192":0.07433760429487254,"193":-0.008500012430475126,"194":0.012724298235738325,"195":-0.037005513552247474,"196":0.09111207846144266,"197":0.012001817552628255,"198":0.07715786221251682,"199":0.049499367380770716,"200":0.06757775957950692,"201":0.010366917856441067,"202":0.07629030369284555,"203":-0.012197273939159465,"204":0.013126613452424234,"205":0.0034057443453637494,"206":0.08554342332877478,"207":-0.029812902680213353,"208":-0.03449801538199578,"209":-0.08528087197870188,"210":-0.026559134063741753,"211":-0.009737898078528795,"212":0.00037183317342814653,"213":0.017776120795799908,"214":-0.052374992581340866,"215":-0.01585213966943929,"216":0.009124956011224112,"217":0.052319570582037324,"218":0.08101556920298826,"219":-0.046612350525582776,"220":0.061440067748993514,"221":-0.04354451426390613,"222":0.00014534779773464794,"223":-0.05048416323431224,"224":0.07927705860367722,"225":0.11815286790731296,"226":0.015891356865865215,"227":-0.05251876840718683,"228":0.10212351035922304,"229":0.011569292952984808,"230":0.04315073781446893,"231":0.027867423863089283,"232":-0.009479708838901296,"233":-0.07087692861821653,"234":0.010800325450265285,"235":0.03418809726156068,"236":0.02891215576879849,"237":-0.02302314097070714,"238":0.014680508682457995,"239":0.09649425211274393,"240":-0.022837542847092804,"241":0.03560871793682511,"242":0.07044966569474564,"243":-0.0727615604508076,"244":0.07094758254118576,"245":-0.14044562670626667,"246":0.04911029456332023,"247":-0.029181131671563165,"248":-0.012405423845755235,"249":-0.08379342086117837,"250":0.07610444949713285,"251":0.0881774604986564,"252":-0.02697269957456327,"253":0.09858501911285417,"254":0.030750198663711547,"255":0.04607168691024055,"256":0.048207455284390355,"257":-0.039098188550369936,"258":0.0059603012288773445,"259":0.011511313839879087,"260":0.003692325453938603,"261":-0.03973744476110175,"262":0.005289020568644294,"263":-0.03859967025040572,"264":0.06516016068390587,"265":0.029223998140386682,"266":0.03619968280548912,"267":-0.08442128216024736,"268":-0.017940305648413403,"269":0.06440492051534273,"270":0.08029682806632038,